network unknown {
}
variable L_attr_3_attr_13 {
    type discrete [ 2 ] { 0_ou_3_ou_2_ou_1_ou_6, 7_ou_8_ou_4_ou_5 };
    property weight = None ;
}
variable attr_0 {
    type discrete [ 3 ] { 0, 1, 2 };
    property weight = None ;
}
variable attr_1 {
    type discrete [ 3 ] { 0, 1, 2 };
    property weight = None ;
}
variable attr_10 {
    type discrete [ 3 ] { 0, 1, 2 };
    property weight = None ;
}
variable attr_11 {
    type discrete [ 3 ] { 0, 1, 2 };
    property weight = None ;
}
variable attr_12 {
    type discrete [ 3 ] { 0, 1, 2 };
    property weight = None ;
}
variable attr_13 {
    type discrete [ 3 ] { 0, 1, 2 };
    property weight = None ;
}
variable attr_14 {
    type discrete [ 3 ] { 0, 1, 2 };
    property weight = None ;
}
variable attr_15 {
    type discrete [ 3 ] { 0, 1, 2 };
    property weight = None ;
}
variable attr_16 {
    type discrete [ 3 ] { 0, 1, 2 };
    property weight = None ;
}
variable attr_17 {
    type discrete [ 3 ] { 0, 1, 2 };
    property weight = None ;
}
variable attr_18 {
    type discrete [ 3 ] { 0, 1, 2 };
    property weight = None ;
}
variable attr_19 {
    type discrete [ 3 ] { 0, 1, 2 };
    property weight = None ;
}
variable attr_2 {
    type discrete [ 3 ] { 0, 1, 2 };
    property weight = None ;
}
variable attr_20 {
    type discrete [ 3 ] { 0, 1, 2 };
    property weight = None ;
}
variable attr_21 {
    type discrete [ 3 ] { 0, 1, 2 };
    property weight = None ;
}
variable attr_22 {
    type discrete [ 3 ] { 0, 1, 2 };
    property weight = None ;
}
variable attr_23 {
    type discrete [ 3 ] { 0, 1, 2 };
    property weight = None ;
}
variable attr_24 {
    type discrete [ 3 ] { 0, 1, 2 };
    property weight = None ;
}
variable attr_25 {
    type discrete [ 3 ] { 0, 1, 2 };
    property weight = None ;
}
variable attr_26 {
    type discrete [ 3 ] { 0, 1, 2 };
    property weight = None ;
}
variable attr_27 {
    type discrete [ 3 ] { 0, 1, 2 };
    property weight = None ;
}
variable attr_28 {
    type discrete [ 3 ] { 0, 1, 2 };
    property weight = None ;
}
variable attr_3 {
    type discrete [ 3 ] { 0, 1, 2 };
    property weight = None ;
}
variable attr_4 {
    type discrete [ 3 ] { 0, 1, 2 };
    property weight = None ;
}
variable attr_5 {
    type discrete [ 3 ] { 0, 1, 2 };
    property weight = None ;
}
variable attr_6 {
    type discrete [ 3 ] { 0, 1, 2 };
    property weight = None ;
}
variable attr_7 {
    type discrete [ 3 ] { 0, 1, 2 };
    property weight = None ;
}
variable attr_8 {
    type discrete [ 3 ] { 0, 1, 2 };
    property weight = None ;
}
variable attr_9 {
    type discrete [ 3 ] { 0, 1, 2 };
    property weight = None ;
}
variable path {
    type discrete [ 270 ] { 0, 1, 2, 3, 4, 5, 6, 7, 8, 9, 10, 11, 12, 13, 14, 15, 16, 17, 18, 21, 22, 23, 24, 25, 26, 27, 28, 29, 30, 31, 32, 33, 34, 36, 37, 38, 39, 40, 41, 42, 43, 44, 45, 46, 47, 48, 49, 50, 51, 52, 53, 54, 55, 56, 57, 59, 60, 62, 63, 64, 65, 66, 68, 69, 70, 72, 73, 74, 75, 76, 77, 78, 81, 82, 84, 85, 86, 87, 88, 89, 90, 91, 92, 93, 94, 96, 97, 98, 99, 100, 101, 102, 104, 105, 107, 108, 109, 111, 112, 114, 116, 117, 118, 119, 122, 123, 124, 126, 127, 128, 129, 130, 131, 132, 133, 135, 136, 137, 138, 139, 140, 141, 143, 144, 145, 146, 148, 150, 151, 152, 153, 154, 155, 156, 157, 158, 159, 160, 161, 162, 163, 164, 166, 167, 168, 169, 170, 171, 172, 174, 178, 181, 183, 184, 185, 187, 188, 190, 191, 192, 193, 194, 196, 197, 198, 199, 200, 205, 207, 208, 209, 210, 211, 212, 214, 215, 216, 217, 218, 219, 220, 221, 222, 223, 224, 225, 226, 227, 231, 232, 233, 234, 235, 236, 237, 238, 239, 240, 241, 244, 245, 247, 248, 249, 251, 252, 253, 254, 255, 256, 257, 259, 261, 262, 266, 267, 268, 270, 271, 272, 273, 274, 275, 276, 277, 279, 281, 282, 283, 284, 286, 287, 288, 289, 290, 291, 293, 294, 295, 296, 298, 299, 300, 301, 304, 305, 306, 307, 308, 309, 310, 312, 313, 314, 315, 316, 317, 318, 319, 320, 322, 323, 324, 325, 327, 328, 330, 331, 333, 334 };
    property weight = None ;
}
variable target {
    type discrete [ 2 ] { 0, 1 };
    property weight = None ;
}
probability ( L_attr_3_attr_13 | target ) {
    ( 0 ) 0.4367286459530843, 0.5632713540469156;
    ( 1 ) 0.4587934463119741, 0.541206553688026;

}
probability ( attr_0 | target ) {
    ( 0 ) 0.0, 0.8723404255319149, 0.1276595744680851;
    ( 1 ) 0.09523809523809523, 0.564625850340136, 0.3401360544217687;

}
probability ( attr_1 | target ) {
    ( 0 ) 0.24822695035460993, 0.41843971631205673, 0.3333333333333333;
    ( 1 ) 0.05442176870748299, 0.7482993197278912, 0.19727891156462585;

}
probability ( attr_10 | target ) {
    ( 0 ) 0.6312056737588653, 0.06382978723404255, 0.3049645390070922;
    ( 1 ) 0.46258503401360546, 0.013605442176870748, 0.5238095238095238;

}
probability ( attr_11 | target ) {
    ( 0 ) 0.14184397163120568, 0.09929078014184398, 0.7588652482269503;
    ( 1 ) 0.04081632653061224, 0.2789115646258503, 0.6802721088435374;

}
probability ( attr_12 | target ) {
    ( 0 ) 0.8936170212765957, 0.10638297872340426, 0.0;
    ( 1 ) 0.7210884353741497, 0.24489795918367346, 0.034013605442176874;

}
probability ( attr_13 | L_attr_3_attr_13 ) {
    ( 0_ou_3_ou_2_ou_1_ou_6 ) 0.001208731812217439, 0.845433162346394, 0.15335810584138865;
    ( 7_ou_8_ou_4_ou_5 ) 0.12078438594326905, 0.5201111888466888, 0.3591044252100421;

}
probability ( attr_14 | target ) {
    ( 0 ) 0.0425531914893617, 0.07092198581560284, 0.8865248226950354;
    ( 1 ) 0.0, 0.35374149659863946, 0.6462585034013606;

}
probability ( attr_15 | target ) {
    ( 0 ) 0.06382978723404255, 0.375886524822695, 0.5602836879432624;
    ( 1 ) 0.32653061224489793, 0.16326530612244897, 0.5102040816326531;

}
probability ( attr_16 | target ) {
    ( 0 ) 0.014184397163120567, 0.12056737588652482, 0.8652482269503546;
    ( 1 ) 0.08163265306122448, 0.3333333333333333, 0.5850340136054422;

}
probability ( attr_17 | target ) {
    ( 0 ) 0.0, 0.7730496453900709, 0.22695035460992907;
    ( 1 ) 0.08163265306122448, 0.3741496598639456, 0.54421768707483;

}
probability ( attr_18 | target ) {
    ( 0 ) 0.8581560283687943, 0.0, 0.14184397163120568;
    ( 1 ) 0.7210884353741497, 0.04081632653061224, 0.23809523809523808;

}
probability ( attr_19 | target ) {
    ( 0 ) 0.2695035460992908, 0.1347517730496454, 0.5957446808510638;
    ( 1 ) 0.6394557823129252, 0.013605442176870748, 0.3469387755102041;

}
probability ( attr_2 | target ) {
    ( 0 ) 0.0, 0.6595744680851063, 0.3404255319148936;
    ( 1 ) 0.04081632653061224, 0.38095238095238093, 0.5782312925170068;

}
probability ( attr_20 | target ) {
    ( 0 ) 0.3049645390070922, 0.23404255319148937, 0.46099290780141844;
    ( 1 ) 0.12244897959183673, 0.41496598639455784, 0.46258503401360546;

}
probability ( attr_21 | target ) {
    ( 0 ) 0.3120567375886525, 0.45390070921985815, 0.23404255319148937;
    ( 1 ) 0.1292517006802721, 0.6938775510204082, 0.17687074829931973;

}
probability ( attr_22 | target ) {
    ( 0 ) 0.45390070921985815, 0.14893617021276595, 0.3971631205673759;
    ( 1 ) 0.20408163265306123, 0.3945578231292517, 0.4013605442176871;

}
probability ( attr_23 | target ) {
    ( 0 ) 0.3120567375886525, 0.22695035460992907, 0.46099290780141844;
    ( 1 ) 0.08163265306122448, 0.4897959183673469, 0.42857142857142855;

}
probability ( attr_24 | target ) {
    ( 0 ) 0.1276595744680851, 0.7092198581560284, 0.16312056737588654;
    ( 1 ) 0.3129251700680272, 0.5102040816326531, 0.17687074829931973;

}
probability ( attr_25 | target ) {
    ( 0 ) 0.1347517730496454, 0.8368794326241135, 0.028368794326241134;
    ( 1 ) 0.3401360544217687, 0.6598639455782312, 0.0;

}
probability ( attr_26 | target ) {
    ( 0 ) 0.5602836879432624, 0.06382978723404255, 0.375886524822695;
    ( 1 ) 0.2789115646258503, 0.30612244897959184, 0.41496598639455784;

}
probability ( attr_27 | target ) {
    ( 0 ) 0.014184397163120567, 0.2127659574468085, 0.7730496453900709;
    ( 1 ) 0.07482993197278912, 0.4489795918367347, 0.47619047619047616;

}
probability ( attr_28 | target ) {
    ( 0 ) 0.6028368794326241, 0.3900709219858156, 0.0070921985815602835;
    ( 1 ) 0.32653061224489793, 0.6190476190476191, 0.05442176870748299;

}
probability ( attr_3 | L_attr_3_attr_13 ) {
    ( 0_ou_3_ou_2_ou_1_ou_6 ) 0.1931715364982504, 0.48777750942449605, 0.3190509540772536;
    ( 7_ou_8_ou_4_ou_5 ) 0.3472534009476058, 0.33841273090444735, 0.3143338681479469;

}
probability ( attr_4 | target ) {
    ( 0 ) 0.0425531914893617, 0.07801418439716312, 0.8794326241134752;
    ( 1 ) 0.3129251700680272, 0.11564625850340136, 0.5714285714285714;

}
probability ( attr_5 | target ) {
    ( 0 ) 0.03546099290780142, 0.3333333333333333, 0.6312056737588653;
    ( 1 ) 0.0, 0.564625850340136, 0.43537414965986393;

}
probability ( attr_6 | target ) {
    ( 0 ) 0.06382978723404255, 0.03546099290780142, 0.900709219858156;
    ( 1 ) 0.42857142857142855, 0.0, 0.5714285714285714;

}
probability ( attr_7 | target ) {
    ( 0 ) 0.2978723404255319, 0.3404255319148936, 0.3617021276595745;
    ( 1 ) 0.09523809523809523, 0.5850340136054422, 0.3197278911564626;

}
probability ( attr_8 | target ) {
    ( 0 ) 0.0, 0.7588652482269503, 0.24113475177304963;
    ( 1 ) 0.06802721088435375, 0.4421768707482993, 0.4897959183673469;

}
probability ( attr_9 | target ) {
    ( 0 ) 0.5886524822695035, 0.10638297872340426, 0.3049645390070922;
    ( 1 ) 0.3333333333333333, 0.29931972789115646, 0.3673469387755102;

}
probability ( path | target ) {
    ( 0 ) 0.02127659574468085, 0.0070921985815602835, 0.0, 0.0070921985815602835, 0.0, 0.0070921985815602835, 0.0070921985815602835, 0.0, 0.0, 0.0, 0.0070921985815602835, 0.0, 0.0, 0.0070921985815602835, 0.0, 0.0, 0.0070921985815602835, 0.0, 0.0, 0.0070921985815602835, 0.0, 0.0, 0.0070921985815602835, 0.0070921985815602835, 0.0, 0.0, 0.0, 0.0, 0.0, 0.0070921985815602835, 0.0070921985815602835, 0.0, 0.0070921985815602835, 0.0070921985815602835, 0.0070921985815602835, 0.0, 0.0, 0.0, 0.0, 0.0, 0.0, 0.0, 0.0070921985815602835, 0.0, 0.0, 0.0, 0.0070921985815602835, 0.0, 0.0, 0.0070921985815602835, 0.0, 0.0, 0.0, 0.0, 0.0070921985815602835, 0.0, 0.0, 0.0, 0.0, 0.0, 0.0, 0.0, 0.0070921985815602835, 0.0, 0.0, 0.0, 0.0070921985815602835, 0.0, 0.0, 0.0, 0.0070921985815602835, 0.0, 0.0, 0.0070921985815602835, 0.0, 0.0070921985815602835, 0.0070921985815602835, 0.0, 0.0070921985815602835, 0.0070921985815602835, 0.0070921985815602835, 0.0, 0.0, 0.0070921985815602835, 0.0070921985815602835, 0.0070921985815602835, 0.0, 0.0070921985815602835, 0.0, 0.0, 0.0070921985815602835, 0.0070921985815602835, 0.0070921985815602835, 0.0, 0.0070921985815602835, 0.0070921985815602835, 0.0, 0.0070921985815602835, 0.0, 0.0, 0.0, 0.0, 0.0070921985815602835, 0.0, 0.0, 0.0, 0.0070921985815602835, 0.0, 0.0, 0.0, 0.0070921985815602835, 0.0070921985815602835, 0.0, 0.0, 0.0, 0.0, 0.0, 0.0070921985815602835, 0.0070921985815602835, 0.0070921985815602835, 0.0070921985815602835, 0.0, 0.0, 0.0, 0.0, 0.0, 0.0, 0.0, 0.0070921985815602835, 0.0070921985815602835, 0.0070921985815602835, 0.0, 0.0, 0.0, 0.0, 0.0, 0.0070921985815602835, 0.0, 0.0, 0.0070921985815602835, 0.0070921985815602835, 0.0, 0.0070921985815602835, 0.0, 0.0, 0.0070921985815602835, 0.0070921985815602835, 0.0, 0.0, 0.0, 0.0, 0.0070921985815602835, 0.0070921985815602835, 0.0070921985815602835, 0.0, 0.0070921985815602835, 0.0, 0.0, 0.0, 0.0070921985815602835, 0.0, 0.0070921985815602835, 0.0, 0.0, 0.0070921985815602835, 0.0, 0.0070921985815602835, 0.0070921985815602835, 0.0070921985815602835, 0.0070921985815602835, 0.0, 0.0070921985815602835, 0.0070921985815602835, 0.0, 0.0, 0.0, 0.0070921985815602835, 0.0070921985815602835, 0.0, 0.0070921985815602835, 0.0070921985815602835, 0.0070921985815602835, 0.0070921985815602835, 0.0, 0.0070921985815602835, 0.0070921985815602835, 0.0, 0.0070921985815602835, 0.0070921985815602835, 0.0, 0.0070921985815602835, 0.0070921985815602835, 0.0, 0.0070921985815602835, 0.0070921985815602835, 0.0070921985815602835, 0.0, 0.0070921985815602835, 0.0070921985815602835, 0.0, 0.0, 0.0, 0.0070921985815602835, 0.0, 0.0070921985815602835, 0.0, 0.0, 0.0070921985815602835, 0.0070921985815602835, 0.0070921985815602835, 0.0, 0.0, 0.0070921985815602835, 0.0070921985815602835, 0.0070921985815602835, 0.0070921985815602835, 0.0070921985815602835, 0.0, 0.0, 0.0070921985815602835, 0.0070921985815602835, 0.0070921985815602835, 0.0070921985815602835, 0.0070921985815602835, 0.0070921985815602835, 0.0070921985815602835, 0.0070921985815602835, 0.0070921985815602835, 0.0070921985815602835, 0.0070921985815602835, 0.0070921985815602835, 0.0070921985815602835, 0.0070921985815602835, 0.0, 0.0070921985815602835, 0.0070921985815602835, 0.0070921985815602835, 0.0070921985815602835, 0.0070921985815602835, 0.0070921985815602835, 0.0070921985815602835, 0.0070921985815602835, 0.0070921985815602835, 0.0070921985815602835, 0.0070921985815602835, 0.0070921985815602835, 0.0070921985815602835, 0.0, 0.0070921985815602835, 0.0070921985815602835, 0.0, 0.0070921985815602835, 0.0070921985815602835, 0.0070921985815602835, 0.0070921985815602835, 0.0070921985815602835, 0.0070921985815602835, 0.0070921985815602835, 0.0, 0.0070921985815602835, 0.0, 0.0, 0.0, 0.0070921985815602835, 0.0070921985815602835, 0.0070921985815602835, 0.0070921985815602835, 0.0070921985815602835, 0.0070921985815602835, 0.0;
    ( 1 ) 0.06802721088435375, 0.0, 0.006802721088435374, 0.0, 0.006802721088435374, 0.0, 0.0, 0.006802721088435374, 0.006802721088435374, 0.006802721088435374, 0.0, 0.013605442176870748, 0.006802721088435374, 0.0, 0.006802721088435374, 0.006802721088435374, 0.0, 0.006802721088435374, 0.006802721088435374, 0.0, 0.006802721088435374, 0.006802721088435374, 0.0, 0.0, 0.006802721088435374, 0.006802721088435374, 0.006802721088435374, 0.006802721088435374, 0.006802721088435374, 0.0, 0.0, 0.006802721088435374, 0.0, 0.0, 0.0, 0.013605442176870748, 0.006802721088435374, 0.006802721088435374, 0.006802721088435374, 0.006802721088435374, 0.006802721088435374, 0.013605442176870748, 0.0, 0.006802721088435374, 0.006802721088435374, 0.006802721088435374, 0.0, 0.006802721088435374, 0.006802721088435374, 0.0, 0.006802721088435374, 0.006802721088435374, 0.006802721088435374, 0.006802721088435374, 0.0, 0.006802721088435374, 0.006802721088435374, 0.006802721088435374, 0.006802721088435374, 0.006802721088435374, 0.006802721088435374, 0.006802721088435374, 0.0, 0.006802721088435374, 0.006802721088435374, 0.006802721088435374, 0.0, 0.006802721088435374, 0.006802721088435374, 0.006802721088435374, 0.0, 0.006802721088435374, 0.006802721088435374, 0.0, 0.006802721088435374, 0.0, 0.0, 0.006802721088435374, 0.0, 0.0, 0.0, 0.006802721088435374, 0.006802721088435374, 0.0, 0.0, 0.0, 0.006802721088435374, 0.0, 0.013605442176870748, 0.006802721088435374, 0.0, 0.0, 0.0, 0.006802721088435374, 0.0, 0.0, 0.006802721088435374, 0.0, 0.006802721088435374, 0.006802721088435374, 0.013605442176870748, 0.006802721088435374, 0.0, 0.006802721088435374, 0.006802721088435374, 0.006802721088435374, 0.0, 0.006802721088435374, 0.006802721088435374, 0.006802721088435374, 0.0, 0.0, 0.006802721088435374, 0.006802721088435374, 0.006802721088435374, 0.006802721088435374, 0.006802721088435374, 0.0, 0.0, 0.0, 0.0, 0.006802721088435374, 0.006802721088435374, 0.006802721088435374, 0.006802721088435374, 0.006802721088435374, 0.013605442176870748, 0.006802721088435374, 0.0, 0.0, 0.0, 0.006802721088435374, 0.006802721088435374, 0.006802721088435374, 0.006802721088435374, 0.006802721088435374, 0.0, 0.006802721088435374, 0.006802721088435374, 0.0, 0.0, 0.006802721088435374, 0.0, 0.006802721088435374, 0.006802721088435374, 0.0, 0.0, 0.006802721088435374, 0.006802721088435374, 0.006802721088435374, 0.006802721088435374, 0.0, 0.0, 0.0, 0.006802721088435374, 0.0, 0.006802721088435374, 0.006802721088435374, 0.006802721088435374, 0.0, 0.006802721088435374, 0.0, 0.006802721088435374, 0.006802721088435374, 0.0, 0.006802721088435374, 0.0, 0.0, 0.0, 0.0, 0.006802721088435374, 0.0, 0.0, 0.006802721088435374, 0.006802721088435374, 0.006802721088435374, 0.0, 0.0, 0.006802721088435374, 0.0, 0.0, 0.0, 0.0, 0.006802721088435374, 0.0, 0.0, 0.006802721088435374, 0.0, 0.0, 0.006802721088435374, 0.0, 0.0, 0.006802721088435374, 0.0, 0.0, 0.0, 0.006802721088435374, 0.0, 0.0, 0.006802721088435374, 0.006802721088435374, 0.006802721088435374, 0.0, 0.006802721088435374, 0.0, 0.006802721088435374, 0.006802721088435374, 0.0, 0.0, 0.0, 0.006802721088435374, 0.006802721088435374, 0.0, 0.0, 0.0, 0.0, 0.0, 0.006802721088435374, 0.006802721088435374, 0.0, 0.0, 0.0, 0.0, 0.0, 0.0, 0.0, 0.0, 0.0, 0.0, 0.0, 0.0, 0.0, 0.0, 0.006802721088435374, 0.0, 0.0, 0.0, 0.0, 0.0, 0.0, 0.0, 0.0, 0.0, 0.0, 0.0, 0.0, 0.0, 0.006802721088435374, 0.0, 0.0, 0.006802721088435374, 0.0, 0.0, 0.0, 0.0, 0.0, 0.0, 0.0, 0.006802721088435374, 0.0, 0.006802721088435374, 0.006802721088435374, 0.006802721088435374, 0.0, 0.0, 0.0, 0.0, 0.0, 0.0, 0.006802721088435374;

}
probability ( target ) {
    table 0.4895833333333333, 0.5104166666666666 ;
}
