network unknown {
}
variable LV_1 {
    type discrete [ 2 ] { 0, 1 };
    property weight = None ;
}
variable LV_10 {
    type discrete [ 2 ] { 0, 1 };
    property weight = None ;
}
variable LV_11 {
    type discrete [ 2 ] { 0, 1 };
    property weight = None ;
}
variable LV_12 {
    type discrete [ 2 ] { 0, 1 };
    property weight = None ;
}
variable LV_13 {
    type discrete [ 2 ] { 0, 1 };
    property weight = None ;
}
variable LV_14 {
    type discrete [ 2 ] { 0, 1 };
    property weight = None ;
}
variable LV_15 {
    type discrete [ 2 ] { 0, 1 };
    property weight = None ;
}
variable LV_2 {
    type discrete [ 2 ] { 0, 1 };
    property weight = None ;
}
variable LV_3 {
    type discrete [ 2 ] { 0, 1 };
    property weight = None ;
}
variable LV_4 {
    type discrete [ 2 ] { 0, 1 };
    property weight = None ;
}
variable LV_5 {
    type discrete [ 2 ] { 0, 1 };
    property weight = None ;
}
variable LV_6 {
    type discrete [ 2 ] { 0, 1 };
    property weight = None ;
}
variable LV_7 {
    type discrete [ 2 ] { 0, 1 };
    property weight = None ;
}
variable LV_8 {
    type discrete [ 2 ] { 0, 1 };
    property weight = None ;
}
variable LV_9 {
    type discrete [ 2 ] { 0, 1 };
    property weight = None ;
}
variable attr_0 {
    type discrete [ 3 ] { 0, 1, 2 };
    property weight = None ;
}
variable attr_1 {
    type discrete [ 3 ] { 0, 1, 2 };
    property weight = None ;
}
variable attr_10 {
    type discrete [ 3 ] { 0, 1, 2 };
    property weight = None ;
}
variable attr_11 {
    type discrete [ 3 ] { 0, 1, 2 };
    property weight = None ;
}
variable attr_12 {
    type discrete [ 3 ] { 0, 1, 2 };
    property weight = None ;
}
variable attr_13 {
    type discrete [ 3 ] { 0, 1, 2 };
    property weight = None ;
}
variable attr_14 {
    type discrete [ 3 ] { 0, 1, 2 };
    property weight = None ;
}
variable attr_15 {
    type discrete [ 3 ] { 0, 1, 2 };
    property weight = None ;
}
variable attr_16 {
    type discrete [ 3 ] { 0, 1, 2 };
    property weight = None ;
}
variable attr_17 {
    type discrete [ 3 ] { 0, 1, 2 };
    property weight = None ;
}
variable attr_18 {
    type discrete [ 3 ] { 0, 1, 2 };
    property weight = None ;
}
variable attr_19 {
    type discrete [ 3 ] { 0, 1, 2 };
    property weight = None ;
}
variable attr_2 {
    type discrete [ 3 ] { 0, 1, 2 };
    property weight = None ;
}
variable attr_20 {
    type discrete [ 3 ] { 0, 1, 2 };
    property weight = None ;
}
variable attr_21 {
    type discrete [ 3 ] { 0, 1, 2 };
    property weight = None ;
}
variable attr_22 {
    type discrete [ 3 ] { 0, 1, 2 };
    property weight = None ;
}
variable attr_23 {
    type discrete [ 3 ] { 0, 1, 2 };
    property weight = None ;
}
variable attr_24 {
    type discrete [ 3 ] { 0, 1, 2 };
    property weight = None ;
}
variable attr_25 {
    type discrete [ 3 ] { 0, 1, 2 };
    property weight = None ;
}
variable attr_26 {
    type discrete [ 3 ] { 0, 1, 2 };
    property weight = None ;
}
variable attr_27 {
    type discrete [ 3 ] { 0, 1, 2 };
    property weight = None ;
}
variable attr_28 {
    type discrete [ 3 ] { 0, 1, 2 };
    property weight = None ;
}
variable attr_3 {
    type discrete [ 3 ] { 0, 1, 2 };
    property weight = None ;
}
variable attr_4 {
    type discrete [ 3 ] { 0, 1, 2 };
    property weight = None ;
}
variable attr_5 {
    type discrete [ 3 ] { 0, 1, 2 };
    property weight = None ;
}
variable attr_6 {
    type discrete [ 3 ] { 0, 1, 2 };
    property weight = None ;
}
variable attr_7 {
    type discrete [ 3 ] { 0, 1, 2 };
    property weight = None ;
}
variable attr_8 {
    type discrete [ 3 ] { 0, 1, 2 };
    property weight = None ;
}
variable attr_9 {
    type discrete [ 3 ] { 0, 1, 2 };
    property weight = None ;
}
variable path {
    type discrete [ 335 ] { 0, 1, 2, 3, 4, 5, 6, 7, 8, 9, 10, 11, 12, 13, 14, 15, 16, 17, 18, 19, 20, 21, 22, 23, 24, 25, 26, 27, 28, 29, 30, 31, 32, 33, 34, 35, 36, 37, 38, 39, 40, 41, 42, 43, 44, 45, 46, 47, 48, 49, 50, 51, 52, 53, 54, 55, 56, 57, 58, 59, 60, 61, 62, 63, 64, 65, 66, 67, 68, 69, 70, 71, 72, 73, 74, 75, 76, 77, 78, 79, 80, 81, 82, 83, 84, 85, 86, 87, 88, 89, 90, 91, 92, 93, 94, 95, 96, 97, 98, 99, 100, 101, 102, 103, 104, 105, 106, 107, 108, 109, 110, 111, 112, 113, 114, 115, 116, 117, 118, 119, 120, 121, 122, 123, 124, 125, 126, 127, 128, 129, 130, 131, 132, 133, 134, 135, 136, 137, 138, 139, 140, 141, 142, 143, 144, 145, 146, 147, 148, 149, 150, 151, 152, 153, 154, 155, 156, 157, 158, 159, 160, 161, 162, 163, 164, 165, 166, 167, 168, 169, 170, 171, 172, 173, 174, 175, 176, 177, 178, 179, 180, 181, 182, 183, 184, 185, 186, 187, 188, 189, 190, 191, 192, 193, 194, 195, 196, 197, 198, 199, 200, 201, 202, 203, 204, 205, 206, 207, 208, 209, 210, 211, 212, 213, 214, 215, 216, 217, 218, 219, 220, 221, 222, 223, 224, 225, 226, 227, 228, 229, 230, 231, 232, 233, 234, 235, 236, 237, 238, 239, 240, 241, 242, 243, 244, 245, 246, 247, 248, 249, 250, 251, 252, 253, 254, 255, 256, 257, 258, 259, 260, 261, 262, 263, 264, 265, 266, 267, 268, 269, 270, 271, 272, 273, 274, 275, 276, 277, 278, 279, 280, 281, 282, 283, 284, 285, 286, 287, 288, 289, 290, 291, 292, 293, 294, 295, 296, 297, 298, 299, 300, 301, 302, 303, 304, 305, 306, 307, 308, 309, 310, 311, 312, 313, 314, 315, 316, 317, 318, 319, 320, 321, 322, 323, 324, 325, 326, 327, 328, 329, 330, 331, 332, 333, 334 };
    property weight = None ;
}
variable target {
    type discrete [ 2 ] { 0, 1 };
    property weight = None ;
}
probability ( LV_1 | target ) {
    ( 0 ) 0.1388888888888889, 0.8611111111111112;
    ( 1 ) 0.4166666666666667, 0.5833333333333334;

}
probability ( LV_10 | target ) {
    ( 0 ) 0.6888888888888889, 0.3111111111111111;
    ( 1 ) 0.3611111111111111, 0.6388888888888888;

}
probability ( LV_11 | target ) {
    ( 0 ) 0.6555555555555556, 0.34444444444444444;
    ( 1 ) 0.28888888888888886, 0.7111111111111111;

}
probability ( LV_12 | target ) {
    ( 0 ) 0.7, 0.3;
    ( 1 ) 0.3888888888888889, 0.6111111111111112;

}
probability ( LV_13 | target ) {
    ( 0 ) 0.4166666666666667, 0.5833333333333334;
    ( 1 ) 0.5, 0.5;

}
probability ( LV_14 | target ) {
    ( 0 ) 0.8222222222222222, 0.17777777777777778;
    ( 1 ) 0.4777777777777778, 0.5222222222222223;

}
probability ( LV_15 | target ) {
    ( 0 ) 0.20555555555555555, 0.7944444444444444;
    ( 1 ) 0.5111111111111111, 0.4888888888888889;

}
probability ( LV_2 | target ) {
    ( 0 ) 0.6777777777777778, 0.32222222222222224;
    ( 1 ) 0.42777777777777776, 0.5722222222222222;

}
probability ( LV_3 | target ) {
    ( 0 ) 0.6777777777777778, 0.32222222222222224;
    ( 1 ) 0.22777777777777777, 0.7722222222222223;

}
probability ( LV_4 | target ) {
    ( 0 ) 0.65, 0.35;
    ( 1 ) 0.23333333333333334, 0.7666666666666667;

}
probability ( LV_5 | target ) {
    ( 0 ) 0.3388888888888889, 0.6611111111111111;
    ( 1 ) 0.6166666666666667, 0.38333333333333336;

}
probability ( LV_6 | target ) {
    ( 0 ) 0.36666666666666664, 0.6333333333333333;
    ( 1 ) 0.6277777777777778, 0.37222222222222223;

}
probability ( LV_7 | target ) {
    ( 0 ) 0.8444444444444444, 0.15555555555555556;
    ( 1 ) 0.5722222222222222, 0.42777777777777776;

}
probability ( LV_8 | target ) {
    ( 0 ) 0.1, 0.9;
    ( 1 ) 0.34444444444444444, 0.6555555555555556;

}
probability ( LV_9 | target ) {
    ( 0 ) 0.15555555555555556, 0.8444444444444444;
    ( 1 ) 0.5055555555555555, 0.49444444444444446;

}
probability ( attr_0 | LV_1 ) {
    ( 0 ) 0.17, 0.0, 0.83;
    ( 1 ) 0.0, 1.0, 0.0;

}
probability ( attr_1 | LV_2 ) {
    ( 0 ) 0.2562814070351759, 0.5175879396984925, 0.22613065326633167;
    ( 1 ) 0.0, 0.7018633540372671, 0.2981366459627329;

}
probability ( attr_10 | LV_6 ) {
    ( 0 ) 0.11731843575418995, 0.0670391061452514, 0.8156424581005587;
    ( 1 ) 1.0, 0.0, 0.0;

}
probability ( attr_11 | LV_7 ) {
    ( 0 ) 0.11372549019607843, 0.0, 0.8862745098039215;
    ( 1 ) 0.0, 0.6095238095238096, 0.3904761904761905;

}
probability ( attr_12 | LV_7 ) {
    ( 0 ) 1.0, 0.0, 0.0;
    ( 1 ) 0.37142857142857144, 0.580952380952381, 0.047619047619047616;

}
probability ( attr_13 | LV_8 ) {
    ( 0 ) 0.0, 0.7875, 0.2125;
    ( 1 ) 0.05714285714285714, 0.6964285714285714, 0.24642857142857144;

}
probability ( attr_14 | LV_8 ) {
    ( 0 ) 0.0875, 0.9125, 0.0;
    ( 1 ) 0.0, 0.0, 1.0;

}
probability ( attr_15 | LV_9 ) {
    ( 0 ) 0.5546218487394958, 0.08403361344537816, 0.36134453781512604;
    ( 1 ) 0.0, 0.37344398340248963, 0.6265560165975104;

}
probability ( attr_16 | LV_9 ) {
    ( 0 ) 0.008403361344537815, 0.6638655462184874, 0.3277310924369748;
    ( 1 ) 0.08298755186721991, 0.0, 0.91701244813278;

}
probability ( attr_17 | LV_10 ) {
    ( 0 ) 0.07407407407407407, 0.91005291005291, 0.015873015873015872;
    ( 1 ) 0.0, 0.22807017543859648, 0.7719298245614035;

}
probability ( attr_18 | LV_10 ) {
    ( 0 ) 0.9417989417989417, 0.047619047619047616, 0.010582010582010581;
    ( 1 ) 0.5964912280701754, 0.0, 0.40350877192982454;

}
probability ( attr_19 | LV_11 ) {
    ( 0 ) 0.18823529411764706, 0.15294117647058825, 0.6588235294117647;
    ( 1 ) 0.7473684210526316, 0.0, 0.25263157894736843;

}
probability ( attr_2 | LV_2 ) {
    ( 0 ) 0.0, 0.9296482412060302, 0.07035175879396985;
    ( 1 ) 0.037267080745341616, 0.0, 0.9627329192546584;

}
probability ( attr_20 | LV_11 ) {
    ( 0 ) 0.4647058823529412, 0.029411764705882353, 0.5058823529411764;
    ( 1 ) 0.0, 0.5736842105263158, 0.4263157894736842;

}
probability ( attr_21 | LV_12 ) {
    ( 0 ) 0.40816326530612246, 0.27040816326530615, 0.32142857142857145;
    ( 1 ) 0.0, 0.9146341463414634, 0.08536585365853659;

}
probability ( attr_22 | LV_12 ) {
    ( 0 ) 0.6020408163265306, 0.07653061224489796, 0.32142857142857145;
    ( 1 ) 0.0, 0.4878048780487805, 0.5121951219512195;

}
probability ( attr_23 | LV_13 ) {
    ( 0 ) 0.2787878787878788, 0.7212121212121212, 0.0;
    ( 1 ) 0.09743589743589744, 0.07692307692307693, 0.8256410256410256;

}
probability ( attr_24 | LV_13 ) {
    ( 0 ) 0.15151515151515152, 0.8484848484848485, 0.0;
    ( 1 ) 0.26153846153846155, 0.4358974358974359, 0.30256410256410254;

}
probability ( attr_25 | LV_14 ) {
    ( 0 ) 0.0, 0.9829059829059829, 0.017094017094017096;
    ( 1 ) 0.6507936507936508, 0.3492063492063492, 0.0;

}
probability ( attr_26 | LV_14 ) {
    ( 0 ) 0.5427350427350427, 0.0, 0.45726495726495725;
    ( 1 ) 0.24603174603174602, 0.5079365079365079, 0.24603174603174602;

}
probability ( attr_27 | LV_15 ) {
    ( 0 ) 0.12403100775193798, 0.8527131782945736, 0.023255813953488372;
    ( 1 ) 0.0, 0.0, 1.0;

}
probability ( attr_28 | LV_15 ) {
    ( 0 ) 0.34108527131782945, 0.5813953488372093, 0.07751937984496124;
    ( 1 ) 0.5281385281385281, 0.47186147186147187, 0.0;

}
probability ( attr_3 | LV_3 ) {
    ( 0 ) 0.3803680981595092, 0.0, 0.6196319018404908;
    ( 1 ) 0.015228426395939087, 0.8071065989847716, 0.17766497461928935;

}
probability ( attr_4 | LV_3 ) {
    ( 0 ) 0.03067484662576687, 0.0, 0.9693251533742331;
    ( 1 ) 0.2893401015228426, 0.233502538071066, 0.47715736040609136;

}
probability ( attr_5 | LV_4 ) {
    ( 0 ) 0.0440251572327044, 0.012578616352201259, 0.9433962264150944;
    ( 1 ) 0.0, 0.7960199004975125, 0.20398009950248755;

}
probability ( attr_6 | LV_4 ) {
    ( 0 ) 0.0, 0.0440251572327044, 0.9559748427672956;
    ( 1 ) 0.4129353233830846, 0.0, 0.5870646766169154;

}
probability ( attr_7 | LV_5 ) {
    ( 0 ) 0.005813953488372093, 0.9825581395348837, 0.011627906976744186;
    ( 1 ) 0.3776595744680851, 0.0, 0.6223404255319149;

}
probability ( attr_8 | LV_5 ) {
    ( 0 ) 0.06395348837209303, 0.5697674418604651, 0.36627906976744184;
    ( 1 ) 0.0, 0.6861702127659575, 0.31382978723404253;

}
probability ( attr_9 | LV_6 ) {
    ( 0 ) 0.33519553072625696, 0.4022346368715084, 0.26256983240223464;
    ( 1 ) 0.56353591160221, 0.0, 0.43646408839779005;

}
probability ( path | LV_1 ) {
    ( 0 ) 0.08, 0.0, 0.0, 0.0, 0.0, 0.0, 0.01, 0.0, 0.0, 0.0, 0.0, 0.02, 0.0, 0.0, 0.0, 0.0, 0.0, 0.0, 0.01, 0.0, 0.0, 0.01, 0.0, 0.01, 0.0, 0.0, 0.0, 0.01, 0.0, 0.0, 0.0, 0.01, 0.0, 0.0, 0.01, 0.0, 0.0, 0.01, 0.0, 0.0, 0.0, 0.01, 0.01, 0.01, 0.02, 0.0, 0.0, 0.0, 0.0, 0.0, 0.01, 0.01, 0.0, 0.0, 0.0, 0.0, 0.0, 0.01, 0.01, 0.0, 0.0, 0.0, 0.0, 0.0, 0.0, 0.0, 0.01, 0.0, 0.0, 0.0, 0.0, 0.0, 0.01, 0.0, 0.0, 0.01, 0.0, 0.0, 0.01, 0.0, 0.0, 0.01, 0.0, 0.01, 0.01, 0.0, 0.0, 0.01, 0.0, 0.0, 0.0, 0.0, 0.0, 0.0, 0.01, 0.0, 0.02, 0.01, 0.0, 0.0, 0.0, 0.0, 0.0, 0.0, 0.01, 0.0, 0.0, 0.0, 0.0, 0.0, 0.0, 0.01, 0.0, 0.0, 0.0, 0.0, 0.02, 0.01, 0.0, 0.01, 0.0, 0.0, 0.0, 0.01, 0.0, 0.0, 0.0, 0.0, 0.0, 0.0, 0.0, 0.01, 0.0, 0.01, 0.0, 0.01, 0.01, 0.0, 0.0, 0.0, 0.0, 0.01, 0.01, 0.0, 0.01, 0.01, 0.0, 0.0, 0.02, 0.01, 0.0, 0.0, 0.0, 0.0, 0.01, 0.01, 0.0, 0.0, 0.0, 0.0, 0.0, 0.0, 0.0, 0.0, 0.01, 0.0, 0.0, 0.0, 0.0, 0.0, 0.0, 0.01, 0.0, 0.0, 0.0, 0.01, 0.0, 0.01, 0.0, 0.0, 0.0, 0.0, 0.01, 0.0, 0.0, 0.01, 0.0, 0.0, 0.0, 0.0, 0.0, 0.0, 0.0, 0.0, 0.0, 0.0, 0.01, 0.0, 0.0, 0.0, 0.0, 0.01, 0.0, 0.01, 0.0, 0.0, 0.0, 0.0, 0.0, 0.01, 0.0, 0.0, 0.01, 0.0, 0.01, 0.0, 0.0, 0.01, 0.0, 0.01, 0.0, 0.0, 0.0, 0.01, 0.0, 0.0, 0.01, 0.0, 0.0, 0.0, 0.0, 0.0, 0.0, 0.0, 0.0, 0.01, 0.0, 0.0, 0.01, 0.01, 0.0, 0.0, 0.0, 0.01, 0.01, 0.0, 0.0, 0.01, 0.0, 0.01, 0.01, 0.0, 0.01, 0.01, 0.01, 0.0, 0.0, 0.01, 0.0, 0.0, 0.0, 0.0, 0.0, 0.0, 0.0, 0.0, 0.0, 0.0, 0.0, 0.01, 0.01, 0.01, 0.01, 0.0, 0.01, 0.0, 0.01, 0.0, 0.0, 0.0, 0.0, 0.0, 0.0, 0.0, 0.0, 0.01, 0.0, 0.0, 0.0, 0.0, 0.0, 0.0, 0.01, 0.0, 0.0, 0.0, 0.0, 0.0, 0.0, 0.0, 0.0, 0.0, 0.0, 0.0, 0.0, 0.0, 0.0, 0.0, 0.0, 0.0, 0.0, 0.0, 0.01, 0.0, 0.0, 0.0, 0.0, 0.0, 0.0, 0.01, 0.0, 0.0, 0.01, 0.0, 0.01, 0.0, 0.0, 0.0, 0.0, 0.01, 0.0, 0.0, 0.0, 0.0, 0.0;
    ( 1 ) 0.03076923076923077, 0.0038461538461538464, 0.0038461538461538464, 0.0038461538461538464, 0.0038461538461538464, 0.0038461538461538464, 0.0, 0.0038461538461538464, 0.0038461538461538464, 0.007692307692307693, 0.0038461538461538464, 0.0, 0.0038461538461538464, 0.0038461538461538464, 0.0038461538461538464, 0.0038461538461538464, 0.0038461538461538464, 0.0038461538461538464, 0.0, 0.0038461538461538464, 0.0038461538461538464, 0.0, 0.0038461538461538464, 0.0, 0.0038461538461538464, 0.0038461538461538464, 0.0038461538461538464, 0.0, 0.0038461538461538464, 0.0038461538461538464, 0.0038461538461538464, 0.0, 0.0038461538461538464, 0.0038461538461538464, 0.0, 0.0038461538461538464, 0.0038461538461538464, 0.0, 0.007692307692307693, 0.0038461538461538464, 0.0038461538461538464, 0.0, 0.0, 0.0, 0.0, 0.0038461538461538464, 0.0038461538461538464, 0.0038461538461538464, 0.0038461538461538464, 0.0038461538461538464, 0.0, 0.0, 0.0038461538461538464, 0.0038461538461538464, 0.0038461538461538464, 0.0038461538461538464, 0.0038461538461538464, 0.0, 0.0, 0.0038461538461538464, 0.0038461538461538464, 0.0038461538461538464, 0.0038461538461538464, 0.0038461538461538464, 0.0038461538461538464, 0.0038461538461538464, 0.0, 0.0038461538461538464, 0.0038461538461538464, 0.0038461538461538464, 0.0038461538461538464, 0.0038461538461538464, 0.0, 0.0038461538461538464, 0.007692307692307693, 0.0, 0.0038461538461538464, 0.0038461538461538464, 0.0, 0.0038461538461538464, 0.0038461538461538464, 0.0, 0.0038461538461538464, 0.0, 0.0, 0.0038461538461538464, 0.0038461538461538464, 0.0, 0.0038461538461538464, 0.0038461538461538464, 0.0038461538461538464, 0.007692307692307693, 0.0038461538461538464, 0.0038461538461538464, 0.0, 0.0038461538461538464, 0.0, 0.0, 0.0038461538461538464, 0.007692307692307693, 0.0038461538461538464, 0.0038461538461538464, 0.0038461538461538464, 0.0038461538461538464, 0.0, 0.0038461538461538464, 0.0038461538461538464, 0.0038461538461538464, 0.0038461538461538464, 0.0038461538461538464, 0.0038461538461538464, 0.0, 0.0038461538461538464, 0.0038461538461538464, 0.0038461538461538464, 0.0038461538461538464, 0.0, 0.0, 0.0038461538461538464, 0.0, 0.0038461538461538464, 0.0038461538461538464, 0.0038461538461538464, 0.0, 0.0038461538461538464, 0.0038461538461538464, 0.0038461538461538464, 0.0038461538461538464, 0.0038461538461538464, 0.0038461538461538464, 0.0038461538461538464, 0.0, 0.0038461538461538464, 0.0, 0.0038461538461538464, 0.0, 0.0, 0.0038461538461538464, 0.0038461538461538464, 0.0038461538461538464, 0.0038461538461538464, 0.0, 0.0, 0.0038461538461538464, 0.0, 0.0, 0.0038461538461538464, 0.0038461538461538464, 0.0, 0.0, 0.0038461538461538464, 0.0038461538461538464, 0.0038461538461538464, 0.0038461538461538464, 0.0, 0.0, 0.0038461538461538464, 0.0038461538461538464, 0.0038461538461538464, 0.0038461538461538464, 0.0038461538461538464, 0.0038461538461538464, 0.0038461538461538464, 0.0038461538461538464, 0.0, 0.0038461538461538464, 0.0038461538461538464, 0.0038461538461538464, 0.0038461538461538464, 0.0038461538461538464, 0.0038461538461538464, 0.0, 0.0038461538461538464, 0.0038461538461538464, 0.0038461538461538464, 0.0, 0.0038461538461538464, 0.0, 0.0038461538461538464, 0.0038461538461538464, 0.0038461538461538464, 0.0038461538461538464, 0.0, 0.0038461538461538464, 0.0038461538461538464, 0.0, 0.0038461538461538464, 0.0038461538461538464, 0.0038461538461538464, 0.0038461538461538464, 0.0038461538461538464, 0.0038461538461538464, 0.0038461538461538464, 0.0038461538461538464, 0.0038461538461538464, 0.0038461538461538464, 0.0, 0.0038461538461538464, 0.0038461538461538464, 0.0038461538461538464, 0.0038461538461538464, 0.0, 0.0038461538461538464, 0.0, 0.0038461538461538464, 0.0038461538461538464, 0.0038461538461538464, 0.0038461538461538464, 0.0038461538461538464, 0.0, 0.0038461538461538464, 0.0038461538461538464, 0.0, 0.0038461538461538464, 0.0, 0.0038461538461538464, 0.0038461538461538464, 0.0, 0.0038461538461538464, 0.0, 0.0038461538461538464, 0.0038461538461538464, 0.0038461538461538464, 0.0, 0.0038461538461538464, 0.0038461538461538464, 0.0, 0.0038461538461538464, 0.0038461538461538464, 0.0038461538461538464, 0.0038461538461538464, 0.0038461538461538464, 0.0038461538461538464, 0.0038461538461538464, 0.0038461538461538464, 0.0, 0.0038461538461538464, 0.0038461538461538464, 0.0, 0.0, 0.0038461538461538464, 0.0038461538461538464, 0.0038461538461538464, 0.0, 0.0, 0.0038461538461538464, 0.0038461538461538464, 0.0, 0.0038461538461538464, 0.0, 0.0, 0.0038461538461538464, 0.0, 0.0, 0.0, 0.0038461538461538464, 0.0038461538461538464, 0.0, 0.0038461538461538464, 0.0038461538461538464, 0.0038461538461538464, 0.0038461538461538464, 0.0038461538461538464, 0.0038461538461538464, 0.0038461538461538464, 0.0038461538461538464, 0.0038461538461538464, 0.0038461538461538464, 0.0038461538461538464, 0.0, 0.0, 0.0, 0.0, 0.0038461538461538464, 0.0, 0.0038461538461538464, 0.0, 0.0038461538461538464, 0.0038461538461538464, 0.0038461538461538464, 0.0038461538461538464, 0.0038461538461538464, 0.0038461538461538464, 0.0038461538461538464, 0.0038461538461538464, 0.0, 0.0038461538461538464, 0.0038461538461538464, 0.0038461538461538464, 0.0038461538461538464, 0.0038461538461538464, 0.0038461538461538464, 0.0, 0.0038461538461538464, 0.0038461538461538464, 0.0038461538461538464, 0.0038461538461538464, 0.0038461538461538464, 0.0038461538461538464, 0.0038461538461538464, 0.0038461538461538464, 0.0038461538461538464, 0.0038461538461538464, 0.0038461538461538464, 0.0038461538461538464, 0.0038461538461538464, 0.0038461538461538464, 0.0038461538461538464, 0.0038461538461538464, 0.0038461538461538464, 0.0038461538461538464, 0.0038461538461538464, 0.0, 0.0038461538461538464, 0.0038461538461538464, 0.0038461538461538464, 0.0038461538461538464, 0.0038461538461538464, 0.0038461538461538464, 0.0, 0.0038461538461538464, 0.0038461538461538464, 0.0, 0.0038461538461538464, 0.0, 0.0038461538461538464, 0.0038461538461538464, 0.0038461538461538464, 0.0038461538461538464, 0.0, 0.0038461538461538464, 0.0038461538461538464, 0.0038461538461538464, 0.0038461538461538464, 0.0038461538461538464;

}
probability ( target ) {
    table 0.5, 0.5 ;
}
