network unknown {
}
variable L_attr_0_attr_14 {
    type discrete [ 2 ] { 1_ou_2_ou_7, 8_ou_0_ou_5_ou_3_ou_4_ou_6 };
    property weight = None ;
}
variable attr_0 {
    type discrete [ 3 ] { 0, 1, 2 };
    property weight = None ;
}
variable attr_1 {
    type discrete [ 3 ] { 0, 1, 2 };
    property weight = None ;
}
variable attr_10 {
    type discrete [ 3 ] { 0, 1, 2 };
    property weight = None ;
}
variable attr_11 {
    type discrete [ 3 ] { 0, 1, 2 };
    property weight = None ;
}
variable attr_12 {
    type discrete [ 3 ] { 0, 1, 2 };
    property weight = None ;
}
variable attr_13 {
    type discrete [ 3 ] { 0, 1, 2 };
    property weight = None ;
}
variable attr_14 {
    type discrete [ 3 ] { 0, 1, 2 };
    property weight = None ;
}
variable attr_15 {
    type discrete [ 3 ] { 0, 1, 2 };
    property weight = None ;
}
variable attr_16 {
    type discrete [ 3 ] { 0, 1, 2 };
    property weight = None ;
}
variable attr_17 {
    type discrete [ 3 ] { 0, 1, 2 };
    property weight = None ;
}
variable attr_18 {
    type discrete [ 3 ] { 0, 1, 2 };
    property weight = None ;
}
variable attr_19 {
    type discrete [ 3 ] { 0, 1, 2 };
    property weight = None ;
}
variable attr_2 {
    type discrete [ 3 ] { 0, 1, 2 };
    property weight = None ;
}
variable attr_20 {
    type discrete [ 3 ] { 0, 1, 2 };
    property weight = None ;
}
variable attr_21 {
    type discrete [ 3 ] { 0, 1, 2 };
    property weight = None ;
}
variable attr_22 {
    type discrete [ 3 ] { 0, 1, 2 };
    property weight = None ;
}
variable attr_23 {
    type discrete [ 3 ] { 0, 1, 2 };
    property weight = None ;
}
variable attr_24 {
    type discrete [ 3 ] { 0, 1, 2 };
    property weight = None ;
}
variable attr_25 {
    type discrete [ 3 ] { 0, 1, 2 };
    property weight = None ;
}
variable attr_26 {
    type discrete [ 3 ] { 0, 1, 2 };
    property weight = None ;
}
variable attr_27 {
    type discrete [ 3 ] { 0, 1, 2 };
    property weight = None ;
}
variable attr_28 {
    type discrete [ 3 ] { 0, 1, 2 };
    property weight = None ;
}
variable attr_3 {
    type discrete [ 3 ] { 0, 1, 2 };
    property weight = None ;
}
variable attr_4 {
    type discrete [ 3 ] { 0, 1, 2 };
    property weight = None ;
}
variable attr_5 {
    type discrete [ 3 ] { 0, 1, 2 };
    property weight = None ;
}
variable attr_6 {
    type discrete [ 3 ] { 0, 1, 2 };
    property weight = None ;
}
variable attr_7 {
    type discrete [ 3 ] { 0, 1, 2 };
    property weight = None ;
}
variable attr_8 {
    type discrete [ 3 ] { 0, 1, 2 };
    property weight = None ;
}
variable attr_9 {
    type discrete [ 3 ] { 0, 1, 2 };
    property weight = None ;
}
variable path {
    type discrete [ 276 ] { 0, 2, 3, 4, 5, 8, 11, 14, 15, 16, 17, 19, 20, 22, 23, 25, 26, 27, 28, 30, 31, 32, 33, 34, 35, 36, 37, 38, 39, 40, 41, 42, 43, 45, 46, 47, 48, 49, 50, 51, 52, 53, 54, 55, 56, 57, 58, 59, 60, 61, 62, 63, 64, 65, 66, 67, 68, 69, 70, 71, 72, 73, 74, 75, 77, 78, 79, 80, 81, 82, 84, 86, 87, 88, 89, 91, 92, 93, 94, 95, 96, 97, 98, 99, 100, 102, 103, 106, 110, 111, 112, 113, 114, 115, 116, 117, 118, 120, 122, 123, 124, 125, 126, 127, 128, 129, 130, 131, 132, 136, 137, 138, 139, 140, 141, 142, 144, 145, 146, 147, 148, 149, 150, 151, 152, 153, 154, 156, 157, 158, 159, 160, 162, 163, 166, 167, 168, 169, 171, 172, 173, 174, 175, 176, 177, 178, 181, 183, 184, 187, 188, 190, 192, 195, 197, 198, 199, 200, 201, 202, 204, 205, 207, 208, 209, 210, 211, 212, 213, 214, 215, 216, 217, 218, 219, 220, 221, 222, 224, 225, 226, 227, 229, 230, 231, 232, 234, 238, 239, 240, 241, 242, 243, 244, 245, 246, 247, 248, 249, 250, 251, 252, 253, 254, 255, 256, 257, 258, 259, 260, 261, 262, 263, 264, 265, 266, 267, 269, 270, 271, 272, 275, 276, 277, 279, 281, 282, 283, 284, 285, 287, 289, 290, 291, 293, 294, 295, 296, 297, 298, 299, 300, 301, 302, 303, 304, 305, 307, 308, 309, 310, 311, 312, 313, 314, 315, 316, 317, 318, 319, 320, 321, 322, 324, 325, 326, 327, 330, 331, 333, 335, 336, 337, 338, 339, 341 };
    property weight = None ;
}
variable target {
    type discrete [ 2 ] { 0, 1 };
    property weight = None ;
}
probability ( L_attr_0_attr_14 | target ) {
    ( 0 ) 0.6259672558610896, 0.3740327441389105;
    ( 1 ) 0.018311357980416044, 0.981688642019584;

}
probability ( attr_0 | L_attr_0_attr_14 ) {
    ( 1_ou_2_ou_7 ) 0.211752033404195, 0.24340868733684903, 0.544839279258956;
    ( 8_ou_0_ou_5_ou_3_ou_4_ou_6 ) 0.43558014814003043, 0.21209764856109367, 0.352322203298876;

}
probability ( attr_1 | target ) {
    ( 0 ) 0.36879432624113473, 0.0, 0.6312056737588653;
    ( 1 ) 0.061224489795918366, 0.034013605442176874, 0.9047619047619048;

}
probability ( attr_10 | target ) {
    ( 0 ) 0.40425531914893614, 0.5673758865248227, 0.028368794326241134;
    ( 1 ) 0.5918367346938775, 0.40816326530612246, 0.0;

}
probability ( attr_11 | target ) {
    ( 0 ) 0.2553191489361702, 0.22695035460992907, 0.5177304964539007;
    ( 1 ) 0.05442176870748299, 0.3877551020408163, 0.5578231292517006;

}
probability ( attr_12 | target ) {
    ( 0 ) 0.41843971631205673, 0.20567375886524822, 0.375886524822695;
    ( 1 ) 0.7142857142857143, 0.034013605442176874, 0.25170068027210885;

}
probability ( attr_13 | target ) {
    ( 0 ) 0.41134751773049644, 0.1347517730496454, 0.45390070921985815;
    ( 1 ) 0.22448979591836735, 0.23809523809523808, 0.5374149659863946;

}
probability ( attr_14 | L_attr_0_attr_14 ) {
    ( 1_ou_2_ou_7 ) 0.47447317208741646, 0.1711638365923066, 0.35436299132027693;
    ( 8_ou_0_ou_5_ou_3_ou_4_ou_6 ) 0.08938152008174685, 0.33106000091778004, 0.5795584790004732;

}
probability ( attr_15 | target ) {
    ( 0 ) 0.16312056737588654, 0.14893617021276595, 0.6879432624113475;
    ( 1 ) 0.013605442176870748, 0.30612244897959184, 0.6802721088435374;

}
probability ( attr_16 | target ) {
    ( 0 ) 0.5035460992907801, 0.09929078014184398, 0.3971631205673759;
    ( 1 ) 0.2653061224489796, 0.3129251700680272, 0.4217687074829932;

}
probability ( attr_17 | target ) {
    ( 0 ) 0.09219858156028368, 0.09929078014184398, 0.8085106382978723;
    ( 1 ) 0.006802721088435374, 0.30612244897959184, 0.6870748299319728;

}
probability ( attr_18 | target ) {
    ( 0 ) 0.05673758865248227, 0.19858156028368795, 0.7446808510638298;
    ( 1 ) 0.006802721088435374, 0.46938775510204084, 0.5238095238095238;

}
probability ( attr_19 | target ) {
    ( 0 ) 0.8156028368794326, 0.014184397163120567, 0.1702127659574468;
    ( 1 ) 0.54421768707483, 0.1836734693877551, 0.272108843537415;

}
probability ( attr_2 | target ) {
    ( 0 ) 0.3829787234042553, 0.2553191489361702, 0.3617021276595745;
    ( 1 ) 0.061224489795918366, 0.6190476190476191, 0.3197278911564626;

}
probability ( attr_20 | target ) {
    ( 0 ) 0.3971631205673759, 0.3049645390070922, 0.2978723404255319;
    ( 1 ) 0.06802721088435375, 0.7074829931972789, 0.22448979591836735;

}
probability ( attr_21 | target ) {
    ( 0 ) 0.7446808510638298, 0.0, 0.2553191489361702;
    ( 1 ) 0.564625850340136, 0.061224489795918366, 0.3741496598639456;

}
probability ( attr_22 | target ) {
    ( 0 ) 0.3333333333333333, 0.425531914893617, 0.24113475177304963;
    ( 1 ) 0.2653061224489796, 0.25170068027210885, 0.48299319727891155;

}
probability ( attr_23 | target ) {
    ( 0 ) 0.8014184397163121, 0.1773049645390071, 0.02127659574468085;
    ( 1 ) 0.7278911564625851, 0.272108843537415, 0.0;

}
probability ( attr_24 | target ) {
    ( 0 ) 0.28368794326241137, 0.41843971631205673, 0.2978723404255319;
    ( 1 ) 0.006802721088435374, 0.7142857142857143, 0.2789115646258503;

}
probability ( attr_25 | target ) {
    ( 0 ) 0.0, 0.24822695035460993, 0.75177304964539;
    ( 1 ) 0.013605442176870748, 0.5782312925170068, 0.40816326530612246;

}
probability ( attr_26 | target ) {
    ( 0 ) 0.36879432624113473, 0.1773049645390071, 0.45390070921985815;
    ( 1 ) 0.6394557823129252, 0.19047619047619047, 0.17006802721088435;

}
probability ( attr_27 | target ) {
    ( 0 ) 0.2553191489361702, 0.24822695035460993, 0.49645390070921985;
    ( 1 ) 0.09523809523809523, 0.5238095238095238, 0.38095238095238093;

}
probability ( attr_28 | target ) {
    ( 0 ) 0.5035460992907801, 0.3829787234042553, 0.11347517730496454;
    ( 1 ) 0.7551020408163265, 0.21768707482993196, 0.027210884353741496;

}
probability ( attr_3 | target ) {
    ( 0 ) 0.0, 0.3120567375886525, 0.6879432624113475;
    ( 1 ) 0.04081632653061224, 0.6122448979591837, 0.3469387755102041;

}
probability ( attr_4 | target ) {
    ( 0 ) 0.02127659574468085, 0.9645390070921985, 0.014184397163120567;
    ( 1 ) 0.027210884353741496, 0.8095238095238095, 0.16326530612244897;

}
probability ( attr_5 | target ) {
    ( 0 ) 0.6595744680851063, 0.24822695035460993, 0.09219858156028368;
    ( 1 ) 0.46938775510204084, 0.5170068027210885, 0.013605442176870748;

}
probability ( attr_6 | target ) {
    ( 0 ) 0.0, 0.6382978723404256, 0.3617021276595745;
    ( 1 ) 0.07482993197278912, 0.2653061224489796, 0.6598639455782312;

}
probability ( attr_7 | target ) {
    ( 0 ) 0.22695035460992907, 0.5602836879432624, 0.2127659574468085;
    ( 1 ) 0.54421768707483, 0.24489795918367346, 0.2108843537414966;

}
probability ( attr_8 | target ) {
    ( 0 ) 0.9290780141843972, 0.0070921985815602835, 0.06382978723404255;
    ( 1 ) 0.7006802721088435, 0.14965986394557823, 0.14965986394557823;

}
probability ( attr_9 | target ) {
    ( 0 ) 0.5957446808510638, 0.0, 0.40425531914893614;
    ( 1 ) 0.42857142857142855, 0.061224489795918366, 0.5102040816326531;

}
probability ( path | target ) {
    ( 0 ) 0.0, 0.0, 0.0070921985815602835, 0.0, 0.0070921985815602835, 0.0, 0.0, 0.0, 0.0070921985815602835, 0.0, 0.0, 0.0, 0.0, 0.0070921985815602835, 0.0, 0.0, 0.0070921985815602835, 0.0, 0.0, 0.0070921985815602835, 0.0, 0.0, 0.0, 0.0, 0.0, 0.0, 0.0, 0.0, 0.0070921985815602835, 0.0, 0.0070921985815602835, 0.0070921985815602835, 0.0, 0.0, 0.0070921985815602835, 0.0070921985815602835, 0.0, 0.0, 0.0, 0.0, 0.0, 0.0, 0.0070921985815602835, 0.0070921985815602835, 0.0, 0.0070921985815602835, 0.0070921985815602835, 0.0, 0.0070921985815602835, 0.0, 0.0070921985815602835, 0.0, 0.0, 0.0070921985815602835, 0.0070921985815602835, 0.0, 0.0, 0.0, 0.0070921985815602835, 0.0, 0.0, 0.0, 0.0, 0.0, 0.0070921985815602835, 0.0, 0.0070921985815602835, 0.0, 0.0, 0.0070921985815602835, 0.0070921985815602835, 0.0, 0.0, 0.0, 0.0, 0.0070921985815602835, 0.0, 0.0, 0.0, 0.0070921985815602835, 0.0070921985815602835, 0.0, 0.0, 0.0070921985815602835, 0.0, 0.0070921985815602835, 0.0, 0.0070921985815602835, 0.0, 0.0, 0.0, 0.0, 0.0, 0.0070921985815602835, 0.0070921985815602835, 0.0, 0.0070921985815602835, 0.0, 0.0070921985815602835, 0.0070921985815602835, 0.0, 0.0, 0.0, 0.0070921985815602835, 0.0070921985815602835, 0.0, 0.0070921985815602835, 0.0070921985815602835, 0.0070921985815602835, 0.0070921985815602835, 0.0, 0.0, 0.0070921985815602835, 0.0, 0.0, 0.0, 0.0070921985815602835, 0.0070921985815602835, 0.0070921985815602835, 0.0070921985815602835, 0.0, 0.0, 0.0070921985815602835, 0.0070921985815602835, 0.0070921985815602835, 0.0070921985815602835, 0.0070921985815602835, 0.0, 0.0, 0.0, 0.0070921985815602835, 0.0070921985815602835, 0.0, 0.0070921985815602835, 0.0070921985815602835, 0.0, 0.0070921985815602835, 0.0, 0.0070921985815602835, 0.0070921985815602835, 0.0, 0.0, 0.0, 0.0, 0.0070921985815602835, 0.0070921985815602835, 0.0070921985815602835, 0.0070921985815602835, 0.0, 0.0070921985815602835, 0.0, 0.0070921985815602835, 0.0, 0.0, 0.0070921985815602835, 0.0070921985815602835, 0.0070921985815602835, 0.0070921985815602835, 0.0070921985815602835, 0.0, 0.0070921985815602835, 0.0, 0.0070921985815602835, 0.0070921985815602835, 0.0070921985815602835, 0.0070921985815602835, 0.0070921985815602835, 0.0070921985815602835, 0.0, 0.0070921985815602835, 0.0, 0.0, 0.0070921985815602835, 0.0070921985815602835, 0.0070921985815602835, 0.0070921985815602835, 0.0070921985815602835, 0.0070921985815602835, 0.0070921985815602835, 0.0, 0.0070921985815602835, 0.0070921985815602835, 0.0070921985815602835, 0.0070921985815602835, 0.0070921985815602835, 0.0070921985815602835, 0.0070921985815602835, 0.0, 0.0, 0.0070921985815602835, 0.0070921985815602835, 0.0070921985815602835, 0.0070921985815602835, 0.0070921985815602835, 0.0, 0.0, 0.0070921985815602835, 0.0, 0.0, 0.0070921985815602835, 0.0070921985815602835, 0.0070921985815602835, 0.0, 0.0070921985815602835, 0.0070921985815602835, 0.0070921985815602835, 0.0, 0.0, 0.0, 0.0070921985815602835, 0.0070921985815602835, 0.0070921985815602835, 0.0, 0.0, 0.0070921985815602835, 0.0, 0.0070921985815602835, 0.0070921985815602835, 0.0070921985815602835, 0.0070921985815602835, 0.0, 0.0, 0.0070921985815602835, 0.0070921985815602835, 0.0070921985815602835, 0.0070921985815602835, 0.0070921985815602835, 0.0, 0.0, 0.0070921985815602835, 0.0, 0.0, 0.0, 0.0, 0.0070921985815602835, 0.0070921985815602835, 0.0, 0.0, 0.0070921985815602835, 0.0, 0.0, 0.0, 0.0, 0.0070921985815602835, 0.0070921985815602835, 0.0, 0.0070921985815602835, 0.0, 0.0070921985815602835, 0.0, 0.0070921985815602835, 0.0070921985815602835, 0.0070921985815602835, 0.0070921985815602835, 0.0070921985815602835, 0.0070921985815602835, 0.0070921985815602835, 0.0070921985815602835, 0.0, 0.0070921985815602835, 0.0, 0.0070921985815602835, 0.0, 0.0070921985815602835, 0.0, 0.0, 0.0070921985815602835, 0.0, 0.0, 0.0070921985815602835, 0.0, 0.0070921985815602835, 0.0070921985815602835, 0.0, 0.0070921985815602835, 0.0070921985815602835;
    ( 1 ) 0.04081632653061224, 0.006802721088435374, 0.0, 0.006802721088435374, 0.0, 0.006802721088435374, 0.006802721088435374, 0.006802721088435374, 0.0, 0.006802721088435374, 0.006802721088435374, 0.006802721088435374, 0.006802721088435374, 0.0, 0.006802721088435374, 0.006802721088435374, 0.0, 0.006802721088435374, 0.006802721088435374, 0.0, 0.013605442176870748, 0.006802721088435374, 0.006802721088435374, 0.006802721088435374, 0.006802721088435374, 0.013605442176870748, 0.006802721088435374, 0.006802721088435374, 0.0, 0.006802721088435374, 0.0, 0.0, 0.006802721088435374, 0.006802721088435374, 0.0, 0.0, 0.006802721088435374, 0.006802721088435374, 0.006802721088435374, 0.006802721088435374, 0.006802721088435374, 0.006802721088435374, 0.0, 0.0, 0.006802721088435374, 0.0, 0.0, 0.006802721088435374, 0.0, 0.006802721088435374, 0.0, 0.006802721088435374, 0.006802721088435374, 0.0, 0.0, 0.006802721088435374, 0.006802721088435374, 0.006802721088435374, 0.0, 0.006802721088435374, 0.006802721088435374, 0.006802721088435374, 0.006802721088435374, 0.006802721088435374, 0.0, 0.006802721088435374, 0.0, 0.006802721088435374, 0.006802721088435374, 0.0, 0.0, 0.013605442176870748, 0.006802721088435374, 0.013605442176870748, 0.006802721088435374, 0.0, 0.006802721088435374, 0.006802721088435374, 0.006802721088435374, 0.0, 0.0, 0.006802721088435374, 0.006802721088435374, 0.0, 0.006802721088435374, 0.0, 0.006802721088435374, 0.0, 0.006802721088435374, 0.006802721088435374, 0.006802721088435374, 0.006802721088435374, 0.006802721088435374, 0.0, 0.0, 0.006802721088435374, 0.0, 0.006802721088435374, 0.0, 0.0, 0.006802721088435374, 0.006802721088435374, 0.013605442176870748, 0.0, 0.0, 0.006802721088435374, 0.0, 0.0, 0.0, 0.0, 0.006802721088435374, 0.006802721088435374, 0.0, 0.006802721088435374, 0.006802721088435374, 0.006802721088435374, 0.0, 0.0, 0.0, 0.0, 0.006802721088435374, 0.006802721088435374, 0.0, 0.0, 0.0, 0.0, 0.0, 0.006802721088435374, 0.006802721088435374, 0.006802721088435374, 0.0, 0.0, 0.006802721088435374, 0.0, 0.0, 0.006802721088435374, 0.0, 0.013605442176870748, 0.0, 0.0, 0.006802721088435374, 0.006802721088435374, 0.006802721088435374, 0.013605442176870748, 0.0, 0.0, 0.0, 0.0, 0.006802721088435374, 0.0, 0.006802721088435374, 0.0, 0.006802721088435374, 0.006802721088435374, 0.0, 0.0, 0.0, 0.0, 0.0, 0.006802721088435374, 0.0, 0.006802721088435374, 0.0, 0.0, 0.0, 0.0, 0.0, 0.0, 0.006802721088435374, 0.0, 0.006802721088435374, 0.006802721088435374, 0.0, 0.0, 0.0, 0.0, 0.0, 0.0, 0.0, 0.006802721088435374, 0.0, 0.0, 0.0, 0.0, 0.0, 0.0, 0.0, 0.006802721088435374, 0.006802721088435374, 0.0, 0.0, 0.0, 0.0, 0.0, 0.006802721088435374, 0.006802721088435374, 0.0, 0.006802721088435374, 0.006802721088435374, 0.0, 0.0, 0.0, 0.006802721088435374, 0.0, 0.0, 0.0, 0.006802721088435374, 0.006802721088435374, 0.006802721088435374, 0.0, 0.0, 0.0, 0.006802721088435374, 0.006802721088435374, 0.0, 0.006802721088435374, 0.0, 0.0, 0.0, 0.0, 0.006802721088435374, 0.006802721088435374, 0.0, 0.0, 0.0, 0.0, 0.0, 0.006802721088435374, 0.006802721088435374, 0.0, 0.006802721088435374, 0.006802721088435374, 0.006802721088435374, 0.006802721088435374, 0.0, 0.0, 0.006802721088435374, 0.006802721088435374, 0.0, 0.006802721088435374, 0.006802721088435374, 0.006802721088435374, 0.006802721088435374, 0.0, 0.0, 0.006802721088435374, 0.0, 0.006802721088435374, 0.0, 0.006802721088435374, 0.0, 0.0, 0.0, 0.0, 0.0, 0.0, 0.0, 0.0, 0.006802721088435374, 0.0, 0.006802721088435374, 0.0, 0.006802721088435374, 0.0, 0.006802721088435374, 0.006802721088435374, 0.0, 0.006802721088435374, 0.006802721088435374, 0.0, 0.006802721088435374, 0.0, 0.0, 0.006802721088435374, 0.0, 0.0;

}
probability ( target ) {
    table 0.4895833333333333, 0.5104166666666666 ;
}
