network unknown {
}
variable LV_1 {
    type discrete [ 2 ] { 0, 1 };
    property weight = None ;
}
variable LV_10 {
    type discrete [ 2 ] { 0, 1 };
    property weight = None ;
}
variable LV_11 {
    type discrete [ 2 ] { 0, 1 };
    property weight = None ;
}
variable LV_12 {
    type discrete [ 2 ] { 0, 1 };
    property weight = None ;
}
variable LV_13 {
    type discrete [ 2 ] { 0, 1 };
    property weight = None ;
}
variable LV_14 {
    type discrete [ 2 ] { 0, 1 };
    property weight = None ;
}
variable LV_15 {
    type discrete [ 2 ] { 0, 1 };
    property weight = None ;
}
variable LV_2 {
    type discrete [ 2 ] { 0, 1 };
    property weight = None ;
}
variable LV_3 {
    type discrete [ 2 ] { 0, 1 };
    property weight = None ;
}
variable LV_4 {
    type discrete [ 2 ] { 0, 1 };
    property weight = None ;
}
variable LV_5 {
    type discrete [ 2 ] { 0, 1 };
    property weight = None ;
}
variable LV_6 {
    type discrete [ 2 ] { 0, 1 };
    property weight = None ;
}
variable LV_7 {
    type discrete [ 2 ] { 0, 1 };
    property weight = None ;
}
variable LV_8 {
    type discrete [ 2 ] { 0, 1 };
    property weight = None ;
}
variable LV_9 {
    type discrete [ 2 ] { 0, 1 };
    property weight = None ;
}
variable attr_0 {
    type discrete [ 3 ] { 0, 1, 2 };
    property weight = None ;
}
variable attr_1 {
    type discrete [ 3 ] { 0, 1, 2 };
    property weight = None ;
}
variable attr_10 {
    type discrete [ 3 ] { 0, 1, 2 };
    property weight = None ;
}
variable attr_11 {
    type discrete [ 3 ] { 0, 1, 2 };
    property weight = None ;
}
variable attr_12 {
    type discrete [ 3 ] { 0, 1, 2 };
    property weight = None ;
}
variable attr_13 {
    type discrete [ 3 ] { 0, 1, 2 };
    property weight = None ;
}
variable attr_14 {
    type discrete [ 3 ] { 0, 1, 2 };
    property weight = None ;
}
variable attr_15 {
    type discrete [ 3 ] { 0, 1, 2 };
    property weight = None ;
}
variable attr_16 {
    type discrete [ 3 ] { 0, 1, 2 };
    property weight = None ;
}
variable attr_17 {
    type discrete [ 3 ] { 0, 1, 2 };
    property weight = None ;
}
variable attr_18 {
    type discrete [ 3 ] { 0, 1, 2 };
    property weight = None ;
}
variable attr_19 {
    type discrete [ 3 ] { 0, 1, 2 };
    property weight = None ;
}
variable attr_2 {
    type discrete [ 3 ] { 0, 1, 2 };
    property weight = None ;
}
variable attr_20 {
    type discrete [ 3 ] { 0, 1, 2 };
    property weight = None ;
}
variable attr_21 {
    type discrete [ 3 ] { 0, 1, 2 };
    property weight = None ;
}
variable attr_22 {
    type discrete [ 3 ] { 0, 1, 2 };
    property weight = None ;
}
variable attr_23 {
    type discrete [ 3 ] { 0, 1, 2 };
    property weight = None ;
}
variable attr_24 {
    type discrete [ 3 ] { 0, 1, 2 };
    property weight = None ;
}
variable attr_25 {
    type discrete [ 3 ] { 0, 1, 2 };
    property weight = None ;
}
variable attr_26 {
    type discrete [ 3 ] { 0, 1, 2 };
    property weight = None ;
}
variable attr_27 {
    type discrete [ 3 ] { 0, 1, 2 };
    property weight = None ;
}
variable attr_28 {
    type discrete [ 3 ] { 0, 1, 2 };
    property weight = None ;
}
variable attr_3 {
    type discrete [ 3 ] { 0, 1, 2 };
    property weight = None ;
}
variable attr_4 {
    type discrete [ 3 ] { 0, 1, 2 };
    property weight = None ;
}
variable attr_5 {
    type discrete [ 3 ] { 0, 1, 2 };
    property weight = None ;
}
variable attr_6 {
    type discrete [ 3 ] { 0, 1, 2 };
    property weight = None ;
}
variable attr_7 {
    type discrete [ 3 ] { 0, 1, 2 };
    property weight = None ;
}
variable attr_8 {
    type discrete [ 3 ] { 0, 1, 2 };
    property weight = None ;
}
variable attr_9 {
    type discrete [ 3 ] { 0, 1, 2 };
    property weight = None ;
}
variable path {
    type discrete [ 342 ] { 0, 1, 2, 3, 4, 5, 6, 7, 8, 9, 10, 11, 12, 13, 14, 15, 16, 17, 18, 19, 20, 21, 22, 23, 24, 25, 26, 27, 28, 29, 30, 31, 32, 33, 34, 35, 36, 37, 38, 39, 40, 41, 42, 43, 44, 45, 46, 47, 48, 49, 50, 51, 52, 53, 54, 55, 56, 57, 58, 59, 60, 61, 62, 63, 64, 65, 66, 67, 68, 69, 70, 71, 72, 73, 74, 75, 76, 77, 78, 79, 80, 81, 82, 83, 84, 85, 86, 87, 88, 89, 90, 91, 92, 93, 94, 95, 96, 97, 98, 99, 100, 101, 102, 103, 104, 105, 106, 107, 108, 109, 110, 111, 112, 113, 114, 115, 116, 117, 118, 119, 120, 121, 122, 123, 124, 125, 126, 127, 128, 129, 130, 131, 132, 133, 134, 135, 136, 137, 138, 139, 140, 141, 142, 143, 144, 145, 146, 147, 148, 149, 150, 151, 152, 153, 154, 155, 156, 157, 158, 159, 160, 161, 162, 163, 164, 165, 166, 167, 168, 169, 170, 171, 172, 173, 174, 175, 176, 177, 178, 179, 180, 181, 182, 183, 184, 185, 186, 187, 188, 189, 190, 191, 192, 193, 194, 195, 196, 197, 198, 199, 200, 201, 202, 203, 204, 205, 206, 207, 208, 209, 210, 211, 212, 213, 214, 215, 216, 217, 218, 219, 220, 221, 222, 223, 224, 225, 226, 227, 228, 229, 230, 231, 232, 233, 234, 235, 236, 237, 238, 239, 240, 241, 242, 243, 244, 245, 246, 247, 248, 249, 250, 251, 252, 253, 254, 255, 256, 257, 258, 259, 260, 261, 262, 263, 264, 265, 266, 267, 268, 269, 270, 271, 272, 273, 274, 275, 276, 277, 278, 279, 280, 281, 282, 283, 284, 285, 286, 287, 288, 289, 290, 291, 292, 293, 294, 295, 296, 297, 298, 299, 300, 301, 302, 303, 304, 305, 306, 307, 308, 309, 310, 311, 312, 313, 314, 315, 316, 317, 318, 319, 320, 321, 322, 323, 324, 325, 326, 327, 328, 329, 330, 331, 332, 333, 334, 335, 336, 337, 338, 339, 340, 341 };
    property weight = None ;
}
variable target {
    type discrete [ 2 ] { 0, 1 };
    property weight = None ;
}
probability ( LV_1 | target ) {
    ( 0 ) 0.26666666666666666, 0.7333333333333333;
    ( 1 ) 0.6777777777777778, 0.32222222222222224;

}
probability ( LV_10 | target ) {
    ( 0 ) 0.7388888888888889, 0.2611111111111111;
    ( 1 ) 0.4, 0.6;

}
probability ( LV_11 | target ) {
    ( 0 ) 0.6722222222222223, 0.3277777777777778;
    ( 1 ) 0.20555555555555555, 0.7944444444444444;

}
probability ( LV_12 | target ) {
    ( 0 ) 0.42777777777777776, 0.5722222222222222;
    ( 1 ) 0.6555555555555556, 0.34444444444444444;

}
probability ( LV_13 | target ) {
    ( 0 ) 0.28888888888888886, 0.7111111111111111;
    ( 1 ) 0.011111111111111112, 0.9888888888888889;

}
probability ( LV_14 | target ) {
    ( 0 ) 0.6, 0.4;
    ( 1 ) 0.35555555555555557, 0.6444444444444445;

}
probability ( LV_15 | target ) {
    ( 0 ) 0.5722222222222222, 0.42777777777777776;
    ( 1 ) 0.32222222222222224, 0.6777777777777778;

}
probability ( LV_2 | target ) {
    ( 0 ) 0.5722222222222222, 0.42777777777777776;
    ( 1 ) 0.11666666666666667, 0.8833333333333333;

}
probability ( LV_3 | target ) {
    ( 0 ) 0.05, 0.95;
    ( 1 ) 0.2, 0.8;

}
probability ( LV_4 | target ) {
    ( 0 ) 0.5111111111111111, 0.4888888888888889;
    ( 1 ) 0.8222222222222222, 0.17777777777777778;

}
probability ( LV_5 | target ) {
    ( 0 ) 0.7666666666666667, 0.23333333333333334;
    ( 1 ) 0.34444444444444444, 0.6555555555555556;

}
probability ( LV_6 | target ) {
    ( 0 ) 0.37222222222222223, 0.6277777777777778;
    ( 1 ) 0.5833333333333334, 0.4166666666666667;

}
probability ( LV_7 | target ) {
    ( 0 ) 0.5277777777777778, 0.4722222222222222;
    ( 1 ) 0.3055555555555556, 0.6944444444444444;

}
probability ( LV_8 | target ) {
    ( 0 ) 0.5222222222222223, 0.4777777777777778;
    ( 1 ) 0.22777777777777777, 0.7722222222222223;

}
probability ( LV_9 | target ) {
    ( 0 ) 0.2111111111111111, 0.7888888888888889;
    ( 1 ) 0.43333333333333335, 0.5666666666666667;

}
probability ( attr_0 | LV_1 ) {
    ( 0 ) 1.0, 0.0, 0.0;
    ( 1 ) 0.0, 0.28421052631578947, 0.7157894736842105;

}
probability ( attr_1 | LV_2 ) {
    ( 0 ) 0.6129032258064516, 0.0, 0.3870967741935484;
    ( 1 ) 0.0, 0.029661016949152543, 0.9703389830508474;

}
probability ( attr_10 | LV_6 ) {
    ( 0 ) 0.5348837209302325, 0.46511627906976744, 0.0;
    ( 1 ) 0.4627659574468085, 0.5106382978723404, 0.026595744680851064;

}
probability ( attr_11 | LV_7 ) {
    ( 0 ) 0.3933333333333333, 0.25333333333333335, 0.35333333333333333;
    ( 1 ) 0.0, 0.34285714285714286, 0.6571428571428571;

}
probability ( attr_12 | LV_7 ) {
    ( 0 ) 0.16, 0.04, 0.8;
    ( 1 ) 0.8428571428571429, 0.15714285714285714, 0.0;

}
probability ( attr_13 | LV_8 ) {
    ( 0 ) 0.6962962962962963, 0.0, 0.3037037037037037;
    ( 1 ) 0.06666666666666667, 0.3022222222222222, 0.6311111111111111;

}
probability ( attr_14 | LV_8 ) {
    ( 0 ) 0.5185185185185185, 0.0, 0.48148148148148145;
    ( 1 ) 0.04, 0.28888888888888886, 0.6711111111111111;

}
probability ( attr_15 | LV_9 ) {
    ( 0 ) 0.05172413793103448, 0.6637931034482759, 0.28448275862068967;
    ( 1 ) 0.10655737704918032, 0.0, 0.8934426229508197;

}
probability ( attr_16 | LV_9 ) {
    ( 0 ) 0.1896551724137931, 0.5517241379310345, 0.25862068965517243;
    ( 1 ) 0.48360655737704916, 0.0, 0.5163934426229508;

}
probability ( attr_17 | LV_10 ) {
    ( 0 ) 0.09268292682926829, 0.0, 0.9073170731707317;
    ( 1 ) 0.0, 0.43870967741935485, 0.5612903225806452;

}
probability ( attr_18 | LV_10 ) {
    ( 0 ) 0.05365853658536585, 0.004878048780487805, 0.9414634146341463;
    ( 1 ) 0.01935483870967742, 0.7677419354838709, 0.2129032258064516;

}
probability ( attr_19 | LV_11 ) {
    ( 0 ) 0.930379746835443, 0.0, 0.06962025316455696;
    ( 1 ) 0.5099009900990099, 0.16831683168316833, 0.3217821782178218;

}
probability ( attr_2 | LV_2 ) {
    ( 0 ) 0.6612903225806451, 0.14516129032258066, 0.1935483870967742;
    ( 1 ) 0.0, 0.5932203389830508, 0.4067796610169492;

}
probability ( attr_20 | LV_11 ) {
    ( 0 ) 0.5506329113924051, 0.0, 0.44936708860759494;
    ( 1 ) 0.0049504950495049506, 0.8861386138613861, 0.10891089108910891;

}
probability ( attr_21 | LV_12 ) {
    ( 0 ) 0.39487179487179486, 0.020512820512820513, 0.5846153846153846;
    ( 1 ) 0.9515151515151515, 0.048484848484848485, 0.0;

}
probability ( attr_22 | LV_12 ) {
    ( 0 ) 0.12307692307692308, 0.15384615384615385, 0.7230769230769231;
    ( 1 ) 0.503030303030303, 0.49696969696969695, 0.0;

}
probability ( attr_23 | LV_13 ) {
    ( 0 ) 0.7777777777777778, 0.14814814814814814, 0.07407407407407407;
    ( 1 ) 0.7549019607843137, 0.24509803921568626, 0.0;

}
probability ( attr_24 | LV_13 ) {
    ( 0 ) 0.9444444444444444, 0.05555555555555555, 0.0;
    ( 1 ) 0.0, 0.6503267973856209, 0.34967320261437906;

}
probability ( attr_25 | LV_14 ) {
    ( 0 ) 0.0, 0.38372093023255816, 0.6162790697674418;
    ( 1 ) 0.02127659574468085, 0.4095744680851064, 0.5691489361702128;

}
probability ( attr_26 | LV_14 ) {
    ( 0 ) 0.0, 0.37209302325581395, 0.627906976744186;
    ( 1 ) 1.0, 0.0, 0.0;

}
probability ( attr_27 | LV_15 ) {
    ( 0 ) 0.422360248447205, 0.2236024844720497, 0.35403726708074534;
    ( 1 ) 0.0, 0.5025125628140703, 0.49748743718592964;

}
probability ( attr_28 | LV_15 ) {
    ( 0 ) 0.18633540372670807, 0.6521739130434783, 0.16149068322981366;
    ( 1 ) 1.0, 0.0, 0.0;

}
probability ( attr_3 | LV_3 ) {
    ( 0 ) 0.0, 0.4444444444444444, 0.5555555555555556;
    ( 1 ) 0.022222222222222223, 0.46984126984126984, 0.5079365079365079;

}
probability ( attr_4 | LV_3 ) {
    ( 0 ) 0.26666666666666666, 0.0, 0.7333333333333333;
    ( 1 ) 0.0, 1.0, 0.0;

}
probability ( attr_5 | LV_4 ) {
    ( 0 ) 0.4125, 0.5875, 0.0;
    ( 1 ) 0.875, 0.0, 0.125;

}
probability ( attr_6 | LV_4 ) {
    ( 0 ) 0.05416666666666667, 0.2, 0.7458333333333333;
    ( 1 ) 0.0, 0.95, 0.05;

}
probability ( attr_7 | LV_5 ) {
    ( 0 ) 0.0, 0.65, 0.35;
    ( 1 ) 0.8125, 0.1, 0.0875;

}
probability ( attr_8 | LV_5 ) {
    ( 0 ) 1.0, 0.0, 0.0;
    ( 1 ) 0.59375, 0.18125, 0.225;

}
probability ( attr_9 | LV_6 ) {
    ( 0 ) 0.0, 0.06976744186046512, 0.9302325581395349;
    ( 1 ) 1.0, 0.0, 0.0;

}
probability ( path | LV_1 ) {
    ( 0 ) 0.03529411764705882, 0.0058823529411764705, 0.0058823529411764705, 0.0058823529411764705, 0.0058823529411764705, 0.0, 0.0, 0.0058823529411764705, 0.0058823529411764705, 0.0, 0.0058823529411764705, 0.0058823529411764705, 0.0, 0.0058823529411764705, 0.0058823529411764705, 0.0, 0.0058823529411764705, 0.0, 0.0, 0.0058823529411764705, 0.0058823529411764705, 0.0058823529411764705, 0.0058823529411764705, 0.0, 0.0, 0.0058823529411764705, 0.0058823529411764705, 0.0058823529411764705, 0.0, 0.0, 0.0058823529411764705, 0.011764705882352941, 0.0058823529411764705, 0.0058823529411764705, 0.0058823529411764705, 0.0, 0.011764705882352941, 0.0058823529411764705, 0.0058823529411764705, 0.0, 0.0, 0.0, 0.0, 0.0, 0.0058823529411764705, 0.0058823529411764705, 0.0058823529411764705, 0.0058823529411764705, 0.0, 0.0, 0.0058823529411764705, 0.0, 0.0058823529411764705, 0.0, 0.0, 0.0, 0.011764705882352941, 0.0, 0.0, 0.0, 0.0058823529411764705, 0.0058823529411764705, 0.0, 0.0058823529411764705, 0.0058823529411764705, 0.0, 0.0058823529411764705, 0.0, 0.0, 0.0, 0.0, 0.0058823529411764705, 0.0, 0.011764705882352941, 0.0058823529411764705, 0.0058823529411764705, 0.0058823529411764705, 0.0, 0.0, 0.0058823529411764705, 0.0058823529411764705, 0.0058823529411764705, 0.0, 0.0058823529411764705, 0.0058823529411764705, 0.0058823529411764705, 0.011764705882352941, 0.0058823529411764705, 0.011764705882352941, 0.0058823529411764705, 0.0058823529411764705, 0.0, 0.0058823529411764705, 0.0058823529411764705, 0.0, 0.0058823529411764705, 0.0058823529411764705, 0.0058823529411764705, 0.0058823529411764705, 0.0058823529411764705, 0.0, 0.0058823529411764705, 0.0058823529411764705, 0.011764705882352941, 0.0, 0.0058823529411764705, 0.011764705882352941, 0.0058823529411764705, 0.0058823529411764705, 0.0, 0.0058823529411764705, 0.0058823529411764705, 0.0, 0.0058823529411764705, 0.0058823529411764705, 0.0058823529411764705, 0.0, 0.0058823529411764705, 0.0, 0.0, 0.0, 0.0, 0.0058823529411764705, 0.0, 0.011764705882352941, 0.0058823529411764705, 0.011764705882352941, 0.0, 0.0058823529411764705, 0.0058823529411764705, 0.0, 0.0, 0.0058823529411764705, 0.0058823529411764705, 0.0, 0.0058823529411764705, 0.0, 0.0, 0.0058823529411764705, 0.0, 0.0058823529411764705, 0.011764705882352941, 0.0058823529411764705, 0.0058823529411764705, 0.0, 0.0, 0.0, 0.0, 0.0058823529411764705, 0.0058823529411764705, 0.0, 0.0058823529411764705, 0.0, 0.0, 0.0, 0.0, 0.0058823529411764705, 0.0058823529411764705, 0.0, 0.0058823529411764705, 0.0, 0.0058823529411764705, 0.0, 0.0, 0.0058823529411764705, 0.0, 0.0, 0.0058823529411764705, 0.0, 0.011764705882352941, 0.0058823529411764705, 0.0, 0.0, 0.0, 0.0058823529411764705, 0.0058823529411764705, 0.011764705882352941, 0.0, 0.0, 0.0, 0.0, 0.0, 0.0058823529411764705, 0.0, 0.0058823529411764705, 0.0, 0.0, 0.0, 0.0, 0.0058823529411764705, 0.0, 0.0, 0.0058823529411764705, 0.0, 0.0, 0.0058823529411764705, 0.0, 0.0, 0.0, 0.0, 0.0, 0.0058823529411764705, 0.0058823529411764705, 0.0, 0.0, 0.0, 0.0, 0.0, 0.0, 0.0, 0.0, 0.0, 0.0058823529411764705, 0.0058823529411764705, 0.0, 0.0058823529411764705, 0.0058823529411764705, 0.0, 0.0, 0.0058823529411764705, 0.0, 0.0, 0.0, 0.0, 0.0, 0.0058823529411764705, 0.0, 0.0, 0.0, 0.0, 0.0, 0.0, 0.0058823529411764705, 0.0, 0.0, 0.0, 0.0, 0.0058823529411764705, 0.0058823529411764705, 0.0, 0.0058823529411764705, 0.0, 0.0, 0.0, 0.0, 0.0, 0.0, 0.0058823529411764705, 0.0, 0.0, 0.0, 0.0058823529411764705, 0.0, 0.0058823529411764705, 0.0058823529411764705, 0.0, 0.0, 0.0, 0.0, 0.0058823529411764705, 0.0058823529411764705, 0.0058823529411764705, 0.0, 0.0058823529411764705, 0.0, 0.0, 0.0, 0.0, 0.0, 0.0, 0.0, 0.0058823529411764705, 0.0, 0.0, 0.0, 0.0058823529411764705, 0.0, 0.0, 0.0, 0.0058823529411764705, 0.0, 0.0, 0.0, 0.0, 0.0, 0.0, 0.0, 0.0, 0.0, 0.0, 0.0058823529411764705, 0.0058823529411764705, 0.0, 0.0, 0.0, 0.0, 0.0, 0.0, 0.0, 0.0, 0.0, 0.0058823529411764705, 0.0, 0.0, 0.0, 0.0, 0.0, 0.0058823529411764705, 0.0, 0.0058823529411764705, 0.0, 0.0058823529411764705, 0.0058823529411764705, 0.0058823529411764705, 0.0, 0.0, 0.0, 0.0058823529411764705, 0.0058823529411764705, 0.0, 0.0058823529411764705, 0.0058823529411764705, 0.0, 0.0, 0.0, 0.0, 0.0058823529411764705, 0.0058823529411764705, 0.0, 0.0058823529411764705, 0.0058823529411764705, 0.0058823529411764705, 0.0, 0.0, 0.0, 0.0058823529411764705, 0.0058823529411764705, 0.0058823529411764705, 0.0, 0.0058823529411764705, 0.0, 0.0;
    ( 1 ) 0.0, 0.0, 0.0, 0.0, 0.0, 0.005263157894736842, 0.005263157894736842, 0.0, 0.0, 0.005263157894736842, 0.0, 0.0, 0.005263157894736842, 0.0, 0.0, 0.005263157894736842, 0.0, 0.005263157894736842, 0.005263157894736842, 0.0, 0.0, 0.0, 0.0, 0.005263157894736842, 0.005263157894736842, 0.0, 0.0, 0.0, 0.005263157894736842, 0.005263157894736842, 0.0, 0.0, 0.0, 0.0, 0.0, 0.005263157894736842, 0.0, 0.0, 0.0, 0.005263157894736842, 0.005263157894736842, 0.005263157894736842, 0.005263157894736842, 0.005263157894736842, 0.0, 0.0, 0.0, 0.0, 0.005263157894736842, 0.005263157894736842, 0.0, 0.005263157894736842, 0.0, 0.005263157894736842, 0.005263157894736842, 0.005263157894736842, 0.0, 0.005263157894736842, 0.005263157894736842, 0.005263157894736842, 0.0, 0.0, 0.005263157894736842, 0.0, 0.0, 0.005263157894736842, 0.0, 0.005263157894736842, 0.005263157894736842, 0.005263157894736842, 0.005263157894736842, 0.0, 0.005263157894736842, 0.0, 0.0, 0.0, 0.0, 0.005263157894736842, 0.005263157894736842, 0.0, 0.0, 0.0, 0.005263157894736842, 0.0, 0.0, 0.0, 0.0, 0.0, 0.0, 0.0, 0.0, 0.005263157894736842, 0.0, 0.0, 0.005263157894736842, 0.0, 0.0, 0.0, 0.0, 0.0, 0.005263157894736842, 0.0, 0.0, 0.0, 0.005263157894736842, 0.0, 0.0, 0.0, 0.0, 0.005263157894736842, 0.0, 0.0, 0.005263157894736842, 0.0, 0.0, 0.0, 0.005263157894736842, 0.0, 0.005263157894736842, 0.005263157894736842, 0.005263157894736842, 0.005263157894736842, 0.0, 0.005263157894736842, 0.0, 0.0, 0.0, 0.005263157894736842, 0.0, 0.0, 0.005263157894736842, 0.005263157894736842, 0.0, 0.0, 0.005263157894736842, 0.0, 0.005263157894736842, 0.005263157894736842, 0.0, 0.005263157894736842, 0.0, 0.0, 0.0, 0.0, 0.005263157894736842, 0.005263157894736842, 0.005263157894736842, 0.005263157894736842, 0.0, 0.0, 0.005263157894736842, 0.0, 0.005263157894736842, 0.005263157894736842, 0.005263157894736842, 0.005263157894736842, 0.0, 0.0, 0.005263157894736842, 0.0, 0.005263157894736842, 0.0, 0.005263157894736842, 0.005263157894736842, 0.0, 0.005263157894736842, 0.005263157894736842, 0.0, 0.005263157894736842, 0.0, 0.0, 0.005263157894736842, 0.005263157894736842, 0.005263157894736842, 0.0, 0.0, 0.0, 0.005263157894736842, 0.005263157894736842, 0.005263157894736842, 0.005263157894736842, 0.005263157894736842, 0.0, 0.005263157894736842, 0.0, 0.005263157894736842, 0.005263157894736842, 0.005263157894736842, 0.005263157894736842, 0.0, 0.005263157894736842, 0.005263157894736842, 0.0, 0.005263157894736842, 0.005263157894736842, 0.0, 0.005263157894736842, 0.005263157894736842, 0.005263157894736842, 0.005263157894736842, 0.005263157894736842, 0.0, 0.0, 0.005263157894736842, 0.005263157894736842, 0.005263157894736842, 0.005263157894736842, 0.005263157894736842, 0.005263157894736842, 0.005263157894736842, 0.005263157894736842, 0.005263157894736842, 0.0, 0.0, 0.005263157894736842, 0.0, 0.0, 0.005263157894736842, 0.005263157894736842, 0.0, 0.005263157894736842, 0.005263157894736842, 0.005263157894736842, 0.005263157894736842, 0.005263157894736842, 0.0, 0.005263157894736842, 0.005263157894736842, 0.005263157894736842, 0.005263157894736842, 0.005263157894736842, 0.005263157894736842, 0.0, 0.005263157894736842, 0.005263157894736842, 0.005263157894736842, 0.005263157894736842, 0.0, 0.0, 0.005263157894736842, 0.0, 0.005263157894736842, 0.005263157894736842, 0.005263157894736842, 0.005263157894736842, 0.005263157894736842, 0.005263157894736842, 0.0, 0.005263157894736842, 0.005263157894736842, 0.005263157894736842, 0.0, 0.005263157894736842, 0.0, 0.0, 0.005263157894736842, 0.005263157894736842, 0.005263157894736842, 0.005263157894736842, 0.0, 0.0, 0.0, 0.005263157894736842, 0.0, 0.005263157894736842, 0.005263157894736842, 0.005263157894736842, 0.005263157894736842, 0.005263157894736842, 0.005263157894736842, 0.005263157894736842, 0.0, 0.005263157894736842, 0.005263157894736842, 0.005263157894736842, 0.0, 0.005263157894736842, 0.005263157894736842, 0.005263157894736842, 0.0, 0.005263157894736842, 0.005263157894736842, 0.005263157894736842, 0.005263157894736842, 0.005263157894736842, 0.005263157894736842, 0.005263157894736842, 0.005263157894736842, 0.005263157894736842, 0.005263157894736842, 0.0, 0.0, 0.005263157894736842, 0.005263157894736842, 0.005263157894736842, 0.005263157894736842, 0.005263157894736842, 0.005263157894736842, 0.005263157894736842, 0.005263157894736842, 0.005263157894736842, 0.0, 0.005263157894736842, 0.005263157894736842, 0.005263157894736842, 0.005263157894736842, 0.005263157894736842, 0.0, 0.005263157894736842, 0.0, 0.005263157894736842, 0.0, 0.0, 0.0, 0.005263157894736842, 0.005263157894736842, 0.005263157894736842, 0.0, 0.0, 0.005263157894736842, 0.0, 0.0, 0.005263157894736842, 0.005263157894736842, 0.005263157894736842, 0.005263157894736842, 0.0, 0.0, 0.005263157894736842, 0.0, 0.0, 0.0, 0.005263157894736842, 0.005263157894736842, 0.005263157894736842, 0.0, 0.0, 0.0, 0.005263157894736842, 0.0, 0.005263157894736842, 0.005263157894736842;

}
probability ( target ) {
    table 0.5, 0.5 ;
}
