network unknown {
}
variable LV_1 {
    type discrete [ 2 ] { 0, 1 };
    property weight = None ;
}
variable LV_10 {
    type discrete [ 2 ] { 0, 1 };
    property weight = None ;
}
variable LV_11 {
    type discrete [ 2 ] { 0, 1 };
    property weight = None ;
}
variable LV_12 {
    type discrete [ 2 ] { 0, 1 };
    property weight = None ;
}
variable LV_13 {
    type discrete [ 2 ] { 0, 1 };
    property weight = None ;
}
variable LV_14 {
    type discrete [ 2 ] { 0, 1 };
    property weight = None ;
}
variable LV_15 {
    type discrete [ 2 ] { 0, 1 };
    property weight = None ;
}
variable LV_2 {
    type discrete [ 2 ] { 0, 1 };
    property weight = None ;
}
variable LV_3 {
    type discrete [ 2 ] { 0, 1 };
    property weight = None ;
}
variable LV_4 {
    type discrete [ 2 ] { 0, 1 };
    property weight = None ;
}
variable LV_5 {
    type discrete [ 2 ] { 0, 1 };
    property weight = None ;
}
variable LV_6 {
    type discrete [ 2 ] { 0, 1 };
    property weight = None ;
}
variable LV_7 {
    type discrete [ 2 ] { 0, 1 };
    property weight = None ;
}
variable LV_8 {
    type discrete [ 2 ] { 0, 1 };
    property weight = None ;
}
variable LV_9 {
    type discrete [ 2 ] { 0, 1 };
    property weight = None ;
}
variable attr_0 {
    type discrete [ 3 ] { 0, 1, 2 };
    property weight = None ;
}
variable attr_1 {
    type discrete [ 3 ] { 0, 1, 2 };
    property weight = None ;
}
variable attr_10 {
    type discrete [ 3 ] { 0, 1, 2 };
    property weight = None ;
}
variable attr_11 {
    type discrete [ 3 ] { 0, 1, 2 };
    property weight = None ;
}
variable attr_12 {
    type discrete [ 3 ] { 0, 1, 2 };
    property weight = None ;
}
variable attr_13 {
    type discrete [ 3 ] { 0, 1, 2 };
    property weight = None ;
}
variable attr_14 {
    type discrete [ 3 ] { 0, 1, 2 };
    property weight = None ;
}
variable attr_15 {
    type discrete [ 3 ] { 0, 1, 2 };
    property weight = None ;
}
variable attr_16 {
    type discrete [ 3 ] { 0, 1, 2 };
    property weight = None ;
}
variable attr_17 {
    type discrete [ 3 ] { 0, 1, 2 };
    property weight = None ;
}
variable attr_18 {
    type discrete [ 3 ] { 0, 1, 2 };
    property weight = None ;
}
variable attr_19 {
    type discrete [ 3 ] { 0, 1, 2 };
    property weight = None ;
}
variable attr_2 {
    type discrete [ 3 ] { 0, 1, 2 };
    property weight = None ;
}
variable attr_20 {
    type discrete [ 3 ] { 0, 1, 2 };
    property weight = None ;
}
variable attr_21 {
    type discrete [ 3 ] { 0, 1, 2 };
    property weight = None ;
}
variable attr_22 {
    type discrete [ 3 ] { 0, 1, 2 };
    property weight = None ;
}
variable attr_23 {
    type discrete [ 3 ] { 0, 1, 2 };
    property weight = None ;
}
variable attr_24 {
    type discrete [ 3 ] { 0, 1, 2 };
    property weight = None ;
}
variable attr_25 {
    type discrete [ 3 ] { 0, 1, 2 };
    property weight = None ;
}
variable attr_26 {
    type discrete [ 3 ] { 0, 1, 2 };
    property weight = None ;
}
variable attr_27 {
    type discrete [ 3 ] { 0, 1, 2 };
    property weight = None ;
}
variable attr_28 {
    type discrete [ 3 ] { 0, 1, 2 };
    property weight = None ;
}
variable attr_3 {
    type discrete [ 3 ] { 0, 1, 2 };
    property weight = None ;
}
variable attr_4 {
    type discrete [ 3 ] { 0, 1, 2 };
    property weight = None ;
}
variable attr_5 {
    type discrete [ 3 ] { 0, 1, 2 };
    property weight = None ;
}
variable attr_6 {
    type discrete [ 3 ] { 0, 1, 2 };
    property weight = None ;
}
variable attr_7 {
    type discrete [ 3 ] { 0, 1, 2 };
    property weight = None ;
}
variable attr_8 {
    type discrete [ 3 ] { 0, 1, 2 };
    property weight = None ;
}
variable attr_9 {
    type discrete [ 3 ] { 0, 1, 2 };
    property weight = None ;
}
variable path {
    type discrete [ 347 ] { 0, 1, 2, 3, 4, 5, 6, 7, 8, 9, 10, 11, 12, 13, 14, 15, 16, 17, 18, 19, 20, 21, 22, 23, 24, 25, 26, 27, 28, 29, 30, 31, 32, 33, 34, 35, 36, 37, 38, 39, 40, 41, 42, 43, 44, 45, 46, 47, 48, 49, 50, 51, 52, 53, 54, 55, 56, 57, 58, 59, 60, 61, 62, 63, 64, 65, 66, 67, 68, 69, 70, 71, 72, 73, 74, 75, 76, 77, 78, 79, 80, 81, 82, 83, 84, 85, 86, 87, 88, 89, 90, 91, 92, 93, 94, 95, 96, 97, 98, 99, 100, 101, 102, 103, 104, 105, 106, 107, 108, 109, 110, 111, 112, 113, 114, 115, 116, 117, 118, 119, 120, 121, 122, 123, 124, 125, 126, 127, 128, 129, 130, 131, 132, 133, 134, 135, 136, 137, 138, 139, 140, 141, 142, 143, 144, 145, 146, 147, 148, 149, 150, 151, 152, 153, 154, 155, 156, 157, 158, 159, 160, 161, 162, 163, 164, 165, 166, 167, 168, 169, 170, 171, 172, 173, 174, 175, 176, 177, 178, 179, 180, 181, 182, 183, 184, 185, 186, 187, 188, 189, 190, 191, 192, 193, 194, 195, 196, 197, 198, 199, 200, 201, 202, 203, 204, 205, 206, 207, 208, 209, 210, 211, 212, 213, 214, 215, 216, 217, 218, 219, 220, 221, 222, 223, 224, 225, 226, 227, 228, 229, 230, 231, 232, 233, 234, 235, 236, 237, 238, 239, 240, 241, 242, 243, 244, 245, 246, 247, 248, 249, 250, 251, 252, 253, 254, 255, 256, 257, 258, 259, 260, 261, 262, 263, 264, 265, 266, 267, 268, 269, 270, 271, 272, 273, 274, 275, 276, 277, 278, 279, 280, 281, 282, 283, 284, 285, 286, 287, 288, 289, 290, 291, 292, 293, 294, 295, 296, 297, 298, 299, 300, 301, 302, 303, 304, 305, 306, 307, 308, 309, 310, 311, 312, 313, 314, 315, 316, 317, 318, 319, 320, 321, 322, 323, 324, 325, 326, 327, 328, 329, 330, 331, 332, 333, 334, 335, 336, 337, 338, 339, 340, 341, 342, 343, 344, 345, 346 };
    property weight = None ;
}
variable target {
    type discrete [ 2 ] { 0, 1 };
    property weight = None ;
}
probability ( LV_1 | target ) {
    ( 0 ) 0.6111111111111112, 0.3888888888888889;
    ( 1 ) 0.4666666666666667, 0.5333333333333333;

}
probability ( LV_10 | target ) {
    ( 0 ) 0.18888888888888888, 0.8111111111111111;
    ( 1 ) 0.5333333333333333, 0.4666666666666667;

}
probability ( LV_11 | target ) {
    ( 0 ) 0.7111111111111111, 0.28888888888888886;
    ( 1 ) 0.3611111111111111, 0.6388888888888888;

}
probability ( LV_12 | target ) {
    ( 0 ) 0.7722222222222223, 0.22777777777777777;
    ( 1 ) 0.4722222222222222, 0.5277777777777778;

}
probability ( LV_13 | target ) {
    ( 0 ) 0.8777777777777778, 0.12222222222222222;
    ( 1 ) 0.5277777777777778, 0.4722222222222222;

}
probability ( LV_14 | target ) {
    ( 0 ) 0.7888888888888889, 0.2111111111111111;
    ( 1 ) 0.45, 0.55;

}
probability ( LV_15 | target ) {
    ( 0 ) 0.95, 0.05;
    ( 1 ) 0.7944444444444444, 0.20555555555555555;

}
probability ( LV_2 | target ) {
    ( 0 ) 0.8055555555555556, 0.19444444444444445;
    ( 1 ) 0.25555555555555554, 0.7444444444444445;

}
probability ( LV_3 | target ) {
    ( 0 ) 0.5555555555555556, 0.4444444444444444;
    ( 1 ) 0.25555555555555554, 0.7444444444444445;

}
probability ( LV_4 | target ) {
    ( 0 ) 0.8333333333333334, 0.16666666666666666;
    ( 1 ) 0.3888888888888889, 0.6111111111111112;

}
probability ( LV_5 | target ) {
    ( 0 ) 0.55, 0.45;
    ( 1 ) 0.07777777777777778, 0.9222222222222223;

}
probability ( LV_6 | target ) {
    ( 0 ) 0.16666666666666666, 0.8333333333333334;
    ( 1 ) 0.6833333333333333, 0.31666666666666665;

}
probability ( LV_7 | target ) {
    ( 0 ) 0.4666666666666667, 0.5333333333333333;
    ( 1 ) 0.18888888888888888, 0.8111111111111111;

}
probability ( LV_8 | target ) {
    ( 0 ) 0.45, 0.55;
    ( 1 ) 0.19444444444444445, 0.8055555555555556;

}
probability ( LV_9 | target ) {
    ( 0 ) 0.3388888888888889, 0.6611111111111111;
    ( 1 ) 0.6111111111111112, 0.3888888888888889;

}
probability ( attr_0 | LV_1 ) {
    ( 0 ) 0.5773195876288659, 0.422680412371134, 0.0;
    ( 1 ) 0.0, 0.0, 1.0;

}
probability ( attr_1 | LV_2 ) {
    ( 0 ) 0.25654450261780104, 0.16753926701570682, 0.5759162303664922;
    ( 1 ) 0.0, 0.7633136094674556, 0.23668639053254437;

}
probability ( attr_10 | LV_6 ) {
    ( 0 ) 0.5947712418300654, 0.0, 0.40522875816993464;
    ( 1 ) 0.0, 0.24154589371980675, 0.7584541062801933;

}
probability ( attr_11 | LV_7 ) {
    ( 0 ) 0.11016949152542373, 0.5423728813559322, 0.3474576271186441;
    ( 1 ) 0.2066115702479339, 0.0, 0.7933884297520661;

}
probability ( attr_12 | LV_7 ) {
    ( 0 ) 0.15254237288135594, 0.7288135593220338, 0.11864406779661017;
    ( 1 ) 0.6198347107438017, 0.0, 0.38016528925619836;

}
probability ( attr_13 | LV_8 ) {
    ( 0 ) 0.07758620689655173, 0.9224137931034483, 0.0;
    ( 1 ) 0.0, 0.012295081967213115, 0.9877049180327869;

}
probability ( attr_14 | LV_8 ) {
    ( 0 ) 0.0, 0.7586206896551724, 0.2413793103448276;
    ( 1 ) 0.0942622950819672, 0.6434426229508197, 0.26229508196721313;

}
probability ( attr_15 | LV_9 ) {
    ( 0 ) 0.7368421052631579, 0.2631578947368421, 0.0;
    ( 1 ) 0.0, 0.9629629629629629, 0.037037037037037035;

}
probability ( attr_16 | LV_9 ) {
    ( 0 ) 0.5146198830409356, 0.0, 0.4853801169590643;
    ( 1 ) 0.0, 0.037037037037037035, 0.9629629629629629;

}
probability ( attr_17 | LV_10 ) {
    ( 0 ) 0.6307692307692307, 0.0, 0.36923076923076925;
    ( 1 ) 0.508695652173913, 0.013043478260869565, 0.4782608695652174;

}
probability ( attr_18 | LV_10 ) {
    ( 0 ) 0.34615384615384615, 0.0, 0.6538461538461539;
    ( 1 ) 0.0, 1.0, 0.0;

}
probability ( attr_19 | LV_11 ) {
    ( 0 ) 0.0, 0.8860103626943006, 0.11398963730569948;
    ( 1 ) 0.11377245508982035, 0.3413173652694611, 0.5449101796407185;

}
probability ( attr_2 | LV_2 ) {
    ( 0 ) 0.6020942408376964, 0.05235602094240838, 0.34554973821989526;
    ( 1 ) 0.0, 0.6627218934911243, 0.33727810650887574;

}
probability ( attr_20 | LV_11 ) {
    ( 0 ) 0.48186528497409326, 0.5181347150259067, 0.0;
    ( 1 ) 0.2634730538922156, 0.005988023952095809, 0.7305389221556886;

}
probability ( attr_21 | LV_12 ) {
    ( 0 ) 0.03571428571428571, 0.3392857142857143, 0.625;
    ( 1 ) 0.0, 0.33088235294117646, 0.6691176470588235;

}
probability ( attr_22 | LV_12 ) {
    ( 0 ) 0.0, 1.0, 0.0;
    ( 1 ) 0.13970588235294118, 0.0, 0.8602941176470589;

}
probability ( attr_23 | LV_13 ) {
    ( 0 ) 0.33201581027667987, 0.0, 0.6679841897233202;
    ( 1 ) 0.8598130841121495, 0.037383177570093455, 0.102803738317757;

}
probability ( attr_24 | LV_13 ) {
    ( 0 ) 0.766798418972332, 0.0, 0.233201581027668;
    ( 1 ) 0.009345794392523364, 0.4485981308411215, 0.5420560747663551;

}
probability ( attr_25 | LV_14 ) {
    ( 0 ) 0.0, 0.7399103139013453, 0.2600896860986547;
    ( 1 ) 0.16058394160583941, 0.051094890510948905, 0.7883211678832117;

}
probability ( attr_26 | LV_14 ) {
    ( 0 ) 0.7533632286995515, 0.0, 0.24663677130044842;
    ( 1 ) 0.0364963503649635, 0.22627737226277372, 0.7372262773722628;

}
probability ( attr_27 | LV_15 ) {
    ( 0 ) 0.01592356687898089, 0.410828025477707, 0.5732484076433121;
    ( 1 ) 0.0, 0.43478260869565216, 0.5652173913043478;

}
probability ( attr_28 | LV_15 ) {
    ( 0 ) 0.0, 0.0, 1.0;
    ( 1 ) 0.17391304347826086, 0.8260869565217391, 0.0;

}
probability ( attr_3 | LV_3 ) {
    ( 0 ) 0.3150684931506849, 0.0410958904109589, 0.6438356164383562;
    ( 1 ) 0.3878504672897196, 0.0, 0.6121495327102804;

}
probability ( attr_4 | LV_3 ) {
    ( 0 ) 0.00684931506849315, 0.9863013698630136, 0.00684931506849315;
    ( 1 ) 0.35514018691588783, 0.0, 0.6448598130841121;

}
probability ( attr_5 | LV_4 ) {
    ( 0 ) 0.05454545454545454, 0.0, 0.9454545454545454;
    ( 1 ) 0.007142857142857143, 0.7642857142857142, 0.22857142857142856;

}
probability ( attr_6 | LV_4 ) {
    ( 0 ) 0.0, 0.03636363636363636, 0.9636363636363636;
    ( 1 ) 0.4857142857142857, 0.02857142857142857, 0.4857142857142857;

}
probability ( attr_7 | LV_5 ) {
    ( 0 ) 0.4778761061946903, 0.39823008849557523, 0.12389380530973451;
    ( 1 ) 0.0, 0.7530364372469636, 0.24696356275303644;

}
probability ( attr_8 | LV_5 ) {
    ( 0 ) 0.7433628318584071, 0.20353982300884957, 0.05309734513274336;
    ( 1 ) 0.0, 0.7773279352226721, 0.22267206477732793;

}
probability ( attr_9 | LV_6 ) {
    ( 0 ) 0.7908496732026143, 0.0718954248366013, 0.13725490196078433;
    ( 1 ) 0.028985507246376812, 0.748792270531401, 0.2222222222222222;

}
probability ( path | LV_1 ) {
    ( 0 ) 0.0, 0.005154639175257732, 0.005154639175257732, 0.0, 0.005154639175257732, 0.005154639175257732, 0.005154639175257732, 0.005154639175257732, 0.0, 0.005154639175257732, 0.0, 0.005154639175257732, 0.005154639175257732, 0.005154639175257732, 0.005154639175257732, 0.005154639175257732, 0.0, 0.005154639175257732, 0.0, 0.005154639175257732, 0.0, 0.005154639175257732, 0.005154639175257732, 0.0, 0.0, 0.005154639175257732, 0.005154639175257732, 0.0, 0.005154639175257732, 0.0, 0.005154639175257732, 0.0, 0.0, 0.005154639175257732, 0.0, 0.0, 0.0, 0.005154639175257732, 0.0, 0.0, 0.005154639175257732, 0.005154639175257732, 0.005154639175257732, 0.005154639175257732, 0.005154639175257732, 0.0, 0.005154639175257732, 0.0, 0.0, 0.005154639175257732, 0.005154639175257732, 0.0, 0.005154639175257732, 0.005154639175257732, 0.005154639175257732, 0.0, 0.0, 0.005154639175257732, 0.005154639175257732, 0.0, 0.005154639175257732, 0.0, 0.005154639175257732, 0.0, 0.0, 0.005154639175257732, 0.005154639175257732, 0.0, 0.005154639175257732, 0.0, 0.0, 0.0, 0.005154639175257732, 0.0, 0.0, 0.0, 0.005154639175257732, 0.0, 0.0, 0.005154639175257732, 0.005154639175257732, 0.0, 0.005154639175257732, 0.0, 0.0, 0.005154639175257732, 0.005154639175257732, 0.005154639175257732, 0.0, 0.0, 0.0, 0.0, 0.005154639175257732, 0.0, 0.0, 0.005154639175257732, 0.005154639175257732, 0.0, 0.0, 0.005154639175257732, 0.0, 0.0, 0.005154639175257732, 0.0, 0.005154639175257732, 0.005154639175257732, 0.0, 0.0, 0.0, 0.0, 0.0, 0.005154639175257732, 0.005154639175257732, 0.005154639175257732, 0.005154639175257732, 0.005154639175257732, 0.005154639175257732, 0.005154639175257732, 0.0, 0.0, 0.005154639175257732, 0.0, 0.0, 0.0, 0.005154639175257732, 0.0, 0.0, 0.005154639175257732, 0.005154639175257732, 0.005154639175257732, 0.005154639175257732, 0.005154639175257732, 0.005154639175257732, 0.005154639175257732, 0.005154639175257732, 0.005154639175257732, 0.005154639175257732, 0.005154639175257732, 0.005154639175257732, 0.005154639175257732, 0.005154639175257732, 0.005154639175257732, 0.005154639175257732, 0.005154639175257732, 0.0, 0.005154639175257732, 0.0, 0.005154639175257732, 0.005154639175257732, 0.005154639175257732, 0.005154639175257732, 0.005154639175257732, 0.005154639175257732, 0.0, 0.0, 0.0, 0.005154639175257732, 0.0, 0.005154639175257732, 0.005154639175257732, 0.0, 0.0, 0.0, 0.0, 0.005154639175257732, 0.005154639175257732, 0.0, 0.0, 0.005154639175257732, 0.005154639175257732, 0.005154639175257732, 0.005154639175257732, 0.005154639175257732, 0.005154639175257732, 0.0, 0.0, 0.005154639175257732, 0.005154639175257732, 0.0, 0.005154639175257732, 0.005154639175257732, 0.005154639175257732, 0.005154639175257732, 0.005154639175257732, 0.0, 0.0, 0.005154639175257732, 0.0, 0.0, 0.0, 0.0, 0.0, 0.005154639175257732, 0.005154639175257732, 0.005154639175257732, 0.005154639175257732, 0.005154639175257732, 0.005154639175257732, 0.005154639175257732, 0.0, 0.005154639175257732, 0.005154639175257732, 0.005154639175257732, 0.005154639175257732, 0.005154639175257732, 0.0, 0.0, 0.005154639175257732, 0.005154639175257732, 0.0, 0.0, 0.005154639175257732, 0.0, 0.0, 0.005154639175257732, 0.005154639175257732, 0.0, 0.0, 0.010309278350515464, 0.0, 0.005154639175257732, 0.0, 0.0, 0.0, 0.005154639175257732, 0.0, 0.0, 0.005154639175257732, 0.005154639175257732, 0.010309278350515464, 0.005154639175257732, 0.005154639175257732, 0.005154639175257732, 0.0, 0.005154639175257732, 0.0, 0.005154639175257732, 0.0, 0.005154639175257732, 0.005154639175257732, 0.0, 0.005154639175257732, 0.0, 0.0, 0.005154639175257732, 0.0, 0.005154639175257732, 0.005154639175257732, 0.005154639175257732, 0.005154639175257732, 0.005154639175257732, 0.005154639175257732, 0.0, 0.0, 0.0, 0.005154639175257732, 0.005154639175257732, 0.0, 0.005154639175257732, 0.0, 0.0, 0.005154639175257732, 0.005154639175257732, 0.005154639175257732, 0.005154639175257732, 0.005154639175257732, 0.0, 0.0, 0.005154639175257732, 0.005154639175257732, 0.005154639175257732, 0.005154639175257732, 0.005154639175257732, 0.0, 0.0, 0.005154639175257732, 0.0, 0.0, 0.0, 0.005154639175257732, 0.005154639175257732, 0.005154639175257732, 0.005154639175257732, 0.005154639175257732, 0.0, 0.005154639175257732, 0.005154639175257732, 0.005154639175257732, 0.005154639175257732, 0.005154639175257732, 0.005154639175257732, 0.005154639175257732, 0.0, 0.0, 0.0, 0.0, 0.005154639175257732, 0.0, 0.005154639175257732, 0.0, 0.005154639175257732, 0.0, 0.0, 0.0, 0.005154639175257732, 0.0, 0.005154639175257732, 0.0, 0.0, 0.005154639175257732, 0.0, 0.0, 0.005154639175257732, 0.005154639175257732, 0.005154639175257732, 0.0, 0.0, 0.005154639175257732, 0.005154639175257732, 0.005154639175257732, 0.005154639175257732, 0.0, 0.0, 0.0, 0.0, 0.0, 0.0, 0.0, 0.0, 0.0, 0.0, 0.0, 0.010309278350515464, 0.0, 0.005154639175257732, 0.0, 0.0, 0.0, 0.005154639175257732, 0.0, 0.005154639175257732, 0.0, 0.010309278350515464, 0.0, 0.0, 0.005154639175257732, 0.0;
    ( 1 ) 0.006024096385542169, 0.0, 0.0, 0.006024096385542169, 0.0, 0.0, 0.0, 0.0, 0.006024096385542169, 0.0, 0.006024096385542169, 0.0, 0.0, 0.0, 0.0, 0.0, 0.006024096385542169, 0.0, 0.006024096385542169, 0.0, 0.006024096385542169, 0.0, 0.0, 0.006024096385542169, 0.006024096385542169, 0.0, 0.0, 0.006024096385542169, 0.0, 0.006024096385542169, 0.0, 0.006024096385542169, 0.006024096385542169, 0.0, 0.006024096385542169, 0.006024096385542169, 0.006024096385542169, 0.0, 0.006024096385542169, 0.006024096385542169, 0.0, 0.0, 0.0, 0.0, 0.0, 0.006024096385542169, 0.0, 0.006024096385542169, 0.006024096385542169, 0.0, 0.0, 0.006024096385542169, 0.0, 0.0, 0.0, 0.006024096385542169, 0.006024096385542169, 0.0, 0.0, 0.006024096385542169, 0.0, 0.006024096385542169, 0.0, 0.006024096385542169, 0.006024096385542169, 0.0, 0.0, 0.006024096385542169, 0.0, 0.006024096385542169, 0.006024096385542169, 0.006024096385542169, 0.0, 0.006024096385542169, 0.006024096385542169, 0.006024096385542169, 0.0, 0.006024096385542169, 0.006024096385542169, 0.0, 0.0, 0.006024096385542169, 0.0, 0.006024096385542169, 0.006024096385542169, 0.0, 0.0, 0.0, 0.006024096385542169, 0.006024096385542169, 0.006024096385542169, 0.006024096385542169, 0.0, 0.006024096385542169, 0.006024096385542169, 0.0, 0.0, 0.006024096385542169, 0.006024096385542169, 0.0, 0.006024096385542169, 0.006024096385542169, 0.0, 0.006024096385542169, 0.0, 0.0, 0.006024096385542169, 0.006024096385542169, 0.006024096385542169, 0.006024096385542169, 0.006024096385542169, 0.0, 0.0, 0.0, 0.0, 0.0, 0.0, 0.0, 0.006024096385542169, 0.006024096385542169, 0.0, 0.006024096385542169, 0.006024096385542169, 0.006024096385542169, 0.0, 0.006024096385542169, 0.006024096385542169, 0.0, 0.0, 0.0, 0.0, 0.0, 0.0, 0.0, 0.0, 0.0, 0.0, 0.0, 0.0, 0.0, 0.0, 0.0, 0.0, 0.0, 0.006024096385542169, 0.0, 0.006024096385542169, 0.0, 0.0, 0.0, 0.0, 0.0, 0.0, 0.006024096385542169, 0.006024096385542169, 0.006024096385542169, 0.0, 0.006024096385542169, 0.0, 0.0, 0.006024096385542169, 0.006024096385542169, 0.006024096385542169, 0.006024096385542169, 0.0, 0.0, 0.006024096385542169, 0.006024096385542169, 0.0, 0.0, 0.0, 0.0, 0.0, 0.0, 0.006024096385542169, 0.006024096385542169, 0.0, 0.0, 0.006024096385542169, 0.0, 0.0, 0.0, 0.0, 0.0, 0.006024096385542169, 0.006024096385542169, 0.0, 0.006024096385542169, 0.006024096385542169, 0.012048192771084338, 0.006024096385542169, 0.006024096385542169, 0.0, 0.0, 0.0, 0.0, 0.0, 0.0, 0.0, 0.006024096385542169, 0.0, 0.0, 0.0, 0.0, 0.0, 0.006024096385542169, 0.006024096385542169, 0.0, 0.0, 0.006024096385542169, 0.006024096385542169, 0.0, 0.006024096385542169, 0.006024096385542169, 0.0, 0.0, 0.006024096385542169, 0.006024096385542169, 0.0, 0.006024096385542169, 0.0, 0.006024096385542169, 0.006024096385542169, 0.006024096385542169, 0.0, 0.012048192771084338, 0.006024096385542169, 0.0, 0.0, 0.0, 0.0, 0.0, 0.0, 0.006024096385542169, 0.0, 0.006024096385542169, 0.0, 0.006024096385542169, 0.0, 0.0, 0.006024096385542169, 0.0, 0.006024096385542169, 0.006024096385542169, 0.0, 0.006024096385542169, 0.0, 0.0, 0.0, 0.0, 0.0, 0.0, 0.006024096385542169, 0.006024096385542169, 0.012048192771084338, 0.0, 0.0, 0.006024096385542169, 0.0, 0.006024096385542169, 0.006024096385542169, 0.0, 0.0, 0.0, 0.0, 0.0, 0.006024096385542169, 0.006024096385542169, 0.0, 0.0, 0.0, 0.0, 0.0, 0.006024096385542169, 0.006024096385542169, 0.0, 0.012048192771084338, 0.006024096385542169, 0.006024096385542169, 0.0, 0.0, 0.0, 0.0, 0.0, 0.006024096385542169, 0.0, 0.0, 0.0, 0.0, 0.0, 0.0, 0.0, 0.006024096385542169, 0.006024096385542169, 0.006024096385542169, 0.006024096385542169, 0.0, 0.012048192771084338, 0.0, 0.006024096385542169, 0.0, 0.006024096385542169, 0.006024096385542169, 0.006024096385542169, 0.0, 0.006024096385542169, 0.0, 0.006024096385542169, 0.006024096385542169, 0.0, 0.006024096385542169, 0.006024096385542169, 0.0, 0.0, 0.0, 0.006024096385542169, 0.006024096385542169, 0.0, 0.0, 0.0, 0.0, 0.006024096385542169, 0.006024096385542169, 0.006024096385542169, 0.006024096385542169, 0.006024096385542169, 0.012048192771084338, 0.006024096385542169, 0.006024096385542169, 0.012048192771084338, 0.006024096385542169, 0.006024096385542169, 0.0, 0.006024096385542169, 0.0, 0.006024096385542169, 0.006024096385542169, 0.006024096385542169, 0.0, 0.012048192771084338, 0.0, 0.006024096385542169, 0.0, 0.012048192771084338, 0.006024096385542169, 0.0, 0.006024096385542169;

}
probability ( target ) {
    table 0.5, 0.5 ;
}
