network unknown {
}
variable L_attr_1_attr_20 {
    type discrete [ 2 ] { 5_ou_1_ou_3, 7_ou_4_ou_8_ou_0_ou_2_ou_6 };
    property weight = None ;
}
variable attr_0 {
    type discrete [ 3 ] { 0, 1, 2 };
    property weight = None ;
}
variable attr_1 {
    type discrete [ 3 ] { 0, 1, 2 };
    property weight = None ;
}
variable attr_10 {
    type discrete [ 3 ] { 0, 1, 2 };
    property weight = None ;
}
variable attr_11 {
    type discrete [ 3 ] { 0, 1, 2 };
    property weight = None ;
}
variable attr_12 {
    type discrete [ 3 ] { 0, 1, 2 };
    property weight = None ;
}
variable attr_13 {
    type discrete [ 3 ] { 0, 1, 2 };
    property weight = None ;
}
variable attr_14 {
    type discrete [ 3 ] { 0, 1, 2 };
    property weight = None ;
}
variable attr_15 {
    type discrete [ 3 ] { 0, 1, 2 };
    property weight = None ;
}
variable attr_16 {
    type discrete [ 3 ] { 0, 1, 2 };
    property weight = None ;
}
variable attr_17 {
    type discrete [ 3 ] { 0, 1, 2 };
    property weight = None ;
}
variable attr_18 {
    type discrete [ 3 ] { 0, 1, 2 };
    property weight = None ;
}
variable attr_19 {
    type discrete [ 3 ] { 0, 1, 2 };
    property weight = None ;
}
variable attr_2 {
    type discrete [ 3 ] { 0, 1, 2 };
    property weight = None ;
}
variable attr_20 {
    type discrete [ 3 ] { 0, 1, 2 };
    property weight = None ;
}
variable attr_21 {
    type discrete [ 3 ] { 0, 1, 2 };
    property weight = None ;
}
variable attr_22 {
    type discrete [ 3 ] { 0, 1, 2 };
    property weight = None ;
}
variable attr_23 {
    type discrete [ 3 ] { 0, 1, 2 };
    property weight = None ;
}
variable attr_24 {
    type discrete [ 3 ] { 0, 1, 2 };
    property weight = None ;
}
variable attr_25 {
    type discrete [ 3 ] { 0, 1, 2 };
    property weight = None ;
}
variable attr_26 {
    type discrete [ 3 ] { 0, 1, 2 };
    property weight = None ;
}
variable attr_27 {
    type discrete [ 3 ] { 0, 1, 2 };
    property weight = None ;
}
variable attr_28 {
    type discrete [ 3 ] { 0, 1, 2 };
    property weight = None ;
}
variable attr_3 {
    type discrete [ 3 ] { 0, 1, 2 };
    property weight = None ;
}
variable attr_4 {
    type discrete [ 3 ] { 0, 1, 2 };
    property weight = None ;
}
variable attr_5 {
    type discrete [ 3 ] { 0, 1, 2 };
    property weight = None ;
}
variable attr_6 {
    type discrete [ 3 ] { 0, 1, 2 };
    property weight = None ;
}
variable attr_7 {
    type discrete [ 3 ] { 0, 1, 2 };
    property weight = None ;
}
variable attr_8 {
    type discrete [ 3 ] { 0, 1, 2 };
    property weight = None ;
}
variable attr_9 {
    type discrete [ 3 ] { 0, 1, 2 };
    property weight = None ;
}
variable path {
    type discrete [ 278 ] { 0, 1, 2, 4, 5, 6, 7, 8, 9, 10, 11, 12, 13, 14, 15, 16, 17, 18, 20, 22, 23, 24, 25, 26, 27, 28, 29, 31, 32, 33, 34, 36, 37, 38, 39, 40, 41, 42, 43, 44, 46, 47, 49, 50, 51, 52, 53, 56, 57, 59, 61, 62, 63, 64, 65, 66, 68, 69, 70, 71, 72, 73, 74, 75, 77, 78, 79, 81, 82, 85, 86, 87, 88, 89, 90, 91, 93, 94, 96, 98, 99, 100, 101, 102, 103, 104, 105, 106, 107, 108, 109, 110, 111, 112, 113, 115, 116, 117, 118, 119, 120, 122, 123, 125, 127, 128, 130, 131, 132, 133, 134, 135, 136, 137, 138, 139, 140, 141, 142, 143, 146, 147, 148, 149, 150, 153, 154, 155, 156, 157, 158, 160, 161, 162, 163, 165, 166, 167, 170, 171, 172, 173, 175, 176, 177, 178, 179, 180, 181, 182, 185, 186, 187, 188, 189, 190, 191, 194, 195, 196, 197, 199, 200, 201, 202, 204, 206, 207, 208, 210, 211, 212, 214, 215, 216, 218, 219, 220, 221, 222, 223, 224, 225, 226, 228, 229, 230, 231, 232, 233, 234, 235, 236, 237, 239, 241, 242, 243, 246, 247, 248, 251, 252, 253, 254, 256, 257, 258, 259, 260, 261, 263, 266, 267, 269, 270, 271, 272, 273, 274, 275, 276, 278, 279, 281, 282, 283, 284, 285, 286, 287, 288, 289, 290, 291, 292, 293, 294, 295, 296, 297, 298, 299, 300, 301, 302, 303, 304, 305, 307, 308, 310, 312, 313, 315, 316, 317, 318, 319, 325, 326, 327, 328, 329, 331, 332, 333, 334, 335, 337, 338, 339, 340, 341, 342, 343, 344, 346 };
    property weight = None ;
}
variable target {
    type discrete [ 2 ] { 0, 1 };
    property weight = None ;
}
probability ( L_attr_1_attr_20 | target ) {
    ( 0 ) 0.17153499960057952, 0.8284650003994205;
    ( 1 ) 0.2920520360412625, 0.7079479639587375;

}
probability ( attr_0 | target ) {
    ( 0 ) 0.5306122448979592, 0.08163265306122448, 0.3877551020408163;
    ( 1 ) 0.0851063829787234, 0.3546099290780142, 0.5602836879432624;

}
probability ( attr_1 | L_attr_1_attr_20 ) {
    ( 5_ou_1_ou_3 ) 0.10390690447190284, 0.47546567749093516, 0.42062741803716197;
    ( 7_ou_4_ou_8_ou_0_ou_2_ou_6 ) 0.17236097788876847, 0.40340054076716336, 0.42423848134406816;

}
probability ( attr_10 | target ) {
    ( 0 ) 0.04081632653061224, 0.2653061224489796, 0.6938775510204082;
    ( 1 ) 0.46099290780141844, 0.0, 0.5390070921985816;

}
probability ( attr_11 | target ) {
    ( 0 ) 0.2585034013605442, 0.19047619047619047, 0.5510204081632653;
    ( 1 ) 0.0851063829787234, 0.14184397163120568, 0.7730496453900709;

}
probability ( attr_12 | target ) {
    ( 0 ) 0.25170068027210885, 0.4013605442176871, 0.3469387755102041;
    ( 1 ) 0.7163120567375887, 0.06382978723404255, 0.2198581560283688;

}
probability ( attr_13 | target ) {
    ( 0 ) 0.05442176870748299, 0.4013605442176871, 0.54421768707483;
    ( 1 ) 0.0, 0.23404255319148937, 0.7659574468085106;

}
probability ( attr_14 | target ) {
    ( 0 ) 0.006802721088435374, 0.8231292517006803, 0.17006802721088435;
    ( 1 ) 0.14893617021276595, 0.524822695035461, 0.3262411347517731;

}
probability ( attr_15 | target ) {
    ( 0 ) 0.20408163265306123, 0.7551020408163265, 0.04081632653061224;
    ( 1 ) 0.46808510638297873, 0.5319148936170213, 0.0;

}
probability ( attr_16 | target ) {
    ( 0 ) 0.1564625850340136, 0.04081632653061224, 0.8027210884353742;
    ( 1 ) 0.3404255319148936, 0.0, 0.6595744680851063;

}
probability ( attr_17 | target ) {
    ( 0 ) 0.3945578231292517, 0.0, 0.6054421768707483;
    ( 1 ) 0.7375886524822695, 0.02127659574468085, 0.24113475177304963;

}
probability ( attr_18 | target ) {
    ( 0 ) 0.027210884353741496, 0.8095238095238095, 0.16326530612244897;
    ( 1 ) 0.2127659574468085, 0.475177304964539, 0.3120567375886525;

}
probability ( attr_19 | target ) {
    ( 0 ) 0.0, 0.8639455782312925, 0.1360544217687075;
    ( 1 ) 0.11347517730496454, 0.3829787234042553, 0.5035460992907801;

}
probability ( attr_2 | target ) {
    ( 0 ) 0.5306122448979592, 0.14285714285714285, 0.32653061224489793;
    ( 1 ) 0.10638297872340426, 0.5319148936170213, 0.3617021276595745;

}
probability ( attr_20 | L_attr_1_attr_20 ) {
    ( 5_ou_1_ou_3 ) 0.2685878404304085, 0.28116812563511573, 0.4502440339344758;
    ( 7_ou_4_ou_8_ou_0_ou_2_ou_6 ) 0.44699355403331864, 0.19750934518830482, 0.3554971007783766;

}
probability ( attr_21 | target ) {
    ( 0 ) 0.04081632653061224, 0.19047619047619047, 0.7687074829931972;
    ( 1 ) 0.0, 0.46808510638297873, 0.5319148936170213;

}
probability ( attr_22 | target ) {
    ( 0 ) 0.0, 0.7619047619047619, 0.23809523809523808;
    ( 1 ) 0.11347517730496454, 0.46099290780141844, 0.425531914893617;

}
probability ( attr_23 | target ) {
    ( 0 ) 0.272108843537415, 0.006802721088435374, 0.7210884353741497;
    ( 1 ) 0.7021276595744681, 0.014184397163120567, 0.28368794326241137;

}
probability ( attr_24 | target ) {
    ( 0 ) 0.7210884353741497, 0.04081632653061224, 0.23809523809523808;
    ( 1 ) 0.3900709219858156, 0.22695035460992907, 0.3829787234042553;

}
probability ( attr_25 | target ) {
    ( 0 ) 0.006802721088435374, 0.6666666666666666, 0.32653061224489793;
    ( 1 ) 0.1276595744680851, 0.2907801418439716, 0.5815602836879432;

}
probability ( attr_26 | target ) {
    ( 0 ) 0.5918367346938775, 0.04081632653061224, 0.3673469387755102;
    ( 1 ) 0.3546099290780142, 0.14184397163120568, 0.5035460992907801;

}
probability ( attr_27 | target ) {
    ( 0 ) 0.027210884353741496, 0.30612244897959184, 0.6666666666666666;
    ( 1 ) 0.0, 0.524822695035461, 0.475177304964539;

}
probability ( attr_28 | target ) {
    ( 0 ) 0.006802721088435374, 0.047619047619047616, 0.9455782312925171;
    ( 1 ) 0.03546099290780142, 0.15602836879432624, 0.8085106382978723;

}
probability ( attr_3 | target ) {
    ( 0 ) 0.2789115646258503, 0.02040816326530612, 0.7006802721088435;
    ( 1 ) 0.40425531914893614, 0.0, 0.5957446808510638;

}
probability ( attr_4 | target ) {
    ( 0 ) 0.10884353741496598, 0.5102040816326531, 0.38095238095238093;
    ( 1 ) 0.3475177304964539, 0.24822695035460993, 0.40425531914893614;

}
probability ( attr_5 | target ) {
    ( 0 ) 0.013605442176870748, 0.1292517006802721, 0.8571428571428571;
    ( 1 ) 0.05673758865248227, 0.4326241134751773, 0.5106382978723404;

}
probability ( attr_6 | target ) {
    ( 0 ) 0.05442176870748299, 0.0, 0.9455782312925171;
    ( 1 ) 0.3262411347517731, 0.05673758865248227, 0.6170212765957447;

}
probability ( attr_7 | target ) {
    ( 0 ) 0.2653061224489796, 0.48299319727891155, 0.25170068027210885;
    ( 1 ) 0.0, 0.7943262411347518, 0.20567375886524822;

}
probability ( attr_8 | target ) {
    ( 0 ) 0.4013605442176871, 0.4013605442176871, 0.19727891156462585;
    ( 1 ) 0.05673758865248227, 0.8014184397163121, 0.14184397163120568;

}
probability ( attr_9 | target ) {
    ( 0 ) 0.17006802721088435, 0.6326530612244898, 0.19727891156462585;
    ( 1 ) 0.5673758865248227, 0.2624113475177305, 0.1702127659574468;

}
probability ( path | target ) {
    ( 0 ) 0.0, 0.006802721088435374, 0.0, 0.006802721088435374, 0.0, 0.006802721088435374, 0.006802721088435374, 0.006802721088435374, 0.006802721088435374, 0.006802721088435374, 0.0, 0.006802721088435374, 0.0, 0.006802721088435374, 0.006802721088435374, 0.0, 0.006802721088435374, 0.0, 0.006802721088435374, 0.006802721088435374, 0.006802721088435374, 0.006802721088435374, 0.006802721088435374, 0.006802721088435374, 0.006802721088435374, 0.006802721088435374, 0.006802721088435374, 0.006802721088435374, 0.0, 0.0, 0.0, 0.006802721088435374, 0.006802721088435374, 0.0, 0.0, 0.006802721088435374, 0.006802721088435374, 0.0, 0.006802721088435374, 0.006802721088435374, 0.0, 0.0, 0.0, 0.0, 0.0, 0.006802721088435374, 0.006802721088435374, 0.006802721088435374, 0.006802721088435374, 0.006802721088435374, 0.006802721088435374, 0.006802721088435374, 0.006802721088435374, 0.0, 0.006802721088435374, 0.0, 0.006802721088435374, 0.0, 0.006802721088435374, 0.0, 0.0, 0.006802721088435374, 0.0, 0.0, 0.006802721088435374, 0.0, 0.0, 0.006802721088435374, 0.006802721088435374, 0.006802721088435374, 0.0, 0.006802721088435374, 0.006802721088435374, 0.0, 0.0, 0.0, 0.0, 0.0, 0.006802721088435374, 0.0, 0.0, 0.006802721088435374, 0.0, 0.006802721088435374, 0.0, 0.0, 0.0, 0.0, 0.006802721088435374, 0.0, 0.006802721088435374, 0.006802721088435374, 0.006802721088435374, 0.0, 0.006802721088435374, 0.006802721088435374, 0.0, 0.0, 0.006802721088435374, 0.0, 0.0, 0.0, 0.0, 0.0, 0.006802721088435374, 0.0, 0.006802721088435374, 0.0, 0.006802721088435374, 0.006802721088435374, 0.006802721088435374, 0.0, 0.0, 0.006802721088435374, 0.0, 0.0, 0.006802721088435374, 0.0, 0.006802721088435374, 0.006802721088435374, 0.006802721088435374, 0.006802721088435374, 0.006802721088435374, 0.006802721088435374, 0.0, 0.0, 0.006802721088435374, 0.0, 0.006802721088435374, 0.0, 0.0, 0.0, 0.0, 0.006802721088435374, 0.0, 0.0, 0.006802721088435374, 0.0, 0.006802721088435374, 0.0, 0.0, 0.006802721088435374, 0.0, 0.006802721088435374, 0.0, 0.0, 0.006802721088435374, 0.0, 0.006802721088435374, 0.0, 0.0, 0.0, 0.006802721088435374, 0.0, 0.006802721088435374, 0.006802721088435374, 0.006802721088435374, 0.006802721088435374, 0.006802721088435374, 0.0, 0.006802721088435374, 0.006802721088435374, 0.006802721088435374, 0.006802721088435374, 0.006802721088435374, 0.006802721088435374, 0.0, 0.0, 0.006802721088435374, 0.006802721088435374, 0.006802721088435374, 0.0, 0.006802721088435374, 0.006802721088435374, 0.0, 0.0, 0.006802721088435374, 0.006802721088435374, 0.0, 0.006802721088435374, 0.006802721088435374, 0.006802721088435374, 0.0, 0.0, 0.0, 0.0, 0.006802721088435374, 0.006802721088435374, 0.006802721088435374, 0.0, 0.006802721088435374, 0.006802721088435374, 0.0, 0.006802721088435374, 0.006802721088435374, 0.0, 0.0, 0.006802721088435374, 0.006802721088435374, 0.006802721088435374, 0.0, 0.006802721088435374, 0.006802721088435374, 0.006802721088435374, 0.0, 0.0, 0.0, 0.006802721088435374, 0.0, 0.0, 0.0, 0.006802721088435374, 0.006802721088435374, 0.006802721088435374, 0.0, 0.006802721088435374, 0.006802721088435374, 0.006802721088435374, 0.006802721088435374, 0.006802721088435374, 0.0, 0.0, 0.0, 0.006802721088435374, 0.006802721088435374, 0.006802721088435374, 0.0, 0.006802721088435374, 0.006802721088435374, 0.006802721088435374, 0.0, 0.006802721088435374, 0.006802721088435374, 0.006802721088435374, 0.006802721088435374, 0.0, 0.0, 0.0, 0.0, 0.0, 0.0, 0.0, 0.006802721088435374, 0.0, 0.006802721088435374, 0.006802721088435374, 0.0, 0.006802721088435374, 0.0, 0.0, 0.006802721088435374, 0.0, 0.006802721088435374, 0.006802721088435374, 0.0, 0.0, 0.0, 0.006802721088435374, 0.0, 0.006802721088435374, 0.0, 0.006802721088435374, 0.0, 0.0, 0.006802721088435374, 0.0, 0.006802721088435374, 0.0, 0.006802721088435374, 0.0, 0.0, 0.0, 0.006802721088435374, 0.006802721088435374, 0.0, 0.0, 0.006802721088435374, 0.0;
    ( 1 ) 0.0070921985815602835, 0.0, 0.0070921985815602835, 0.0, 0.0070921985815602835, 0.0, 0.0, 0.0, 0.0, 0.0, 0.0070921985815602835, 0.0, 0.0070921985815602835, 0.0, 0.0, 0.0070921985815602835, 0.0, 0.0070921985815602835, 0.0, 0.0, 0.0, 0.0, 0.0, 0.0, 0.0, 0.0, 0.0, 0.0, 0.0070921985815602835, 0.0070921985815602835, 0.0070921985815602835, 0.0, 0.0, 0.0070921985815602835, 0.0070921985815602835, 0.0, 0.0, 0.0070921985815602835, 0.0, 0.0, 0.0070921985815602835, 0.0070921985815602835, 0.0070921985815602835, 0.0070921985815602835, 0.0070921985815602835, 0.0, 0.0, 0.0, 0.0, 0.0, 0.0, 0.0, 0.0, 0.0070921985815602835, 0.0, 0.0070921985815602835, 0.0, 0.0070921985815602835, 0.0, 0.0070921985815602835, 0.0070921985815602835, 0.0, 0.0070921985815602835, 0.0070921985815602835, 0.0, 0.0070921985815602835, 0.0070921985815602835, 0.0, 0.0, 0.0, 0.0070921985815602835, 0.0, 0.0, 0.0070921985815602835, 0.0070921985815602835, 0.0070921985815602835, 0.0070921985815602835, 0.0070921985815602835, 0.0, 0.0070921985815602835, 0.0070921985815602835, 0.0, 0.0070921985815602835, 0.0, 0.0070921985815602835, 0.0070921985815602835, 0.0070921985815602835, 0.0070921985815602835, 0.0, 0.0070921985815602835, 0.0, 0.0, 0.0, 0.0070921985815602835, 0.0, 0.0, 0.0070921985815602835, 0.0070921985815602835, 0.0, 0.0070921985815602835, 0.0070921985815602835, 0.0070921985815602835, 0.0070921985815602835, 0.0070921985815602835, 0.0, 0.0070921985815602835, 0.0, 0.0070921985815602835, 0.0, 0.0, 0.0, 0.0070921985815602835, 0.0070921985815602835, 0.0, 0.0070921985815602835, 0.0070921985815602835, 0.0, 0.0070921985815602835, 0.0, 0.0, 0.0, 0.0, 0.0, 0.0, 0.0070921985815602835, 0.0070921985815602835, 0.0, 0.0070921985815602835, 0.0, 0.0070921985815602835, 0.0070921985815602835, 0.0070921985815602835, 0.0070921985815602835, 0.0, 0.0070921985815602835, 0.0070921985815602835, 0.0, 0.0070921985815602835, 0.0, 0.0070921985815602835, 0.0070921985815602835, 0.0, 0.0070921985815602835, 0.0, 0.0070921985815602835, 0.0070921985815602835, 0.0, 0.0070921985815602835, 0.0, 0.0070921985815602835, 0.0070921985815602835, 0.0070921985815602835, 0.0, 0.0070921985815602835, 0.0070921985815602835, 0.0, 0.0, 0.0, 0.0, 0.0070921985815602835, 0.0, 0.0, 0.0, 0.0, 0.0, 0.0, 0.0070921985815602835, 0.0070921985815602835, 0.0, 0.0, 0.0, 0.0070921985815602835, 0.0, 0.0, 0.0070921985815602835, 0.014184397163120567, 0.0, 0.0, 0.0070921985815602835, 0.0, 0.0, 0.0, 0.014184397163120567, 0.0070921985815602835, 0.0070921985815602835, 0.014184397163120567, 0.0, 0.0, 0.0, 0.0070921985815602835, 0.0, 0.0, 0.0070921985815602835, 0.0, 0.0, 0.0070921985815602835, 0.0070921985815602835, 0.0, 0.0, 0.0, 0.0070921985815602835, 0.0, 0.0, 0.0, 0.014184397163120567, 0.0070921985815602835, 0.0070921985815602835, 0.0, 0.0070921985815602835, 0.0070921985815602835, 0.0070921985815602835, 0.0, 0.0, 0.0, 0.0070921985815602835, 0.0, 0.0, 0.0, 0.0, 0.0, 0.0070921985815602835, 0.0070921985815602835, 0.0070921985815602835, 0.0, 0.0, 0.0, 0.0070921985815602835, 0.0, 0.0, 0.0, 0.0070921985815602835, 0.0, 0.0, 0.0, 0.0, 0.0070921985815602835, 0.0070921985815602835, 0.0070921985815602835, 0.0070921985815602835, 0.0070921985815602835, 0.014184397163120567, 0.0070921985815602835, 0.0, 0.0070921985815602835, 0.0, 0.0, 0.0070921985815602835, 0.0, 0.0070921985815602835, 0.0070921985815602835, 0.0, 0.0070921985815602835, 0.0, 0.0, 0.0070921985815602835, 0.0070921985815602835, 0.0070921985815602835, 0.0, 0.0070921985815602835, 0.0, 0.014184397163120567, 0.0, 0.0070921985815602835, 0.014184397163120567, 0.0, 0.0070921985815602835, 0.0, 0.0070921985815602835, 0.0, 0.0070921985815602835, 0.0070921985815602835, 0.014184397163120567, 0.0, 0.0, 0.014184397163120567, 0.0070921985815602835, 0.0, 0.0070921985815602835;

}
probability ( target ) {
    table 0.5104166666666666, 0.4895833333333333 ;
}
