network unknown {
}
variable LV_1 {
    type discrete [ 2 ] { 0, 1 };
    property weight = None ;
}
variable LV_10 {
    type discrete [ 2 ] { 0, 1 };
    property weight = None ;
}
variable LV_11 {
    type discrete [ 2 ] { 0, 1 };
    property weight = None ;
}
variable LV_12 {
    type discrete [ 2 ] { 0, 1 };
    property weight = None ;
}
variable LV_13 {
    type discrete [ 2 ] { 0, 1 };
    property weight = None ;
}
variable LV_14 {
    type discrete [ 2 ] { 0, 1 };
    property weight = None ;
}
variable LV_15 {
    type discrete [ 2 ] { 0, 1 };
    property weight = None ;
}
variable LV_2 {
    type discrete [ 2 ] { 0, 1 };
    property weight = None ;
}
variable LV_3 {
    type discrete [ 2 ] { 0, 1 };
    property weight = None ;
}
variable LV_4 {
    type discrete [ 2 ] { 0, 1 };
    property weight = None ;
}
variable LV_5 {
    type discrete [ 2 ] { 0, 1 };
    property weight = None ;
}
variable LV_6 {
    type discrete [ 2 ] { 0, 1 };
    property weight = None ;
}
variable LV_7 {
    type discrete [ 2 ] { 0, 1 };
    property weight = None ;
}
variable LV_8 {
    type discrete [ 2 ] { 0, 1 };
    property weight = None ;
}
variable LV_9 {
    type discrete [ 2 ] { 0, 1 };
    property weight = None ;
}
variable attr_0 {
    type discrete [ 3 ] { 0, 1, 2 };
    property weight = None ;
}
variable attr_1 {
    type discrete [ 3 ] { 0, 1, 2 };
    property weight = None ;
}
variable attr_10 {
    type discrete [ 3 ] { 0, 1, 2 };
    property weight = None ;
}
variable attr_11 {
    type discrete [ 3 ] { 0, 1, 2 };
    property weight = None ;
}
variable attr_12 {
    type discrete [ 3 ] { 0, 1, 2 };
    property weight = None ;
}
variable attr_13 {
    type discrete [ 3 ] { 0, 1, 2 };
    property weight = None ;
}
variable attr_14 {
    type discrete [ 3 ] { 0, 1, 2 };
    property weight = None ;
}
variable attr_15 {
    type discrete [ 3 ] { 0, 1, 2 };
    property weight = None ;
}
variable attr_16 {
    type discrete [ 3 ] { 0, 1, 2 };
    property weight = None ;
}
variable attr_17 {
    type discrete [ 3 ] { 0, 1, 2 };
    property weight = None ;
}
variable attr_18 {
    type discrete [ 3 ] { 0, 1, 2 };
    property weight = None ;
}
variable attr_19 {
    type discrete [ 3 ] { 0, 1, 2 };
    property weight = None ;
}
variable attr_2 {
    type discrete [ 3 ] { 0, 1, 2 };
    property weight = None ;
}
variable attr_20 {
    type discrete [ 3 ] { 0, 1, 2 };
    property weight = None ;
}
variable attr_21 {
    type discrete [ 3 ] { 0, 1, 2 };
    property weight = None ;
}
variable attr_22 {
    type discrete [ 3 ] { 0, 1, 2 };
    property weight = None ;
}
variable attr_23 {
    type discrete [ 3 ] { 0, 1, 2 };
    property weight = None ;
}
variable attr_24 {
    type discrete [ 3 ] { 0, 1, 2 };
    property weight = None ;
}
variable attr_25 {
    type discrete [ 3 ] { 0, 1, 2 };
    property weight = None ;
}
variable attr_26 {
    type discrete [ 3 ] { 0, 1, 2 };
    property weight = None ;
}
variable attr_27 {
    type discrete [ 3 ] { 0, 1, 2 };
    property weight = None ;
}
variable attr_28 {
    type discrete [ 3 ] { 0, 1, 2 };
    property weight = None ;
}
variable attr_3 {
    type discrete [ 3 ] { 0, 1, 2 };
    property weight = None ;
}
variable attr_4 {
    type discrete [ 3 ] { 0, 1, 2 };
    property weight = None ;
}
variable attr_5 {
    type discrete [ 3 ] { 0, 1, 2 };
    property weight = None ;
}
variable attr_6 {
    type discrete [ 3 ] { 0, 1, 2 };
    property weight = None ;
}
variable attr_7 {
    type discrete [ 3 ] { 0, 1, 2 };
    property weight = None ;
}
variable attr_8 {
    type discrete [ 3 ] { 0, 1, 2 };
    property weight = None ;
}
variable attr_9 {
    type discrete [ 3 ] { 0, 1, 2 };
    property weight = None ;
}
variable path {
    type discrete [ 347 ] { 0, 1, 2, 3, 4, 5, 6, 7, 8, 9, 10, 11, 12, 13, 14, 15, 16, 17, 18, 19, 20, 21, 22, 23, 24, 25, 26, 27, 28, 29, 30, 31, 32, 33, 34, 35, 36, 37, 38, 39, 40, 41, 42, 43, 44, 45, 46, 47, 48, 49, 50, 51, 52, 53, 54, 55, 56, 57, 58, 59, 60, 61, 62, 63, 64, 65, 66, 67, 68, 69, 70, 71, 72, 73, 74, 75, 76, 77, 78, 79, 80, 81, 82, 83, 84, 85, 86, 87, 88, 89, 90, 91, 92, 93, 94, 95, 96, 97, 98, 99, 100, 101, 102, 103, 104, 105, 106, 107, 108, 109, 110, 111, 112, 113, 114, 115, 116, 117, 118, 119, 120, 121, 122, 123, 124, 125, 126, 127, 128, 129, 130, 131, 132, 133, 134, 135, 136, 137, 138, 139, 140, 141, 142, 143, 144, 145, 146, 147, 148, 149, 150, 151, 152, 153, 154, 155, 156, 157, 158, 159, 160, 161, 162, 163, 164, 165, 166, 167, 168, 169, 170, 171, 172, 173, 174, 175, 176, 177, 178, 179, 180, 181, 182, 183, 184, 185, 186, 187, 188, 189, 190, 191, 192, 193, 194, 195, 196, 197, 198, 199, 200, 201, 202, 203, 204, 205, 206, 207, 208, 209, 210, 211, 212, 213, 214, 215, 216, 217, 218, 219, 220, 221, 222, 223, 224, 225, 226, 227, 228, 229, 230, 231, 232, 233, 234, 235, 236, 237, 238, 239, 240, 241, 242, 243, 244, 245, 246, 247, 248, 249, 250, 251, 252, 253, 254, 255, 256, 257, 258, 259, 260, 261, 262, 263, 264, 265, 266, 267, 268, 269, 270, 271, 272, 273, 274, 275, 276, 277, 278, 279, 280, 281, 282, 283, 284, 285, 286, 287, 288, 289, 290, 291, 292, 293, 294, 295, 296, 297, 298, 299, 300, 301, 302, 303, 304, 305, 306, 307, 308, 309, 310, 311, 312, 313, 314, 315, 316, 317, 318, 319, 320, 321, 322, 323, 324, 325, 326, 327, 328, 329, 330, 331, 332, 333, 334, 335, 336, 337, 338, 339, 340, 341, 342, 343, 344, 345, 346 };
    property weight = None ;
}
variable target {
    type discrete [ 2 ] { 0, 1 };
    property weight = None ;
}
probability ( LV_1 | target ) {
    ( 0 ) 0.3888888888888889, 0.6111111111111112;
    ( 1 ) 0.15555555555555556, 0.8444444444444444;

}
probability ( LV_10 | target ) {
    ( 0 ) 0.7333333333333333, 0.26666666666666666;
    ( 1 ) 0.34444444444444444, 0.6555555555555556;

}
probability ( LV_11 | target ) {
    ( 0 ) 0.06111111111111111, 0.9388888888888889;
    ( 1 ) 0.45555555555555555, 0.5444444444444444;

}
probability ( LV_12 | target ) {
    ( 0 ) 0.35555555555555557, 0.6444444444444445;
    ( 1 ) 0.7333333333333333, 0.26666666666666666;

}
probability ( LV_13 | target ) {
    ( 0 ) 0.5388888888888889, 0.46111111111111114;
    ( 1 ) 0.37222222222222223, 0.6277777777777778;

}
probability ( LV_14 | target ) {
    ( 0 ) 0.09444444444444444, 0.9055555555555556;
    ( 1 ) 0.6055555555555555, 0.39444444444444443;

}
probability ( LV_15 | target ) {
    ( 0 ) 0.9333333333333333, 0.06666666666666667;
    ( 1 ) 0.5888888888888889, 0.4111111111111111;

}
probability ( LV_2 | target ) {
    ( 0 ) 0.7555555555555555, 0.24444444444444444;
    ( 1 ) 0.16666666666666666, 0.8333333333333334;

}
probability ( LV_3 | target ) {
    ( 0 ) 0.8055555555555556, 0.19444444444444445;
    ( 1 ) 0.3277777777777778, 0.6722222222222223;

}
probability ( LV_4 | target ) {
    ( 0 ) 0.5833333333333334, 0.4166666666666667;
    ( 1 ) 0.18333333333333332, 0.8166666666666667;

}
probability ( LV_5 | target ) {
    ( 0 ) 0.8277777777777777, 0.17222222222222222;
    ( 1 ) 0.46111111111111114, 0.5388888888888889;

}
probability ( LV_6 | target ) {
    ( 0 ) 0.6388888888888888, 0.3611111111111111;
    ( 1 ) 0.28888888888888886, 0.7111111111111111;

}
probability ( LV_7 | target ) {
    ( 0 ) 0.9388888888888889, 0.06111111111111111;
    ( 1 ) 0.5555555555555556, 0.4444444444444444;

}
probability ( LV_8 | target ) {
    ( 0 ) 0.32222222222222224, 0.6777777777777778;
    ( 1 ) 0.6444444444444445, 0.35555555555555557;

}
probability ( LV_9 | target ) {
    ( 0 ) 0.6611111111111111, 0.3388888888888889;
    ( 1 ) 0.34444444444444444, 0.6555555555555556;

}
probability ( attr_0 | LV_1 ) {
    ( 0 ) 0.16326530612244897, 0.8367346938775511, 0.0;
    ( 1 ) 0.0, 0.0, 1.0;

}
probability ( attr_1 | LV_2 ) {
    ( 0 ) 0.0, 0.8614457831325302, 0.13855421686746988;
    ( 1 ) 0.4072164948453608, 0.12371134020618557, 0.4690721649484536;

}
probability ( attr_10 | LV_6 ) {
    ( 0 ) 0.0, 0.18562874251497005, 0.8143712574850299;
    ( 1 ) 0.7668393782383419, 0.23316062176165803, 0.0;

}
probability ( attr_11 | LV_7 ) {
    ( 0 ) 0.0, 0.929368029739777, 0.07063197026022305;
    ( 1 ) 0.4835164835164835, 0.08791208791208792, 0.42857142857142855;

}
probability ( attr_12 | LV_7 ) {
    ( 0 ) 0.49070631970260226, 0.0, 0.5092936802973977;
    ( 1 ) 0.07692307692307693, 0.2087912087912088, 0.7142857142857143;

}
probability ( attr_13 | LV_8 ) {
    ( 0 ) 0.005747126436781609, 0.08620689655172414, 0.9080459770114943;
    ( 1 ) 0.967741935483871, 0.03225806451612903, 0.0;

}
probability ( attr_14 | LV_8 ) {
    ( 0 ) 0.20689655172413793, 0.07471264367816093, 0.7183908045977011;
    ( 1 ) 0.489247311827957, 0.0, 0.510752688172043;

}
probability ( attr_15 | LV_9 ) {
    ( 0 ) 0.0, 0.3701657458563536, 0.6298342541436464;
    ( 1 ) 0.05027932960893855, 0.24022346368715083, 0.7094972067039106;

}
probability ( attr_16 | LV_9 ) {
    ( 0 ) 0.06629834254143646, 0.0, 0.9337016574585635;
    ( 1 ) 0.0, 0.994413407821229, 0.00558659217877095;

}
probability ( attr_17 | LV_10 ) {
    ( 0 ) 0.16494845360824742, 0.0, 0.8350515463917526;
    ( 1 ) 0.0, 0.9939759036144579, 0.006024096385542169;

}
probability ( attr_18 | LV_10 ) {
    ( 0 ) 0.0, 0.5257731958762887, 0.4742268041237113;
    ( 1 ) 0.06626506024096386, 0.3433734939759036, 0.5903614457831325;

}
probability ( attr_19 | LV_11 ) {
    ( 0 ) 0.7204301075268817, 0.0, 0.27956989247311825;
    ( 1 ) 0.5767790262172284, 0.1760299625468165, 0.24719101123595505;

}
probability ( attr_2 | LV_2 ) {
    ( 0 ) 0.5783132530120482, 0.0, 0.42168674698795183;
    ( 1 ) 0.030927835051546393, 0.5670103092783505, 0.4020618556701031;

}
probability ( attr_20 | LV_11 ) {
    ( 0 ) 1.0, 0.0, 0.0;
    ( 1 ) 0.018726591760299626, 0.7228464419475655, 0.25842696629213485;

}
probability ( attr_21 | LV_12 ) {
    ( 0 ) 0.0, 0.7091836734693877, 0.29081632653061223;
    ( 1 ) 0.3475609756097561, 0.0, 0.6524390243902439;

}
probability ( attr_22 | LV_12 ) {
    ( 0 ) 0.5561224489795918, 0.3979591836734694, 0.04591836734693878;
    ( 1 ) 0.06707317073170732, 0.9329268292682927, 0.0;

}
probability ( attr_23 | LV_13 ) {
    ( 0 ) 0.8841463414634146, 0.0, 0.11585365853658537;
    ( 1 ) 0.015306122448979591, 0.9846938775510204, 0.0;

}
probability ( attr_24 | LV_13 ) {
    ( 0 ) 0.3902439024390244, 0.0, 0.6097560975609756;
    ( 1 ) 0.3163265306122449, 0.07653061224489796, 0.6071428571428571;

}
probability ( attr_25 | LV_14 ) {
    ( 0 ) 0.24603174603174602, 0.09523809523809523, 0.6587301587301587;
    ( 1 ) 0.0, 0.004273504273504274, 0.9957264957264957;

}
probability ( attr_26 | LV_14 ) {
    ( 0 ) 0.8015873015873016, 0.015873015873015872, 0.18253968253968253;
    ( 1 ) 0.0, 0.3076923076923077, 0.6923076923076923;

}
probability ( attr_27 | LV_15 ) {
    ( 0 ) 0.0, 0.8321167883211679, 0.1678832116788321;
    ( 1 ) 0.8604651162790697, 0.12790697674418605, 0.011627906976744186;

}
probability ( attr_28 | LV_15 ) {
    ( 0 ) 0.0, 0.22262773722627738, 0.7773722627737226;
    ( 1 ) 0.2441860465116279, 0.046511627906976744, 0.7093023255813954;

}
probability ( attr_3 | LV_3 ) {
    ( 0 ) 0.0, 0.7941176470588235, 0.20588235294117646;
    ( 1 ) 0.8910256410256411, 0.00641025641025641, 0.10256410256410256;

}
probability ( attr_4 | LV_3 ) {
    ( 0 ) 0.0, 0.8774509803921569, 0.12254901960784313;
    ( 1 ) 0.07692307692307693, 0.3076923076923077, 0.6153846153846154;

}
probability ( attr_5 | LV_4 ) {
    ( 0 ) 0.0, 0.4420289855072464, 0.5579710144927537;
    ( 1 ) 0.018018018018018018, 0.9819819819819819, 0.0;

}
probability ( attr_6 | LV_4 ) {
    ( 0 ) 0.2898550724637681, 0.17391304347826086, 0.5362318840579711;
    ( 1 ) 0.0, 1.0, 0.0;

}
probability ( attr_7 | LV_5 ) {
    ( 0 ) 0.5603448275862069, 0.0, 0.4396551724137931;
    ( 1 ) 0.0078125, 0.84375, 0.1484375;

}
probability ( attr_8 | LV_5 ) {
    ( 0 ) 0.0, 0.978448275862069, 0.021551724137931036;
    ( 1 ) 0.140625, 0.6015625, 0.2578125;

}
probability ( attr_9 | LV_6 ) {
    ( 0 ) 0.6167664670658682, 0.0, 0.38323353293413176;
    ( 1 ) 0.23316062176165803, 0.03626943005181347, 0.7305699481865285;

}
probability ( path | LV_1 ) {
    ( 0 ) 0.0, 0.0, 0.0, 0.01020408163265306, 0.0, 0.0, 0.0, 0.01020408163265306, 0.0, 0.0, 0.0, 0.0, 0.0, 0.0, 0.0, 0.0, 0.01020408163265306, 0.0, 0.0, 0.0, 0.0, 0.0, 0.0, 0.01020408163265306, 0.01020408163265306, 0.01020408163265306, 0.0, 0.01020408163265306, 0.01020408163265306, 0.01020408163265306, 0.0, 0.01020408163265306, 0.0, 0.0, 0.0, 0.0, 0.0, 0.01020408163265306, 0.01020408163265306, 0.0, 0.0, 0.0, 0.01020408163265306, 0.01020408163265306, 0.0, 0.01020408163265306, 0.0, 0.0, 0.0, 0.0, 0.0, 0.0, 0.01020408163265306, 0.0, 0.0, 0.0, 0.0, 0.0, 0.0, 0.0, 0.0, 0.0, 0.01020408163265306, 0.0, 0.0, 0.0, 0.01020408163265306, 0.0, 0.0, 0.0, 0.0, 0.01020408163265306, 0.01020408163265306, 0.01020408163265306, 0.0, 0.0, 0.0, 0.01020408163265306, 0.0, 0.0, 0.0, 0.01020408163265306, 0.01020408163265306, 0.0, 0.0, 0.0, 0.0, 0.01020408163265306, 0.0, 0.01020408163265306, 0.0, 0.0, 0.0, 0.0, 0.0, 0.0, 0.01020408163265306, 0.0, 0.01020408163265306, 0.0, 0.0, 0.01020408163265306, 0.01020408163265306, 0.0, 0.01020408163265306, 0.01020408163265306, 0.0, 0.01020408163265306, 0.0, 0.0, 0.0, 0.01020408163265306, 0.01020408163265306, 0.01020408163265306, 0.0, 0.0, 0.01020408163265306, 0.0, 0.01020408163265306, 0.0, 0.01020408163265306, 0.0, 0.0, 0.0, 0.01020408163265306, 0.0, 0.01020408163265306, 0.0, 0.01020408163265306, 0.0, 0.0, 0.01020408163265306, 0.0, 0.0, 0.01020408163265306, 0.01020408163265306, 0.0, 0.0, 0.01020408163265306, 0.01020408163265306, 0.01020408163265306, 0.0, 0.0, 0.01020408163265306, 0.01020408163265306, 0.0, 0.0, 0.01020408163265306, 0.01020408163265306, 0.0, 0.01020408163265306, 0.0, 0.01020408163265306, 0.0, 0.0, 0.01020408163265306, 0.01020408163265306, 0.0, 0.01020408163265306, 0.0, 0.0, 0.01020408163265306, 0.01020408163265306, 0.0, 0.01020408163265306, 0.0, 0.0, 0.0, 0.0, 0.01020408163265306, 0.0, 0.0, 0.0, 0.0, 0.0, 0.0, 0.01020408163265306, 0.0, 0.0, 0.0, 0.0, 0.01020408163265306, 0.01020408163265306, 0.0, 0.0, 0.01020408163265306, 0.0, 0.01020408163265306, 0.01020408163265306, 0.0, 0.0, 0.01020408163265306, 0.0, 0.01020408163265306, 0.0, 0.01020408163265306, 0.0, 0.0, 0.01020408163265306, 0.01020408163265306, 0.0, 0.01020408163265306, 0.01020408163265306, 0.0, 0.0, 0.0, 0.0, 0.01020408163265306, 0.01020408163265306, 0.0, 0.0, 0.0, 0.01020408163265306, 0.0, 0.0, 0.0, 0.01020408163265306, 0.01020408163265306, 0.0, 0.0, 0.0, 0.0, 0.0, 0.01020408163265306, 0.0, 0.0, 0.0, 0.0, 0.0, 0.01020408163265306, 0.0, 0.0, 0.0, 0.01020408163265306, 0.0, 0.0, 0.0, 0.0, 0.0, 0.01020408163265306, 0.0, 0.0, 0.01020408163265306, 0.0, 0.0, 0.0, 0.0, 0.0, 0.0, 0.0, 0.0, 0.0, 0.0, 0.01020408163265306, 0.0, 0.0, 0.0, 0.0, 0.0, 0.0, 0.01020408163265306, 0.01020408163265306, 0.01020408163265306, 0.0, 0.0, 0.0, 0.0, 0.01020408163265306, 0.0, 0.01020408163265306, 0.0, 0.0, 0.0, 0.01020408163265306, 0.0, 0.0, 0.0, 0.0, 0.0, 0.0, 0.0, 0.0, 0.0, 0.0, 0.01020408163265306, 0.0, 0.01020408163265306, 0.0, 0.0, 0.01020408163265306, 0.0, 0.0, 0.01020408163265306, 0.0, 0.0, 0.0, 0.01020408163265306, 0.0, 0.0, 0.0, 0.0, 0.0, 0.0, 0.0, 0.0, 0.0, 0.0, 0.01020408163265306, 0.0, 0.0, 0.0, 0.0, 0.0, 0.0, 0.0, 0.0, 0.0, 0.0, 0.0, 0.0, 0.0, 0.0, 0.0, 0.0, 0.0, 0.0, 0.0, 0.0, 0.01020408163265306, 0.0, 0.0, 0.0, 0.0, 0.0, 0.0, 0.0, 0.0, 0.0, 0.0, 0.0, 0.0, 0.0, 0.0, 0.0, 0.0, 0.0, 0.0;
    ( 1 ) 0.003816793893129771, 0.003816793893129771, 0.003816793893129771, 0.0, 0.003816793893129771, 0.003816793893129771, 0.003816793893129771, 0.0, 0.003816793893129771, 0.003816793893129771, 0.003816793893129771, 0.003816793893129771, 0.003816793893129771, 0.003816793893129771, 0.003816793893129771, 0.003816793893129771, 0.0, 0.003816793893129771, 0.003816793893129771, 0.003816793893129771, 0.003816793893129771, 0.003816793893129771, 0.003816793893129771, 0.0, 0.0, 0.0, 0.003816793893129771, 0.0, 0.0, 0.0, 0.003816793893129771, 0.0, 0.003816793893129771, 0.003816793893129771, 0.003816793893129771, 0.003816793893129771, 0.003816793893129771, 0.0, 0.0, 0.003816793893129771, 0.003816793893129771, 0.003816793893129771, 0.0, 0.0, 0.003816793893129771, 0.0, 0.003816793893129771, 0.003816793893129771, 0.003816793893129771, 0.003816793893129771, 0.003816793893129771, 0.003816793893129771, 0.0, 0.003816793893129771, 0.003816793893129771, 0.003816793893129771, 0.003816793893129771, 0.003816793893129771, 0.003816793893129771, 0.003816793893129771, 0.003816793893129771, 0.003816793893129771, 0.0, 0.003816793893129771, 0.003816793893129771, 0.003816793893129771, 0.0, 0.003816793893129771, 0.003816793893129771, 0.003816793893129771, 0.003816793893129771, 0.0, 0.0, 0.0, 0.003816793893129771, 0.003816793893129771, 0.003816793893129771, 0.0, 0.003816793893129771, 0.003816793893129771, 0.003816793893129771, 0.0, 0.0, 0.003816793893129771, 0.003816793893129771, 0.003816793893129771, 0.003816793893129771, 0.0, 0.003816793893129771, 0.0, 0.003816793893129771, 0.003816793893129771, 0.003816793893129771, 0.003816793893129771, 0.003816793893129771, 0.003816793893129771, 0.0, 0.003816793893129771, 0.0, 0.003816793893129771, 0.003816793893129771, 0.0, 0.0, 0.003816793893129771, 0.0, 0.0, 0.003816793893129771, 0.0, 0.003816793893129771, 0.003816793893129771, 0.003816793893129771, 0.0, 0.0, 0.0, 0.003816793893129771, 0.003816793893129771, 0.0, 0.003816793893129771, 0.0, 0.003816793893129771, 0.0, 0.003816793893129771, 0.003816793893129771, 0.003816793893129771, 0.0, 0.003816793893129771, 0.0, 0.003816793893129771, 0.0, 0.003816793893129771, 0.003816793893129771, 0.0, 0.003816793893129771, 0.003816793893129771, 0.0, 0.0, 0.003816793893129771, 0.003816793893129771, 0.0, 0.0, 0.0, 0.003816793893129771, 0.003816793893129771, 0.0, 0.0, 0.003816793893129771, 0.003816793893129771, 0.0, 0.0, 0.003816793893129771, 0.0, 0.003816793893129771, 0.0, 0.003816793893129771, 0.003816793893129771, 0.0, 0.0, 0.003816793893129771, 0.0, 0.003816793893129771, 0.003816793893129771, 0.0, 0.0, 0.003816793893129771, 0.0, 0.003816793893129771, 0.003816793893129771, 0.003816793893129771, 0.003816793893129771, 0.0, 0.003816793893129771, 0.003816793893129771, 0.003816793893129771, 0.003816793893129771, 0.003816793893129771, 0.003816793893129771, 0.0, 0.003816793893129771, 0.003816793893129771, 0.003816793893129771, 0.003816793893129771, 0.0, 0.0, 0.003816793893129771, 0.003816793893129771, 0.0, 0.003816793893129771, 0.0, 0.0, 0.007633587786259542, 0.003816793893129771, 0.0, 0.003816793893129771, 0.0, 0.003816793893129771, 0.0, 0.003816793893129771, 0.003816793893129771, 0.0, 0.0, 0.003816793893129771, 0.0, 0.0, 0.003816793893129771, 0.003816793893129771, 0.007633587786259542, 0.003816793893129771, 0.0, 0.0, 0.003816793893129771, 0.003816793893129771, 0.007633587786259542, 0.0, 0.003816793893129771, 0.003816793893129771, 0.007633587786259542, 0.0, 0.0, 0.003816793893129771, 0.003816793893129771, 0.003816793893129771, 0.003816793893129771, 0.003816793893129771, 0.0, 0.003816793893129771, 0.003816793893129771, 0.003816793893129771, 0.003816793893129771, 0.003816793893129771, 0.0, 0.003816793893129771, 0.003816793893129771, 0.003816793893129771, 0.0, 0.003816793893129771, 0.003816793893129771, 0.003816793893129771, 0.003816793893129771, 0.003816793893129771, 0.0, 0.003816793893129771, 0.003816793893129771, 0.0, 0.007633587786259542, 0.007633587786259542, 0.007633587786259542, 0.003816793893129771, 0.003816793893129771, 0.003816793893129771, 0.003816793893129771, 0.007633587786259542, 0.003816793893129771, 0.003816793893129771, 0.0, 0.003816793893129771, 0.003816793893129771, 0.003816793893129771, 0.003816793893129771, 0.007633587786259542, 0.003816793893129771, 0.0, 0.0, 0.0, 0.003816793893129771, 0.003816793893129771, 0.003816793893129771, 0.003816793893129771, 0.0, 0.003816793893129771, 0.0, 0.007633587786259542, 0.007633587786259542, 0.003816793893129771, 0.0, 0.003816793893129771, 0.003816793893129771, 0.003816793893129771, 0.003816793893129771, 0.003816793893129771, 0.003816793893129771, 0.003816793893129771, 0.003816793893129771, 0.003816793893129771, 0.003816793893129771, 0.0, 0.003816793893129771, 0.0, 0.003816793893129771, 0.003816793893129771, 0.0, 0.003816793893129771, 0.003816793893129771, 0.0, 0.003816793893129771, 0.003816793893129771, 0.007633587786259542, 0.0, 0.003816793893129771, 0.003816793893129771, 0.003816793893129771, 0.003816793893129771, 0.003816793893129771, 0.003816793893129771, 0.003816793893129771, 0.007633587786259542, 0.003816793893129771, 0.003816793893129771, 0.0, 0.003816793893129771, 0.003816793893129771, 0.003816793893129771, 0.003816793893129771, 0.003816793893129771, 0.003816793893129771, 0.003816793893129771, 0.003816793893129771, 0.003816793893129771, 0.003816793893129771, 0.003816793893129771, 0.003816793893129771, 0.003816793893129771, 0.003816793893129771, 0.003816793893129771, 0.003816793893129771, 0.003816793893129771, 0.003816793893129771, 0.003816793893129771, 0.003816793893129771, 0.0, 0.003816793893129771, 0.003816793893129771, 0.003816793893129771, 0.003816793893129771, 0.003816793893129771, 0.003816793893129771, 0.003816793893129771, 0.003816793893129771, 0.003816793893129771, 0.003816793893129771, 0.003816793893129771, 0.003816793893129771, 0.003816793893129771, 0.003816793893129771, 0.003816793893129771, 0.003816793893129771, 0.003816793893129771, 0.003816793893129771;

}
probability ( target ) {
    table 0.5, 0.5 ;
}
