network unknown {
}
variable L_attr_3_attr_10 {
    type discrete [ 2 ] { 7_ou_4_ou_5_ou_8, 0_ou_1_ou_2_ou_3_ou_6 };
    property weight = None ;
}
variable attr_0 {
    type discrete [ 3 ] { 0, 1, 2 };
    property weight = None ;
}
variable attr_1 {
    type discrete [ 3 ] { 0, 1, 2 };
    property weight = None ;
}
variable attr_10 {
    type discrete [ 3 ] { 0, 1, 2 };
    property weight = None ;
}
variable attr_11 {
    type discrete [ 3 ] { 0, 1, 2 };
    property weight = None ;
}
variable attr_12 {
    type discrete [ 3 ] { 0, 1, 2 };
    property weight = None ;
}
variable attr_13 {
    type discrete [ 3 ] { 0, 1, 2 };
    property weight = None ;
}
variable attr_14 {
    type discrete [ 3 ] { 0, 1, 2 };
    property weight = None ;
}
variable attr_15 {
    type discrete [ 3 ] { 0, 1, 2 };
    property weight = None ;
}
variable attr_16 {
    type discrete [ 3 ] { 0, 1, 2 };
    property weight = None ;
}
variable attr_17 {
    type discrete [ 3 ] { 0, 1, 2 };
    property weight = None ;
}
variable attr_18 {
    type discrete [ 3 ] { 0, 1, 2 };
    property weight = None ;
}
variable attr_19 {
    type discrete [ 3 ] { 0, 1, 2 };
    property weight = None ;
}
variable attr_2 {
    type discrete [ 3 ] { 0, 1, 2 };
    property weight = None ;
}
variable attr_20 {
    type discrete [ 3 ] { 0, 1, 2 };
    property weight = None ;
}
variable attr_21 {
    type discrete [ 3 ] { 0, 1, 2 };
    property weight = None ;
}
variable attr_22 {
    type discrete [ 3 ] { 0, 1, 2 };
    property weight = None ;
}
variable attr_23 {
    type discrete [ 3 ] { 0, 1, 2 };
    property weight = None ;
}
variable attr_24 {
    type discrete [ 3 ] { 0, 1, 2 };
    property weight = None ;
}
variable attr_25 {
    type discrete [ 3 ] { 0, 1, 2 };
    property weight = None ;
}
variable attr_26 {
    type discrete [ 3 ] { 0, 1, 2 };
    property weight = None ;
}
variable attr_27 {
    type discrete [ 3 ] { 0, 1, 2 };
    property weight = None ;
}
variable attr_28 {
    type discrete [ 3 ] { 0, 1, 2 };
    property weight = None ;
}
variable attr_3 {
    type discrete [ 3 ] { 0, 1, 2 };
    property weight = None ;
}
variable attr_4 {
    type discrete [ 3 ] { 0, 1, 2 };
    property weight = None ;
}
variable attr_5 {
    type discrete [ 3 ] { 0, 1, 2 };
    property weight = None ;
}
variable attr_6 {
    type discrete [ 3 ] { 0, 1, 2 };
    property weight = None ;
}
variable attr_7 {
    type discrete [ 3 ] { 0, 1, 2 };
    property weight = None ;
}
variable attr_8 {
    type discrete [ 3 ] { 0, 1, 2 };
    property weight = None ;
}
variable attr_9 {
    type discrete [ 3 ] { 0, 1, 2 };
    property weight = None ;
}
variable path {
    type discrete [ 281 ] { 0, 1, 2, 4, 6, 7, 8, 9, 10, 11, 12, 14, 15, 17, 18, 19, 20, 21, 22, 24, 25, 27, 28, 29, 30, 31, 32, 34, 35, 36, 37, 38, 40, 41, 42, 43, 44, 45, 46, 47, 48, 50, 51, 52, 53, 54, 55, 56, 57, 58, 60, 62, 63, 64, 66, 67, 68, 71, 72, 73, 74, 76, 77, 79, 80, 81, 82, 83, 84, 85, 87, 88, 89, 91, 92, 93, 94, 96, 97, 98, 99, 100, 101, 102, 103, 104, 105, 106, 107, 108, 110, 111, 112, 113, 114, 115, 116, 119, 121, 122, 123, 124, 125, 126, 127, 128, 129, 130, 131, 132, 134, 135, 136, 138, 139, 141, 142, 143, 144, 145, 146, 147, 148, 149, 150, 151, 152, 153, 154, 155, 156, 159, 160, 163, 165, 167, 169, 171, 173, 174, 175, 176, 177, 178, 179, 180, 181, 182, 183, 185, 186, 187, 188, 189, 190, 191, 192, 193, 195, 196, 197, 198, 199, 200, 201, 204, 205, 207, 209, 210, 211, 212, 213, 214, 215, 216, 217, 218, 219, 220, 221, 222, 223, 225, 226, 227, 228, 229, 230, 232, 233, 235, 237, 238, 239, 240, 241, 242, 243, 244, 245, 247, 249, 250, 251, 252, 253, 254, 256, 257, 258, 259, 260, 261, 263, 265, 266, 268, 269, 270, 271, 272, 273, 274, 275, 276, 277, 278, 280, 281, 282, 283, 284, 286, 287, 291, 292, 293, 294, 295, 296, 298, 300, 301, 302, 303, 304, 305, 306, 307, 309, 310, 311, 312, 313, 314, 316, 317, 318, 319, 321, 322, 324, 325, 327, 328, 329, 330, 331, 332, 333, 335, 336, 337, 339, 341, 342, 343, 344, 345, 346 };
    property weight = None ;
}
variable target {
    type discrete [ 2 ] { 0, 1 };
    property weight = None ;
}
probability ( L_attr_3_attr_10 | target ) {
    ( 0 ) 0.5732669007924471, 0.42673309920755287;
    ( 1 ) 0.765251745752647, 0.23474825424735302;

}
probability ( attr_0 | target ) {
    ( 0 ) 0.013888888888888888, 0.375, 0.6111111111111112;
    ( 1 ) 0.09027777777777778, 0.09722222222222222, 0.8125;

}
probability ( attr_1 | target ) {
    ( 0 ) 0.05555555555555555, 0.7083333333333334, 0.2361111111111111;
    ( 1 ) 0.3888888888888889, 0.2222222222222222, 0.3888888888888889;

}
probability ( attr_10 | L_attr_3_attr_10 ) {
    ( 7_ou_4_ou_5_ou_8 ) 0.6619036092232409, 0.12205170308831867, 0.21604468768844054;
    ( 0_ou_1_ou_2_ou_3_ou_6 ) 0.48754567392225556, 0.2639100698220682, 0.24854425625567625;

}
probability ( attr_11 | target ) {
    ( 0 ) 0.013888888888888888, 0.8888888888888888, 0.09722222222222222;
    ( 1 ) 0.2222222222222222, 0.5486111111111112, 0.22916666666666666;

}
probability ( attr_12 | target ) {
    ( 0 ) 0.5902777777777778, 0.006944444444444444, 0.4027777777777778;
    ( 1 ) 0.2152777777777778, 0.09722222222222222, 0.6875;

}
probability ( attr_13 | target ) {
    ( 0 ) 0.6527777777777778, 0.006944444444444444, 0.3402777777777778;
    ( 1 ) 0.3819444444444444, 0.10416666666666667, 0.5138888888888888;

}
probability ( attr_14 | target ) {
    ( 0 ) 0.4583333333333333, 0.0, 0.5416666666666666;
    ( 1 ) 0.2361111111111111, 0.08333333333333333, 0.6805555555555556;

}
probability ( attr_15 | target ) {
    ( 0 ) 0.006944444444444444, 0.22916666666666666, 0.7638888888888888;
    ( 1 ) 0.04861111111111111, 0.3888888888888889, 0.5625;

}
probability ( attr_16 | target ) {
    ( 0 ) 0.04861111111111111, 0.3472222222222222, 0.6041666666666666;
    ( 1 ) 0.006944444444444444, 0.6388888888888888, 0.3541666666666667;

}
probability ( attr_17 | target ) {
    ( 0 ) 0.1597222222222222, 0.2569444444444444, 0.5833333333333334;
    ( 1 ) 0.013888888888888888, 0.6458333333333334, 0.3402777777777778;

}
probability ( attr_18 | target ) {
    ( 0 ) 0.0, 0.5763888888888888, 0.4236111111111111;
    ( 1 ) 0.0625, 0.2916666666666667, 0.6458333333333334;

}
probability ( attr_19 | target ) {
    ( 0 ) 0.4236111111111111, 0.25, 0.3263888888888889;
    ( 1 ) 0.7847222222222222, 0.020833333333333332, 0.19444444444444445;

}
probability ( attr_2 | target ) {
    ( 0 ) 0.4513888888888889, 0.1388888888888889, 0.4097222222222222;
    ( 1 ) 0.06944444444444445, 0.4791666666666667, 0.4513888888888889;

}
probability ( attr_20 | target ) {
    ( 0 ) 0.06944444444444445, 0.8194444444444444, 0.1111111111111111;
    ( 1 ) 0.4513888888888889, 0.2777777777777778, 0.2708333333333333;

}
probability ( attr_21 | target ) {
    ( 0 ) 0.2638888888888889, 0.24305555555555555, 0.4930555555555556;
    ( 1 ) 0.0625, 0.5069444444444444, 0.4305555555555556;

}
probability ( attr_22 | target ) {
    ( 0 ) 0.1527777777777778, 0.8472222222222222, 0.0;
    ( 1 ) 0.5069444444444444, 0.4513888888888889, 0.041666666666666664;

}
probability ( attr_23 | target ) {
    ( 0 ) 0.4305555555555556, 0.4583333333333333, 0.1111111111111111;
    ( 1 ) 0.3680555555555556, 0.6180555555555556, 0.013888888888888888;

}
probability ( attr_24 | target ) {
    ( 0 ) 0.5277777777777778, 0.0, 0.4722222222222222;
    ( 1 ) 0.16666666666666666, 0.0763888888888889, 0.7569444444444444;

}
probability ( attr_25 | target ) {
    ( 0 ) 0.006944444444444444, 0.0, 0.9930555555555556;
    ( 1 ) 0.1736111111111111, 0.06944444444444445, 0.7569444444444444;

}
probability ( attr_26 | target ) {
    ( 0 ) 0.09027777777777778, 0.3541666666666667, 0.5555555555555556;
    ( 1 ) 0.4444444444444444, 0.06944444444444445, 0.4861111111111111;

}
probability ( attr_27 | target ) {
    ( 0 ) 0.04861111111111111, 0.8472222222222222, 0.10416666666666667;
    ( 1 ) 0.3333333333333333, 0.5069444444444444, 0.1597222222222222;

}
probability ( attr_28 | target ) {
    ( 0 ) 0.006944444444444444, 0.2708333333333333, 0.7222222222222222;
    ( 1 ) 0.09722222222222222, 0.1111111111111111, 0.7916666666666666;

}
probability ( attr_3 | L_attr_3_attr_10 ) {
    ( 7_ou_4_ou_5_ou_8 ) 0.5822678284158538, 0.2692085284235651, 0.14852364316058117;
    ( 0_ou_1_ou_2_ou_3_ou_6 ) 0.4191825574786523, 0.4647284860306772, 0.11608895649067055;

}
probability ( attr_4 | target ) {
    ( 0 ) 0.0, 0.7986111111111112, 0.2013888888888889;
    ( 1 ) 0.06944444444444445, 0.4583333333333333, 0.4722222222222222;

}
probability ( attr_5 | target ) {
    ( 0 ) 0.0, 0.6666666666666666, 0.3333333333333333;
    ( 1 ) 0.020833333333333332, 0.9097222222222222, 0.06944444444444445;

}
probability ( attr_6 | target ) {
    ( 0 ) 0.2361111111111111, 0.4722222222222222, 0.2916666666666667;
    ( 1 ) 0.020833333333333332, 0.8680555555555556, 0.1111111111111111;

}
probability ( attr_7 | target ) {
    ( 0 ) 0.5277777777777778, 0.1597222222222222, 0.3125;
    ( 1 ) 0.2013888888888889, 0.4513888888888889, 0.3472222222222222;

}
probability ( attr_8 | target ) {
    ( 0 ) 0.0, 0.9583333333333334, 0.041666666666666664;
    ( 1 ) 0.09722222222222222, 0.7430555555555556, 0.1597222222222222;

}
probability ( attr_9 | target ) {
    ( 0 ) 0.5416666666666666, 0.034722222222222224, 0.4236111111111111;
    ( 1 ) 0.3055555555555556, 0.006944444444444444, 0.6875;

}
probability ( path | target ) {
    ( 0 ) 0.0, 0.0, 0.0, 0.006944444444444444, 0.0, 0.006944444444444444, 0.0, 0.0, 0.006944444444444444, 0.0, 0.0, 0.0, 0.0, 0.006944444444444444, 0.006944444444444444, 0.006944444444444444, 0.006944444444444444, 0.006944444444444444, 0.0, 0.006944444444444444, 0.006944444444444444, 0.006944444444444444, 0.006944444444444444, 0.0, 0.0, 0.006944444444444444, 0.006944444444444444, 0.006944444444444444, 0.006944444444444444, 0.0, 0.006944444444444444, 0.0, 0.0, 0.0, 0.006944444444444444, 0.0, 0.006944444444444444, 0.006944444444444444, 0.006944444444444444, 0.0, 0.006944444444444444, 0.006944444444444444, 0.006944444444444444, 0.006944444444444444, 0.0, 0.0, 0.006944444444444444, 0.006944444444444444, 0.006944444444444444, 0.0, 0.006944444444444444, 0.006944444444444444, 0.006944444444444444, 0.006944444444444444, 0.006944444444444444, 0.006944444444444444, 0.006944444444444444, 0.006944444444444444, 0.006944444444444444, 0.006944444444444444, 0.006944444444444444, 0.006944444444444444, 0.0, 0.006944444444444444, 0.0, 0.006944444444444444, 0.006944444444444444, 0.006944444444444444, 0.006944444444444444, 0.0, 0.006944444444444444, 0.0, 0.0, 0.006944444444444444, 0.0, 0.006944444444444444, 0.0, 0.006944444444444444, 0.006944444444444444, 0.0, 0.006944444444444444, 0.006944444444444444, 0.006944444444444444, 0.0, 0.006944444444444444, 0.006944444444444444, 0.006944444444444444, 0.006944444444444444, 0.0, 0.006944444444444444, 0.006944444444444444, 0.006944444444444444, 0.006944444444444444, 0.006944444444444444, 0.006944444444444444, 0.006944444444444444, 0.006944444444444444, 0.006944444444444444, 0.006944444444444444, 0.006944444444444444, 0.006944444444444444, 0.006944444444444444, 0.006944444444444444, 0.006944444444444444, 0.006944444444444444, 0.0, 0.0, 0.0, 0.006944444444444444, 0.006944444444444444, 0.006944444444444444, 0.006944444444444444, 0.006944444444444444, 0.006944444444444444, 0.006944444444444444, 0.006944444444444444, 0.006944444444444444, 0.006944444444444444, 0.006944444444444444, 0.006944444444444444, 0.006944444444444444, 0.0, 0.006944444444444444, 0.006944444444444444, 0.006944444444444444, 0.0, 0.006944444444444444, 0.0, 0.006944444444444444, 0.006944444444444444, 0.006944444444444444, 0.006944444444444444, 0.006944444444444444, 0.006944444444444444, 0.006944444444444444, 0.006944444444444444, 0.006944444444444444, 0.006944444444444444, 0.006944444444444444, 0.006944444444444444, 0.006944444444444444, 0.006944444444444444, 0.006944444444444444, 0.006944444444444444, 0.006944444444444444, 0.006944444444444444, 0.006944444444444444, 0.006944444444444444, 0.006944444444444444, 0.006944444444444444, 0.006944444444444444, 0.006944444444444444, 0.006944444444444444, 0.0, 0.0, 0.0, 0.0, 0.006944444444444444, 0.006944444444444444, 0.0, 0.006944444444444444, 0.006944444444444444, 0.006944444444444444, 0.006944444444444444, 0.0, 0.006944444444444444, 0.0, 0.0, 0.0, 0.0, 0.0, 0.006944444444444444, 0.0, 0.0, 0.0, 0.0, 0.0, 0.0, 0.0, 0.006944444444444444, 0.0, 0.0, 0.006944444444444444, 0.0, 0.006944444444444444, 0.0, 0.0, 0.0, 0.0, 0.006944444444444444, 0.0, 0.0, 0.0, 0.006944444444444444, 0.0, 0.0, 0.0, 0.006944444444444444, 0.006944444444444444, 0.0, 0.0, 0.0, 0.006944444444444444, 0.0, 0.006944444444444444, 0.006944444444444444, 0.0, 0.006944444444444444, 0.0, 0.0, 0.0, 0.0, 0.006944444444444444, 0.0, 0.0, 0.0, 0.0, 0.006944444444444444, 0.0, 0.0, 0.0, 0.0, 0.0, 0.006944444444444444, 0.0, 0.0, 0.0, 0.0, 0.0, 0.006944444444444444, 0.0, 0.0, 0.0, 0.0, 0.006944444444444444, 0.0, 0.0, 0.0, 0.0, 0.0, 0.0, 0.0, 0.0, 0.0, 0.0, 0.0, 0.0, 0.0, 0.0, 0.0, 0.006944444444444444, 0.0, 0.0, 0.0, 0.0, 0.0, 0.0, 0.006944444444444444, 0.0, 0.0, 0.0, 0.0, 0.006944444444444444, 0.0, 0.0, 0.006944444444444444, 0.0, 0.0, 0.0, 0.0, 0.0, 0.0, 0.0, 0.006944444444444444, 0.0, 0.0, 0.0, 0.0, 0.0, 0.0, 0.0;
    ( 1 ) 0.006944444444444444, 0.006944444444444444, 0.006944444444444444, 0.0, 0.006944444444444444, 0.0, 0.006944444444444444, 0.006944444444444444, 0.0, 0.006944444444444444, 0.006944444444444444, 0.006944444444444444, 0.006944444444444444, 0.0, 0.0, 0.0, 0.0, 0.0, 0.006944444444444444, 0.0, 0.0, 0.0, 0.0, 0.006944444444444444, 0.006944444444444444, 0.0, 0.0, 0.0, 0.0, 0.006944444444444444, 0.0, 0.006944444444444444, 0.006944444444444444, 0.006944444444444444, 0.0, 0.006944444444444444, 0.0, 0.0, 0.0, 0.006944444444444444, 0.0, 0.0, 0.0, 0.0, 0.006944444444444444, 0.006944444444444444, 0.0, 0.0, 0.0, 0.006944444444444444, 0.0, 0.0, 0.0, 0.0, 0.0, 0.0, 0.0, 0.0, 0.0, 0.0, 0.0, 0.0, 0.006944444444444444, 0.0, 0.006944444444444444, 0.0, 0.0, 0.0, 0.0, 0.006944444444444444, 0.0, 0.006944444444444444, 0.006944444444444444, 0.0, 0.006944444444444444, 0.0, 0.006944444444444444, 0.0, 0.0, 0.006944444444444444, 0.0, 0.0, 0.0, 0.006944444444444444, 0.0, 0.0, 0.0, 0.0, 0.006944444444444444, 0.0, 0.0, 0.0, 0.0, 0.0, 0.0, 0.0, 0.0, 0.0, 0.0, 0.0, 0.0, 0.0, 0.0, 0.0, 0.0, 0.006944444444444444, 0.006944444444444444, 0.006944444444444444, 0.0, 0.0, 0.0, 0.0, 0.0, 0.0, 0.0, 0.0, 0.0, 0.0, 0.0, 0.0, 0.0, 0.006944444444444444, 0.0, 0.0, 0.0, 0.006944444444444444, 0.0, 0.006944444444444444, 0.0, 0.0, 0.0, 0.0, 0.0, 0.0, 0.0, 0.0, 0.0, 0.0, 0.0, 0.0, 0.0, 0.0, 0.0, 0.0, 0.0, 0.0, 0.0, 0.0, 0.0, 0.0, 0.0, 0.0, 0.0, 0.013888888888888888, 0.006944444444444444, 0.006944444444444444, 0.006944444444444444, 0.0, 0.0, 0.006944444444444444, 0.0, 0.0, 0.0, 0.0, 0.006944444444444444, 0.0, 0.013888888888888888, 0.006944444444444444, 0.006944444444444444, 0.006944444444444444, 0.006944444444444444, 0.0, 0.006944444444444444, 0.006944444444444444, 0.013888888888888888, 0.006944444444444444, 0.006944444444444444, 0.006944444444444444, 0.006944444444444444, 0.0, 0.006944444444444444, 0.006944444444444444, 0.0, 0.006944444444444444, 0.0, 0.006944444444444444, 0.006944444444444444, 0.006944444444444444, 0.006944444444444444, 0.0, 0.006944444444444444, 0.006944444444444444, 0.006944444444444444, 0.0, 0.006944444444444444, 0.006944444444444444, 0.006944444444444444, 0.0, 0.006944444444444444, 0.013888888888888888, 0.006944444444444444, 0.006944444444444444, 0.0, 0.006944444444444444, 0.0, 0.0, 0.006944444444444444, 0.0, 0.006944444444444444, 0.006944444444444444, 0.006944444444444444, 0.006944444444444444, 0.0, 0.006944444444444444, 0.006944444444444444, 0.006944444444444444, 0.006944444444444444, 0.0, 0.006944444444444444, 0.006944444444444444, 0.013888888888888888, 0.006944444444444444, 0.006944444444444444, 0.0, 0.006944444444444444, 0.006944444444444444, 0.006944444444444444, 0.006944444444444444, 0.006944444444444444, 0.0, 0.006944444444444444, 0.006944444444444444, 0.006944444444444444, 0.006944444444444444, 0.0, 0.006944444444444444, 0.006944444444444444, 0.006944444444444444, 0.006944444444444444, 0.013888888888888888, 0.006944444444444444, 0.006944444444444444, 0.006944444444444444, 0.006944444444444444, 0.006944444444444444, 0.006944444444444444, 0.006944444444444444, 0.006944444444444444, 0.006944444444444444, 0.006944444444444444, 0.0, 0.006944444444444444, 0.006944444444444444, 0.006944444444444444, 0.006944444444444444, 0.006944444444444444, 0.006944444444444444, 0.0, 0.006944444444444444, 0.006944444444444444, 0.006944444444444444, 0.006944444444444444, 0.0, 0.006944444444444444, 0.006944444444444444, 0.0, 0.006944444444444444, 0.006944444444444444, 0.006944444444444444, 0.006944444444444444, 0.006944444444444444, 0.006944444444444444, 0.006944444444444444, 0.0, 0.006944444444444444, 0.006944444444444444, 0.006944444444444444, 0.006944444444444444, 0.006944444444444444, 0.006944444444444444, 0.006944444444444444;

}
probability ( target ) {
    table 0.5, 0.5 ;
}
