network unknown {
}
variable BUY {
    type discrete [ 4 ] { 0, 1, 2, 3 };
    property weight = None ;
}
variable Doors {
    type discrete [ 4 ] { 0, 1, 2, 3 };
    property weight = None ;
}
variable L_BUY_MNT {
    type discrete [ 2 ] { 4_ou_10_ou_2_ou_0_ou_1_ou_8_ou_13_ou_7_ou_11_ou_14, 15_ou_3_ou_12_ou_5_ou_6_ou_9 };
    property weight = None ;
}
variable Lug {
    type discrete [ 3 ] { 0, 1, 2 };
    property weight = None ;
}
variable MNT {
    type discrete [ 4 ] { 0, 1, 2, 3 };
    property weight = None ;
}
variable Persons {
    type discrete [ 3 ] { 0, 1, 2 };
    property weight = None ;
}
variable Safe {
    type discrete [ 3 ] { 0, 1, 2 };
    property weight = None ;
}
variable class {
    type discrete [ 4 ] { 0, 1, 2, 3 };
    property weight = None ;
}
probability ( BUY | L_BUY_MNT ) {
    ( 4_ou_10_ou_2_ou_0_ou_1_ou_8_ou_13_ou_7_ou_11_ou_14 ) 0.31301244379471116, 0.26133643630528863, 0.2535603064967087, 0.17209081340329163;
    ( 15_ou_3_ou_12_ou_5_ou_6_ou_9 ) 0.25802222148031845, 0.1983954604339852, 0.19166671874603364, 0.35191559933966277;

}
probability ( Doors | class ) {
    ( 0 ) 0.2709677419354839, 0.2064516129032258, 0.25161290322580643, 0.2709677419354839;
    ( 1 ) 0.2777777777777778, 0.24074074074074073, 0.25925925925925924, 0.2222222222222222;
    ( 2 ) 0.26059979317476734, 0.2512926577042399, 0.24405377456049637, 0.24405377456049637;
    ( 3 ) 0.2549019607843137, 0.1568627450980392, 0.35294117647058826, 0.23529411764705882;

}
probability ( L_BUY_MNT | class ) {
    ( 0 ) 0.7721206632338434, 0.22787933676615657;
    ( 1 ) 0.999572073463545, 0.0004279265364549294;
    ( 2 ) 0.6444562044034796, 0.3555437955965204;
    ( 3 ) 0.6251013820436788, 0.3748986179563212;

}
probability ( Lug | class ) {
    ( 0 ) 0.3709677419354839, 0.34838709677419355, 0.2806451612903226;
    ( 1 ) 0.3148148148148148, 0.35185185185185186, 0.3333333333333333;
    ( 2 ) 0.296794208893485, 0.32368148914167527, 0.3795243019648397;
    ( 3 ) 0.5490196078431373, 0.45098039215686275, 0.0;

}
probability ( MNT | L_BUY_MNT ) {
    ( 4_ou_10_ou_2_ou_0_ou_1_ou_8_ou_13_ou_7_ou_11_ou_14 ) 0.3089606253672571, 0.25688735247385097, 0.2602840202642951, 0.17386800189459672;
    ( 15_ou_3_ou_12_ou_5_ou_6_ou_9 ) 0.1300681387490954, 0.2640485636492733, 0.3762319288099493, 0.22965136879168194;

}
probability ( Persons | class ) {
    ( 0 ) 0.0, 0.47096774193548385, 0.5290322580645161;
    ( 1 ) 0.0, 0.46296296296296297, 0.5370370370370371;
    ( 2 ) 0.4736297828335057, 0.2750775594622544, 0.2512926577042399;
    ( 3 ) 0.0, 0.49019607843137253, 0.5098039215686274;

}
probability ( Safe | class ) {
    ( 0 ) 0.5387096774193548, 0.0, 0.4612903225806452;
    ( 1 ) 0.48148148148148145, 0.0, 0.5185185185185185;
    ( 2 ) 0.2264736297828335, 0.4860392967942089, 0.2874870734229576;
    ( 3 ) 1.0, 0.0, 0.0;

}
probability ( class ) {
    table 0.22431259044862517, 0.03907380607814761, 0.6997105643994211, 0.03690303907380608 ;
}
