network unknown {
}
variable BUY {
    type discrete [ 4 ] { 0, 1, 2, 3 };
    property weight = None ;
}
variable Doors {
    type discrete [ 4 ] { 0, 1, 2, 3 };
    property weight = None ;
}
variable L_BUY_MNT {
    type discrete [ 2 ] { 4_ou_10_ou_1_ou_14_ou_7_ou_8_ou_2_ou_13_ou_0_ou_11, 15_ou_3_ou_12_ou_6_ou_5_ou_9 };
    property weight = None ;
}
variable Lug {
    type discrete [ 3 ] { 0, 1, 2 };
    property weight = None ;
}
variable MNT {
    type discrete [ 4 ] { 0, 1, 2, 3 };
    property weight = None ;
}
variable Persons {
    type discrete [ 3 ] { 0, 1, 2 };
    property weight = None ;
}
variable Safe {
    type discrete [ 3 ] { 0, 1, 2 };
    property weight = None ;
}
variable class {
    type discrete [ 4 ] { 0, 1, 2, 3 };
    property weight = None ;
}
probability ( BUY | L_BUY_MNT ) {
    ( 4_ou_10_ou_1_ou_14_ou_7_ou_8_ou_2_ou_13_ou_0_ou_11 ) 0.23262263072230574, 0.29107593732526993, 0.375474701948679, 0.10082673000374519;
    ( 15_ou_3_ou_12_ou_6_ou_5_ou_9 ) 0.23626757466338838, 0.24015360599264046, 0.2417177586422093, 0.2818610607017619;

}
probability ( Doors | class ) {
    ( 0 ) 0.27906976744186046, 0.19933554817275748, 0.26578073089701, 0.2558139534883721;
    ( 1 ) 0.25862068965517243, 0.2413793103448276, 0.27586206896551724, 0.22413793103448276;
    ( 2 ) 0.2358974358974359, 0.27384615384615385, 0.24205128205128204, 0.24820512820512822;
    ( 3 ) 0.3333333333333333, 0.16666666666666666, 0.2916666666666667, 0.20833333333333334;

}
probability ( L_BUY_MNT | class ) {
    ( 0 ) 0.8922929619433004, 0.10770703805669966;
    ( 1 ) 0.999993616939578, 6.3830604219551425e-06;
    ( 2 ) 0.5082597297059537, 0.4917402702940463;
    ( 3 ) 0.9997694761683226, 0.0002305238316774901;

}
probability ( Lug | class ) {
    ( 0 ) 0.38205980066445183, 0.34219269102990035, 0.2757475083056478;
    ( 1 ) 0.3448275862068966, 0.3448275862068966, 0.3103448275862069;
    ( 2 ) 0.3005128205128205, 0.3282051282051282, 0.3712820512820513;
    ( 3 ) 0.6875, 0.3125, 0.0;

}
probability ( MNT | L_BUY_MNT ) {
    ( 4_ou_10_ou_1_ou_14_ou_7_ou_8_ou_2_ou_13_ou_0_ou_11 ) 0.30789668101959533, 0.2733517627013417, 0.2736703570276237, 0.1450811992514393;
    ( 15_ou_3_ou_12_ou_6_ou_5_ou_9 ) 0.2174305217098802, 0.3069067719816365, 0.21055997610289273, 0.26510273020559055;

}
probability ( Persons | class ) {
    ( 0 ) 0.0, 0.4883720930232558, 0.5116279069767442;
    ( 1 ) 0.0, 0.46551724137931033, 0.5344827586206896;
    ( 2 ) 0.46153846153846156, 0.26871794871794874, 0.26974358974358975;
    ( 3 ) 0.0, 0.4791666666666667, 0.5208333333333334;

}
probability ( Safe | class ) {
    ( 0 ) 0.5481727574750831, 0.0, 0.45182724252491696;
    ( 1 ) 0.43103448275862066, 0.0, 0.5689655172413793;
    ( 2 ) 0.22256410256410256, 0.48102564102564105, 0.2964102564102564;
    ( 3 ) 1.0, 0.0, 0.0;

}
probability ( class ) {
    table 0.2178002894356006, 0.041968162083936326, 0.7054992764109985, 0.03473227206946455 ;
}
